#include "defines.h"
const static float B3[512] = {-0.985176f,-0.278522f,-0.639657f,-0.412063f,0.294864f,-0.548178f,0.936631f,0.221448f,0.134437f,1.815938f,1.531064f,-1.511707f,-0.863332f,0.708326f,-2.143327f,0.914395f,0.957480f,-0.761903f,0.784774f,0.532535f,0.575870f,-2.276572f,-1.670241f,-1.112058f,-0.083303f,-1.803060f,0.292259f,-0.792556f,-1.465116f,0.148846f,-1.730969f,1.580384f,0.710994f,0.923853f,-0.141054f,0.951222f,0.713876f,0.060323f,0.532239f,-1.740251f,0.288969f,2.647065f,0.691203f,-2.257848f,-2.288567f,-0.673694f,-0.074003f,0.355839f,1.569097f,0.175759f,0.859188f,-0.294273f,-0.541014f,-0.983129f,-2.062660f,-0.705601f,-0.956885f,-2.958714f,0.597963f,0.061200f,-1.580700f,-1.395400f,-2.536550f,0.832552f,0.193546f,-0.774917f,-0.460019f,1.304366f,0.241323f,0.033736f,-1.093143f,0.872384f,1.212722f,0.337831f,-0.732730f,0.880126f,1.688334f,0.137557f,0.332525f,0.641667f,0.609129f,-1.116329f,-0.246133f,-1.206711f,0.464834f,0.132283f,-0.284832f,-0.320943f,1.226209f,0.268127f,-1.445755f,-1.528840f,0.118590f,-1.726071f,0.785117f,0.018873f,-0.116868f,1.277556f,-0.430168f,-1.131685f,-0.016063f,-0.335382f,-0.568033f,0.312620f,-1.277445f,-0.410781f,-1.149717f,0.075250f,1.669898f,0.677587f,0.062097f,-0.083049f,0.412098f,0.774061f,-0.505788f,-1.223409f,0.672504f,-0.872967f,0.438415f,-0.430297f,-0.085641f,-0.642776f,-1.004902f,1.171391f,-1.280397f,0.268186f,1.711901f,-0.893230f,0.570647f,0.064522f,-1.418317f,0.796512f,-2.037186f,2.755764f,-0.686161f,-1.917293f,0.591994f,0.286997f,-0.474669f,0.797125f,-0.997070f,-1.708648f,-1.111114f,-2.582465f,-0.729273f,0.213335f,0.216327f,0.512651f,-0.712526f,1.062048f,-0.091920f,-0.839886f,0.492179f,-1.384040f,0.645858f,-1.022481f,-0.931686f,0.904920f,1.243091f,0.567391f,-0.331026f,0.107138f,-0.597508f,-0.181490f,-0.390699f,-0.834405f,0.949877f,0.239039f,-2.891411f,1.191307f,-1.238293f,0.460948f,0.257958f,-1.054280f,-0.253611f,-1.503512f,-0.337755f,1.732679f,0.468518f,-1.354273f,0.053602f,-1.278632f,-0.057695f,0.288037f,-0.538052f,-2.268330f,-0.325804f,-2.148942f,-2.037853f,-2.683026f,-1.235185f,0.136399f,-0.070170f,0.570696f,0.885876f,0.348660f,-0.081218f,-0.966210f,0.620723f,0.368756f,-0.712492f,-0.399247f,-1.073129f,-0.127063f,0.675125f,0.967272f,-0.284599f,-0.609350f,-0.703037f,1.847324f,-0.695328f,0.525016f,0.848659f,0.124592f,-1.466269f,-2.430625f,-0.879440f,0.980886f,1.080078f,-0.519312f,1.169381f,2.113879f,-0.582400f,-0.155592f,0.422699f,0.817800f,0.768673f,0.153978f,0.221443f,-0.152458f,-0.682267f,1.352242f,-0.155921f,-0.412612f,0.576352f,0.781819f,-0.987090f,-0.414269f,-2.328045f,1.130377f,-1.704017f,0.170901f,-1.184025f,0.235518f,1.588188f,-0.890292f,0.220434f,-0.745841f,1.265805f,1.212189f,-1.832796f,-1.499955f,-0.260792f,0.018463f,-0.113307f,-0.918159f,-1.572644f,-1.864717f,1.274814f,0.004768f,-1.215593f,0.122301f,-0.279318f,0.964530f,0.834188f,-1.669650f,0.933179f,0.490761f,1.173150f,-0.826452f,1.470359f,0.307934f,-1.717631f,-0.469132f,-1.542919f,-0.426952f,-1.035225f,0.176520f,1.253491f,-0.131087f,-0.249728f,1.353756f,1.581123f,0.179853f,0.799283f,-0.381769f,1.230150f,0.749255f,0.809540f,-1.367862f,-0.505208f,0.063561f,-1.463208f,1.275746f,-1.675398f,0.756836f,-0.351982f,-1.639842f,-0.521771f,-1.442869f,0.954810f,0.025964f,0.962643f,1.447848f,0.661132f,1.422526f,-0.645470f,-0.176883f,0.583793f,1.969716f,-0.714959f,3.197709f,-1.464701f,0.393534f,1.702430f,1.230202f,-0.722070f,0.630313f,-0.886430f,-0.430392f,-0.537968f,-1.550862f,-0.912959f,-1.698200f,-1.150109f,-1.053579f,0.096864f,-0.039241f,0.737857f,0.550472f,0.310688f,-1.593801f,2.463678f,0.203801f,-0.308658f,-0.489853f,-0.402613f,-1.396136f,0.834503f,-1.976686f,-2.829494f,1.802325f,0.587674f,1.149760f,1.394436f,-0.233728f,0.974972f,-0.570573f,0.077614f,-0.344215f,1.991214f,1.288334f,1.073055f,0.067027f,0.963542f,-2.981941f,-0.758436f,-1.369945f,1.620924f,-0.665406f,0.617502f,0.179782f,-1.454644f,-0.100215f,0.148057f,-0.193393f,0.326342f,-0.432520f,0.296156f,-0.273143f,0.044112f,0.587372f,-1.432286f,-1.059613f,-0.427779f,0.450260f,0.297178f,-1.850218f,0.044406f,0.777155f,-0.037616f,1.373378f,-1.191360f,-0.830243f,-0.284541f,-1.154955f,-0.603690f,-0.747493f,-0.948277f,-0.259728f,0.826882f,1.809533f,0.683884f,0.488474f,-1.330865f,-0.897238f,-0.099189f,-1.206804f,-0.197850f,-0.602912f,-0.343226f,0.118029f,-0.831406f,0.256022f,-0.255522f,0.128087f,-2.760101f,0.134731f,0.654482f,-1.433654f,1.043977f,1.420848f,1.143270f,0.528670f,1.560796f,0.772850f,-0.130900f,-0.353363f,0.383055f,-1.032025f,-0.940111f,0.913223f,1.064287f,0.617509f,-0.148135f,0.813672f,-0.779433f,-0.688256f,0.533276f,-0.786906f,0.687543f,-0.656652f,0.997126f,-0.512788f,-0.112033f,-1.793263f,-1.225462f,-1.328004f,-0.016390f,-1.236743f,-0.086300f,-0.333685f,-0.186161f,-1.017678f,-0.174890f,-0.063865f,1.589694f,-1.163845f,1.309704f,-0.573240f,-0.270515f,-0.290675f,0.901606f,1.490497f,-0.096303f,0.653990f,-0.651860f,-0.155822f,-1.080260f,1.348769f,0.874485f,-1.835678f,-0.402758f,-0.283403f,0.491529f,-1.488279f,-0.643726f,-0.071244f,-1.425920f,-0.365240f,-1.984818f,0.082193f,-0.141686f,-1.538017f,-0.264454f,0.917442f,-0.181622f,-0.398722f,1.367719f,0.778407f,1.041224f,-1.454070f,0.094366f,0.626491f,-0.303062f,0.033978f,0.061555f,-1.156663f,2.337719f,1.432388f,0.536077f,-0.392091f,-1.688887f,-1.554760f,-0.868080f,-0.204279f,-0.519922f,0.843080f,-0.772255f,1.864390f,1.263392f,0.061199f,-0.707457f,0.829690f,-0.899221f,1.266246f,0.275223f,0.205416f,0.408781f,-1.482987f,-2.604902f,0.175939f};