#include "defines.h"
const static float W2[512][512] = {{-0.007843f,0.021896f,-0.053526f,-0.002434f,-0.039162f,-0.070160f,0.067907f,-0.024300f,-0.017992f,0.018045f,0.085962f,-0.024485f,-0.075965f,-0.037984f,0.002699f,0.012761f,-0.075805f,0.000979f,0.073472f,0.021180f,-0.033109f,0.066934f,-0.050736f,-0.055220f,0.055897f,-0.037755f,0.001090f,-0.074919f,-0.069690f,0.007109f,0.069669f,-0.077574f,0.001019f,0.069693f,-0.057883f,-0.042175f,0.024022f,0.020556f,-0.031292f,-0.069426f,0.014918f,-0.073868f,0.071688f,0.003184f,-0.030799f,0.018062f,0.083165f,0.048439f,-0.023388f,0.005238f,0.041711f,0.036871f,0.044714f,-0.061773f,0.075780f,0.031485f,0.067016f,0.032568f,0.014285f,0.069460f,-0.039546f,0.084698f,-0.070585f,-0.028308f,0.070815f,-0.052283f,0.015545f,-0.045571f,0.064262f,-0.050007f,-0.062208f,0.013063f,0.076346f,0.023837f,0.014187f,0.057336f,0.042271f,-0.017354f,-0.004115f,0.032870f,-0.043801f,-0.046296f,-0.065865f,0.015510f,-0.069754f,0.010779f,0.048877f,0.045710f,0.000746f,0.063006f,0.031491f,-0.024707f,0.016394f,0.006847f,0.053381f,-0.002307f,-0.075313f,-0.033855f,-0.016080f,-0.015632f,0.074237f,0.004847f,0.009481f,-0.029006f,0.040905f,0.036251f,-0.076063f,0.062405f,-0.061418f,-0.025492f,0.003804f,-0.061352f,0.063740f,0.023327f,0.065718f,0.065782f,-0.035100f,0.024013f,0.037567f,0.032588f,-0.060535f,-0.067540f,0.033260f,0.034520f,-0.058151f,-0.061018f,0.047030f,0.032161f,-0.069405f,-0.002757f,-0.032520f,-0.001971f,-0.038120f,0.031349f,0.028995f,0.046730f,-0.047051f,-0.061124f,-0.032622f,0.061450f,0.023548f,0.038986f,0.053426f,0.040134f,0.044277f,0.000737f,0.045982f,-0.072073f,-0.028859f,-0.045867f,-0.010647f,-0.019450f,0.001797f,-0.061669f,-0.016694f,0.061904f,-0.084262f,0.044641f,-0.019022f,-0.045061f,-0.071237f,-0.026821f,0.083182f,-0.053348f,0.066070f,-0.003659f,-0.070935f,0.004826f,0.015040f,0.056107f,0.058239f,-0.036700f,0.041318f,0.015344f,0.000080f,-0.010564f,-0.016416f,0.053803f,0.062591f,-0.016572f,-0.039027f,0.067338f,0.051204f,-0.075760f,0.004093f,0.029304f,-0.066540f,-0.062391f,0.033366f,-0.039401f,-0.010946f,-0.063971f,0.009542f,0.009574f,0.064521f,-0.045220f,0.007665f,-0.025552f,0.017323f,0.011697f,0.068865f,-0.027276f,-0.063257f,0.054834f,-0.070826f,-0.071978f,-0.067409f,0.064901f,-0.044897f,-0.029029f,-0.065699f,-0.061881f,-0.060594f,-0.033874f,-0.044850f,-0.061421f,0.038968f,0.009947f,-0.046976f,0.041719f,0.029377f,-0.069842f,0.007227f,0.016965f,0.007667f,-0.067311f,-0.018196f,-0.055143f,-0.007047f,-0.030770f,-0.076346f,-0.049035f,-0.030950f,0.057306f,-0.035367f,-0.010992f,-0.039306f,-0.034557f,0.019946f,-0.016225f,-0.006972f,0.023502f,0.085772f,0.080352f,-0.068765f,0.008462f,-0.003510f,0.010310f,0.058526f,0.034593f,0.048201f,-0.016694f,-0.048777f,-0.069788f,0.005207f,-0.047856f,-0.002713f,0.044401f,-0.043097f,-0.055765f,-0.067317f,0.037981f,0.011747f,-0.071162f,0.006274f,0.023540f,-0.043459f,-0.018597f,-0.047429f,0.075975f,-0.001997f,-0.020910f,-0.010231f,0.073439f,0.016391f,-0.015630f,-0.065990f,-0.035648f,0.048722f,0.019292f,0.048485f,0.008186f,-0.050864f,-0.024825f,-0.071819f,-0.022254f,0.031208f,0.085820f,-0.021961f,-0.042195f,0.033754f,-0.048703f,-0.003079f,-0.017270f,-0.057247f,0.064845f,0.024461f,-0.053122f,-0.049402f,-0.036499f,-0.075507f,-0.013858f,-0.059612f,-0.023842f,-0.025490f,0.040936f,0.028697f,0.014477f,0.054589f,-0.007554f,-0.013408f,0.067761f,-0.051233f,-0.002688f,-0.075454f,-0.042650f,0.038589f,-0.007050f,-0.050669f,0.047293f,0.019962f,-0.063184f,-0.005015f,-0.044162f,-0.026676f,0.036127f,0.022960f,-0.074878f,0.023977f,-0.000744f,-0.048142f,0.040920f,-0.052267f,-0.015657f,-0.069412f,-0.002009f,0.033504f,0.032371f,-0.025064f,0.070943f,0.012194f,0.019502f,0.074070f,-0.043458f,0.054081f,0.056364f,0.026965f,0.017406f,-0.068714f,0.067153f,-0.022980f,-0.069113f,-0.063287f,-0.050142f,0.015384f,0.039480f,0.052782f,0.061497f,-0.031215f,0.036339f,0.069574f,0.004491f,0.028719f,-0.003764f,-0.015647f,0.003379f,0.025638f,-0.019645f,-0.046805f,0.063901f,0.069586f,0.003277f,0.009722f,0.009186f,0.010155f,0.027409f,0.005352f,-0.063150f,0.025599f,-0.074393f,-0.048357f,-0.075069f,-0.056503f,0.000151f,0.055910f,0.029531f,0.062408f,0.002396f,0.013360f,0.042329f,-0.036419f,-0.021130f,-0.070355f,0.034217f,0.038788f,0.081097f,0.026434f,-0.003043f,-0.014174f,0.060225f,0.000540f,-0.041787f,-0.025908f,0.070610f,-0.067456f,-0.049613f,0.002492f,-0.051171f,0.047160f,0.043334f,-0.037304f,-0.009060f,-0.016560f,0.049725f,0.018267f,0.010107f,-0.075391f,0.065277f,-0.075108f,-0.073997f,-0.071351f,-0.035999f,0.017483f,-0.021729f,-0.073571f,-0.041776f,-0.003209f,0.026607f,0.071257f,0.037808f,-0.014936f,-0.054202f,-0.016052f,0.056985f,0.026870f,0.015531f,0.021199f,-0.048856f,0.046024f,0.075103f,-0.075780f,0.072165f,0.071314f,0.060407f,0.034583f,0.011531f,0.017278f,0.054203f,-0.040656f,-0.078120f,-0.042297f,-0.013472f,0.035442f,-0.031565f,-0.034151f,0.059830f,0.013179f,-0.003691f,-0.047068f,0.016829f,-0.033059f,0.038522f,0.022335f,0.029012f,-0.073289f,0.058514f,0.045776f,-0.035401f,-0.047307f,-0.000398f,-0.026965f,0.052717f,0.010935f,-0.026135f,0.062327f,-0.056377f,0.020312f,-0.000369f,0.002839f,-0.014803f,0.018802f,0.065414f,0.012008f,-0.015487f,0.008913f,-0.049737f,0.076098f,-0.030829f,0.023949f,-0.021291f,0.000224f,-0.061275f,-0.059077f,-0.038992f,0.007749f,0.035500f,0.003443f,0.052045f,-0.027073f,0.015480f,0.046446f,-0.018278f,-0.072702f,0.004359f,0.013599f,-0.026590f,-0.035804f,0.066745f,-0.063924f,0.076940f,0.033379f,-0.077213f},{-0.074227f,0.054474f,0.242017f,-0.024393f,0.032757f,0.004692f,-0.085938f,-0.115159f,-0.058946f,-0.024337f,0.030328f,-0.102771f,-0.060151f,-0.068433f,-0.098124f,-0.017773f,0.019566f,0.066866f,0.125069f,0.061227f,-0.037518f,0.176629f,0.015950f,-0.005516f,-0.197474f,-0.100205f,-0.022410f,-0.007335f,0.118133f,0.203236f,0.024347f,-0.096800f,0.109809f,0.209389f,-0.026277f,0.202745f,-0.116438f,-0.188931f,-0.335759f,-0.055818f,-0.110590f,-0.040425f,0.002838f,-0.212884f,-0.050131f,-0.074986f,-0.139486f,0.041517f,0.123917f,0.209879f,-0.131852f,-0.040625f,0.063577f,-0.118267f,0.037423f,-0.008892f,-0.009699f,-0.054803f,0.007642f,0.030383f,-0.071695f,-0.219914f,0.038596f,-0.084244f,-0.065209f,-0.274704f,0.109438f,0.022616f,-0.031572f,0.058111f,0.204337f,-0.164830f,0.008011f,-0.140925f,-0.132887f,0.015581f,0.164685f,-0.011303f,-0.222109f,-0.211105f,-0.041072f,0.162317f,0.087158f,-0.018632f,0.201376f,0.033782f,0.004115f,-0.015340f,-0.051601f,-0.019683f,-0.116510f,-0.111536f,-0.136057f,-0.074783f,-0.075308f,0.172250f,0.124054f,-0.196837f,0.005567f,0.081246f,0.183672f,0.038576f,0.056835f,0.198348f,0.069992f,0.181666f,-0.087175f,-0.066362f,-0.056847f,0.059890f,0.074216f,-0.100014f,-0.197919f,0.032767f,0.052657f,-0.039836f,-0.130372f,-0.059957f,0.048448f,-0.229049f,0.071089f,0.047379f,-0.071113f,-0.029732f,-0.032499f,-0.098559f,0.206429f,-0.122060f,0.160433f,0.017426f,-0.008574f,0.000749f,0.089149f,0.005921f,-0.231522f,-0.060741f,0.007329f,-0.072932f,-0.267840f,-0.148807f,-0.080185f,0.113837f,0.069465f,-0.081345f,0.019511f,-0.118824f,-0.120303f,-0.113824f,-0.156369f,0.059506f,-0.091914f,0.207269f,-0.030053f,-0.123457f,0.094087f,0.013630f,0.000097f,0.036340f,0.106868f,-0.052041f,0.190422f,-0.000741f,-0.234514f,-0.042133f,-0.094673f,-0.019142f,-0.034115f,0.189890f,-0.125294f,-0.001853f,-0.208513f,0.078093f,-0.098184f,-0.089741f,-0.067406f,0.223045f,-0.072291f,-0.198825f,-0.092182f,0.036227f,0.171231f,-0.243078f,0.130443f,-0.077089f,0.075147f,-0.039225f,0.052343f,0.009807f,-0.093773f,0.069479f,-0.064895f,0.061300f,-0.136007f,0.061979f,-0.132027f,0.044187f,0.004524f,-0.110007f,-0.018477f,0.154282f,-0.144285f,-0.034556f,0.057475f,0.107625f,0.040995f,-0.018038f,-0.033922f,0.080614f,-0.022523f,-0.034892f,-0.135098f,-0.016298f,-0.059450f,-0.097334f,-0.190119f,-0.085449f,0.086089f,-0.174095f,0.066296f,0.110543f,-0.015561f,-0.027216f,-0.003186f,0.061218f,-0.082704f,-0.099227f,-0.074432f,0.194926f,0.105589f,0.032661f,0.193485f,-0.184254f,0.064298f,-0.146202f,-0.000186f,-0.152530f,0.055257f,-0.049005f,-0.114343f,-0.029499f,0.038042f,0.006218f,0.001672f,0.102504f,0.026698f,-0.199137f,0.045113f,0.049386f,0.023844f,0.052982f,0.195783f,0.109366f,-0.180045f,0.010576f,-0.292650f,-0.087898f,0.078986f,-0.101208f,-0.055251f,-0.141693f,0.190591f,0.046168f,0.076607f,-0.174151f,-0.240108f,0.045825f,0.019039f,0.085142f,0.084262f,0.118224f,0.074639f,-0.088435f,0.017414f,-0.102317f,0.033185f,-0.097618f,-0.085275f,0.025552f,-0.006168f,0.050440f,-0.082623f,0.019762f,-0.197118f,-0.178055f,-0.033845f,-0.123305f,-0.154617f,0.089751f,-0.011202f,-0.059475f,-0.058907f,-0.216259f,-0.020656f,-0.121975f,-0.114803f,-0.095679f,-0.055698f,-0.124987f,0.091688f,-0.086292f,-0.053902f,-0.116756f,-0.129243f,-0.207312f,0.066202f,0.026224f,0.036980f,-0.119741f,0.072051f,-0.115691f,0.082729f,-0.154777f,-0.121756f,-0.144836f,-0.037141f,0.014556f,-0.203655f,0.057645f,-0.191689f,-0.174999f,0.058255f,-0.000317f,-0.079347f,-0.025500f,-0.083247f,-0.177771f,0.016964f,0.167957f,-0.034349f,0.105873f,0.026057f,0.054878f,0.032798f,-0.176620f,0.086479f,-0.116557f,0.117048f,-0.052495f,-0.072078f,0.012925f,-0.144257f,-0.133135f,0.134381f,-0.098059f,-0.056930f,-0.213424f,-0.228726f,-0.068070f,-0.146354f,0.040698f,0.040949f,0.016697f,-0.161982f,-0.045106f,-0.047021f,-0.030981f,0.117544f,-0.172317f,0.023882f,0.023255f,0.020543f,0.016209f,-0.031955f,0.239387f,-0.135341f,-0.032307f,-0.234456f,0.043083f,0.006625f,-0.061506f,-0.199614f,0.026227f,0.122010f,-0.200271f,-0.179655f,0.184977f,0.103577f,0.036417f,-0.150039f,-0.047199f,-0.008949f,0.182469f,-0.109646f,0.172797f,0.070928f,0.080865f,-0.092886f,0.083054f,0.105578f,-0.058861f,-0.070446f,-0.008104f,-0.008509f,-0.237197f,-0.011041f,-0.271026f,-0.183815f,0.114831f,-0.050348f,0.062926f,-0.011335f,-0.239660f,0.141510f,-0.067451f,-0.197810f,-0.275870f,0.101149f,-0.031757f,-0.035995f,0.021295f,-0.201708f,-0.191867f,-0.050889f,-0.017274f,-0.168173f,-0.105114f,-0.017395f,-0.037221f,0.160614f,-0.057852f,0.058475f,0.090091f,-0.003008f,0.043335f,-0.017552f,-0.187664f,-0.093193f,-0.174543f,0.009324f,0.094282f,-0.056846f,-0.035798f,0.067178f,-0.016285f,-0.055859f,0.002502f,0.107831f,-0.111301f,0.056925f,0.081905f,-0.130671f,-0.038173f,-0.063353f,-0.043988f,0.024525f,0.189868f,-0.028722f,-0.082619f,-0.160211f,0.061218f,-0.253895f,-0.100790f,-0.045738f,0.069022f,-0.015455f,-0.007843f,-0.093409f,-0.195887f,0.052430f,0.000831f,-0.064018f,0.113045f,0.157400f,0.066785f,0.089579f,-0.040195f,0.039048f,0.010173f,-0.043297f,0.106210f,-0.105845f,-0.158466f,0.068127f,-0.025176f,-0.217807f,0.060106f,-0.055993f,0.055546f,-0.091661f,-0.193015f,-0.122946f,-0.027513f,-0.165851f,0.052236f,-0.046132f,-0.038828f,-0.129545f,-0.107671f,0.110638f,0.015880f,-0.280198f,-0.116466f,-0.012728f,0.012933f,0.022711f,-0.032763f,-0.046306f,0.084514f,0.019366f,-0.181803f,0.087128f,0.011460f,-0.044886f,0.063277f,-0.315642f,0.018180f,-0.111877f,-0.223251f,-0.011246f,-0.173073f,-0.009997f,-0.122308f},{0.075550f,-0.055910f,-0.082505f,-0.029020f,-0.043153f,0.001159f,0.031480f,0.044626f,-0.053129f,0.012145f,-0.010469f,0.060276f,-0.049473f,0.003205f,-0.014743f,-0.041986f,0.043053f,-0.000339f,0.033817f,0.010868f,0.018449f,0.020677f,0.009042f,0.037103f,-0.004224f,-0.034074f,0.053392f,0.064940f,-0.021611f,0.007005f,0.006043f,0.012412f,-0.022125f,0.008587f,0.043395f,-0.073963f,-0.005073f,0.047346f,0.025368f,0.002142f,-0.022161f,0.057965f,-0.000263f,-0.020458f,-0.071498f,-0.009351f,-0.075943f,0.063270f,0.063277f,0.077637f,-0.020559f,0.035630f,0.061650f,0.061724f,0.053139f,-0.017520f,-0.001750f,0.062920f,0.037604f,-0.012115f,0.013494f,-0.042142f,-0.071503f,0.040189f,0.021503f,0.009530f,0.056749f,-0.021933f,-0.007047f,0.049151f,0.059426f,0.061994f,-0.008602f,0.061482f,-0.002921f,-0.088815f,0.076333f,0.062155f,0.037901f,-0.025717f,-0.063094f,0.070483f,0.051731f,0.081748f,-0.035579f,-0.015517f,-0.063691f,-0.033597f,0.015302f,0.072561f,-0.007046f,0.074705f,0.034667f,0.041286f,-0.037946f,0.038984f,-0.005943f,-0.084003f,0.024763f,0.011404f,0.019164f,0.034404f,0.013137f,0.069219f,-0.031875f,0.053146f,-0.078892f,-0.011024f,-0.018979f,0.050074f,-0.071032f,0.020206f,0.014655f,0.027430f,0.032450f,0.020580f,0.081896f,-0.058049f,-0.029409f,0.053681f,0.074819f,-0.046631f,0.057608f,0.011021f,-0.015555f,-0.036151f,0.058336f,0.030638f,-0.037988f,-0.015279f,-0.083039f,-0.038586f,-0.036239f,-0.056829f,0.006574f,0.006327f,0.005276f,-0.039793f,-0.025297f,0.051137f,0.009848f,-0.025827f,0.030283f,0.060140f,-0.053671f,-0.024958f,0.040320f,-0.046223f,0.029266f,0.058296f,0.065312f,-0.043080f,-0.055522f,0.021984f,0.061159f,0.009711f,0.045775f,0.020621f,0.007527f,-0.001861f,-0.024881f,-0.071857f,-0.031903f,0.012450f,-0.008127f,-0.003586f,0.018280f,0.052824f,-0.015867f,-0.043309f,-0.010810f,0.076147f,0.059234f,-0.078145f,0.041404f,-0.002470f,0.043621f,-0.012818f,0.055995f,-0.004975f,0.053838f,-0.066341f,-0.064529f,-0.065349f,-0.022879f,-0.072254f,0.004518f,-0.050055f,0.076355f,0.049025f,-0.057699f,0.005850f,0.008426f,-0.017953f,0.023064f,-0.046055f,-0.060778f,-0.058380f,0.027384f,-0.073292f,0.082247f,0.064792f,0.036846f,-0.062529f,0.058291f,0.059138f,-0.049376f,0.069347f,0.038166f,-0.077179f,-0.036012f,-0.077880f,-0.047226f,0.009365f,0.050714f,0.068562f,0.027730f,0.013892f,0.044050f,0.013520f,0.061771f,0.015207f,-0.002739f,-0.038721f,-0.084270f,0.017281f,-0.003258f,-0.051639f,-0.058146f,0.043004f,0.040914f,-0.062596f,-0.015222f,-0.013325f,0.046647f,-0.008481f,0.035312f,0.047989f,-0.056546f,0.061349f,0.007702f,-0.038518f,0.064528f,-0.049312f,-0.032702f,0.000094f,0.094120f,-0.016820f,-0.058312f,-0.043912f,-0.019590f,0.049329f,0.066398f,0.057588f,0.022844f,-0.041674f,-0.001675f,0.039644f,0.027502f,0.062546f,-0.072209f,-0.053243f,-0.053430f,0.002170f,0.058290f,0.023192f,0.063460f,-0.059538f,-0.032684f,-0.028726f,0.045332f,-0.069712f,-0.071410f,-0.033350f,-0.067163f,0.078251f,0.050104f,0.077300f,-0.009291f,-0.023291f,-0.076194f,-0.052044f,0.025151f,0.030834f,0.052413f,-0.027895f,0.007289f,0.003989f,-0.084899f,-0.032704f,0.025905f,0.073385f,-0.002843f,-0.025087f,-0.043459f,-0.036509f,-0.036945f,0.029442f,-0.030350f,-0.016533f,0.005940f,-0.001507f,0.060477f,0.027540f,-0.078435f,-0.049639f,-0.015894f,-0.007122f,-0.060401f,0.067607f,-0.037191f,0.003795f,0.013773f,-0.050090f,-0.047515f,0.006625f,-0.008774f,-0.032118f,-0.086762f,-0.048185f,-0.045124f,-0.018264f,-0.073958f,0.049812f,-0.019963f,0.057591f,0.022663f,0.027220f,-0.026992f,-0.033735f,0.027556f,-0.015560f,-0.080615f,-0.036942f,-0.067547f,-0.051516f,-0.026608f,0.036292f,0.001303f,-0.083486f,0.044307f,0.057862f,-0.037513f,0.011676f,-0.076917f,-0.028563f,-0.049270f,-0.008143f,-0.000136f,-0.004696f,-0.063285f,0.051017f,0.031280f,-0.076133f,-0.021876f,0.036409f,0.055650f,-0.045344f,0.070087f,0.035917f,0.059894f,0.012362f,-0.009130f,0.047379f,0.068282f,-0.085790f,0.024677f,-0.079190f,-0.076079f,-0.009589f,0.060055f,0.064001f,-0.072784f,0.032258f,-0.030558f,0.034339f,-0.031264f,-0.003468f,-0.026304f,-0.005602f,-0.009195f,0.057576f,-0.044859f,0.010757f,0.013227f,-0.082155f,0.036795f,0.078572f,0.047885f,0.003008f,0.032436f,-0.066954f,-0.049978f,0.040557f,0.069288f,0.016067f,0.023067f,0.038755f,0.070446f,-0.028697f,0.015770f,0.005723f,-0.009590f,-0.004882f,0.036945f,0.050472f,0.039093f,-0.012398f,-0.071113f,-0.050441f,-0.015551f,0.074294f,-0.044405f,-0.044484f,0.064735f,0.042290f,-0.018251f,0.069133f,0.069395f,0.041564f,-0.027789f,-0.033459f,0.033378f,0.083357f,0.014437f,-0.002946f,-0.043167f,-0.020240f,0.007060f,0.033754f,-0.019780f,0.055026f,-0.041004f,-0.032183f,-0.000279f,-0.026018f,0.064512f,-0.011796f,0.029915f,-0.037668f,-0.060772f,0.062800f,-0.061849f,-0.075882f,0.081259f,0.060358f,0.067367f,0.064934f,-0.057835f,-0.000920f,0.029235f,0.052612f,-0.049981f,-0.032521f,-0.028120f,-0.072370f,0.071508f,0.010487f,-0.024455f,0.059933f,-0.084320f,-0.068502f,-0.065210f,-0.060221f,0.058277f,0.054931f,-0.050555f,0.035869f,0.048497f,-0.056157f,-0.006434f,0.003766f,0.003240f,-0.000879f,0.074557f,-0.056514f,0.078500f,0.021777f,-0.009716f,-0.069247f,-0.052256f,-0.063709f,0.038209f,0.013845f,-0.071467f,-0.065087f,0.004052f,-0.050021f,0.058693f,0.026983f,0.061046f,-0.062644f,-0.074677f,0.050319f,-0.050528f,-0.052589f,0.072763f,-0.034441f,-0.050239f,0.010508f,0.065789f,-0.020263f,0.019970f,-0.017324f,-0.008140f,0.037273f,0.036876f,-0.025729f,0.065785f,-0.028890f,0.060528f,-0.015937f},{-0.062367f,0.036636f,-0.090685f,0.006835f,-0.150069f,-0.175790f,0.074930f,-0.029360f,-0.049149f,0.007048f,-0.257629f,-0.179465f,-0.143048f,-0.317399f,0.085902f,-0.248419f,-0.179848f,0.003023f,-0.131652f,0.099926f,-0.057209f,-0.059140f,0.055788f,-0.069540f,0.007743f,0.000353f,-0.058185f,0.000807f,0.047602f,0.038538f,0.043355f,0.031109f,-0.063522f,-0.213363f,-0.064513f,0.063481f,-0.047366f,-0.153463f,-0.072736f,-0.096737f,-0.020413f,0.140576f,-0.189186f,0.124017f,-0.017472f,0.027666f,0.032638f,0.133333f,0.018700f,-0.253441f,-0.004054f,0.144074f,-0.144635f,0.067862f,-0.023987f,-0.164501f,0.002875f,-0.136710f,0.140295f,-0.071429f,0.098982f,0.037966f,0.125333f,-0.084235f,-0.019212f,-0.045531f,-0.003673f,0.154207f,-0.100421f,-0.121930f,-0.114505f,-0.058447f,-0.119852f,0.046129f,0.051336f,-0.024036f,-0.068243f,0.021982f,0.005939f,0.104586f,-0.016304f,-0.038277f,0.022296f,-0.130759f,-0.072997f,-0.130155f,-0.184787f,-0.069372f,0.000376f,0.017571f,-0.168203f,-0.033858f,-0.148322f,-0.311285f,-0.118239f,0.058355f,-0.002318f,0.072814f,-0.049782f,0.037245f,0.000315f,0.112526f,-0.047352f,-0.065418f,0.011133f,0.006859f,0.067560f,-0.042717f,0.069098f,0.088890f,-0.011472f,0.110075f,-0.157188f,-0.107592f,0.051645f,-0.040031f,-0.076209f,0.125391f,-0.025164f,0.124910f,-0.112100f,0.056560f,-0.076783f,0.093750f,0.100127f,-0.234307f,-0.207254f,-0.055966f,-0.221012f,-0.124418f,-0.092235f,0.055092f,0.098068f,-0.023463f,0.160756f,0.014869f,-0.040165f,0.043470f,-0.103680f,-0.163724f,-0.028075f,-0.040601f,0.006733f,0.067977f,0.132158f,-0.027684f,0.013478f,0.110012f,0.058198f,-0.095439f,-0.201325f,0.007420f,-0.107588f,-0.236894f,0.013312f,0.072032f,0.008288f,0.032110f,0.000035f,0.049171f,0.023904f,-0.014077f,0.099064f,-0.096788f,-0.050277f,0.102804f,0.063598f,-0.001721f,-0.098457f,-0.182035f,-0.018996f,-0.037660f,-0.119944f,0.099678f,-0.076247f,0.104165f,-0.128204f,0.080195f,0.067740f,-0.007416f,0.000848f,-0.045109f,-0.221073f,0.089478f,-0.001940f,0.160408f,0.010106f,-0.073985f,-0.184629f,-0.013440f,-0.014759f,-0.105903f,-0.180907f,0.149994f,-0.017592f,0.020194f,0.119178f,-0.112995f,-0.041314f,-0.013325f,-0.096198f,-0.067664f,-0.015500f,0.028287f,-0.032681f,-0.093109f,-0.252122f,0.155842f,0.073590f,0.043655f,0.124156f,-0.181371f,-0.116314f,-0.105300f,-0.017114f,0.103721f,-0.140875f,-0.058641f,0.064802f,-0.002890f,-0.011984f,-0.080438f,-0.040847f,0.084725f,-0.106870f,0.021051f,-0.038121f,-0.059557f,-0.000574f,0.134074f,-0.055841f,0.026006f,0.026992f,0.097820f,-0.044197f,-0.031004f,-0.232988f,0.028456f,-0.302422f,-0.047539f,0.048463f,-0.051355f,-0.109902f,0.069734f,0.154560f,-0.053190f,0.000084f,0.065807f,0.076962f,-0.063762f,-0.026124f,-0.220056f,0.011449f,-0.166561f,0.173873f,-0.023548f,0.050399f,0.055032f,-0.013699f,0.001075f,0.025033f,-0.071923f,0.150119f,-0.034168f,0.148363f,0.007022f,-0.120749f,-0.160529f,0.048784f,-0.018072f,-0.177331f,-0.139203f,-0.000658f,-0.057864f,-0.077684f,-0.190119f,0.100900f,-0.166937f,-0.017025f,0.055621f,-0.085891f,-0.040053f,-0.055641f,-0.052750f,-0.083036f,0.004573f,-0.050695f,0.069393f,-0.019851f,-0.109992f,-0.050787f,-0.028503f,0.097473f,-0.098323f,0.125097f,-0.063443f,0.041737f,-0.095027f,-0.058233f,-0.243041f,-0.059369f,-0.033582f,-0.181515f,-0.244003f,0.000608f,0.027761f,-0.008856f,-0.026243f,0.033023f,0.057381f,0.074844f,-0.247597f,-0.074624f,-0.316265f,0.000093f,0.064278f,-0.118301f,-0.145020f,0.066834f,-0.322459f,-0.011353f,-0.114301f,0.141693f,0.072629f,0.016279f,-0.015217f,-0.153880f,0.048572f,-0.084186f,-0.011202f,0.013293f,-0.131566f,0.131527f,-0.095257f,-0.037078f,-0.143454f,0.175746f,-0.313044f,-0.140252f,0.156522f,0.002255f,0.098820f,0.031335f,-0.036195f,-0.185888f,0.007334f,-0.022086f,-0.048335f,-0.219658f,-0.091579f,-0.230456f,0.025724f,-0.135045f,-0.078760f,-0.133977f,-0.016446f,-0.006606f,-0.038089f,0.057323f,0.109889f,-0.019833f,-0.198106f,0.000792f,-0.082619f,0.171696f,-0.167610f,0.000507f,-0.085748f,-0.005206f,-0.157360f,0.159626f,0.124454f,0.079709f,-0.243482f,0.068380f,-0.094683f,-0.000423f,-0.063897f,0.001734f,-0.112274f,0.134099f,0.027806f,-0.056720f,0.080800f,-0.092310f,-0.290044f,-0.187193f,-0.177378f,0.069932f,-0.004493f,0.083262f,-0.067281f,0.255848f,0.177755f,0.144271f,0.126619f,0.058122f,0.065512f,0.060865f,0.043074f,0.047287f,-0.137951f,0.051177f,0.119960f,0.016767f,0.043856f,0.170443f,-0.101877f,0.010450f,-0.172439f,0.023039f,0.108890f,0.078055f,-0.011302f,-0.023688f,-0.025504f,0.019764f,-0.011623f,-0.051437f,0.102274f,-0.273589f,0.057399f,0.051244f,-0.060560f,0.161225f,-0.248257f,-0.068884f,0.186043f,-0.013579f,0.082282f,0.046081f,-0.130013f,0.172000f,0.105829f,-0.003306f,0.128443f,-0.062137f,0.083051f,0.014802f,0.006220f,0.086173f,0.127729f,0.084259f,0.003209f,-0.008126f,-0.094749f,-0.149842f,-0.059166f,-0.053564f,0.059498f,0.046015f,0.047546f,-0.194688f,-0.144516f,-0.149797f,-0.082726f,-0.115978f,-0.070514f,0.130025f,-0.143858f,0.163625f,-0.030064f,0.131478f,0.029635f,-0.104457f,-0.020404f,-0.022170f,0.064780f,-0.039538f,0.111646f,-0.248957f,0.098526f,0.024125f,-0.150462f,0.156050f,0.146908f,-0.010164f,0.078804f,-0.048213f,-0.113627f,-0.233029f,0.046218f,0.150908f,0.011740f,-0.078076f,-0.078731f,-0.246839f,-0.092106f,0.199064f,0.006677f,-0.187653f,-0.059175f,0.005844f,-0.133101f,0.080152f,-0.235637f,-0.078693f,-0.129572f,0.065504f,0.095313f,0.029922f,-0.155083f,-0.102142f,0.032493f,0.011110f,-0.067695f,-0.172483f,0.022979f,-0.047105f,0.080767f,0.056158f,-0.008645f},{-0.039319f,0.055663f,-0.049132f,0.014236f,0.036672f,0.068275f,-0.039229f,0.056640f,0.067194f,0.060009f,0.045269f,0.074262f,0.019431f,0.012440f,-0.038213f,0.003352f,-0.062548f,0.002689f,0.066111f,-0.068784f,0.044325f,0.074408f,0.021720f,0.059255f,0.033869f,-0.057348f,-0.066799f,0.068223f,-0.033328f,-0.026671f,0.009864f,-0.017234f,0.074275f,-0.071683f,-0.000324f,0.054816f,-0.039959f,-0.014935f,-0.021884f,0.015181f,-0.004975f,-0.044250f,-0.030394f,-0.074704f,0.031497f,0.048715f,-0.033313f,0.056257f,-0.004648f,0.030705f,0.044910f,0.003790f,0.053117f,0.057452f,0.045760f,-0.019283f,-0.017381f,-0.011998f,0.056932f,-0.051852f,-0.014762f,-0.068961f,0.070829f,0.001500f,-0.052465f,-0.042942f,-0.011201f,0.072117f,-0.014286f,0.050529f,0.048280f,0.038946f,0.061782f,0.052657f,-0.064634f,0.001324f,-0.011762f,-0.054274f,-0.068418f,0.057484f,0.041271f,-0.031953f,0.008146f,-0.006008f,-0.018872f,-0.052617f,0.047135f,0.009202f,0.002405f,0.037578f,-0.007768f,-0.024295f,0.039044f,0.031243f,-0.046953f,0.075042f,0.053619f,0.060876f,0.051958f,0.043226f,-0.055885f,-0.003053f,0.003319f,-0.050735f,0.006408f,-0.005482f,0.014341f,-0.074081f,0.009711f,0.043482f,0.070385f,0.051085f,0.062556f,-0.014891f,-0.060823f,-0.025952f,0.069923f,0.054431f,0.002202f,-0.053386f,-0.023014f,0.074829f,0.051095f,0.045892f,-0.056041f,-0.037319f,-0.016041f,-0.055851f,0.059557f,0.016517f,-0.076499f,-0.055295f,0.068351f,-0.020825f,0.062969f,-0.004917f,-0.036396f,-0.042351f,-0.041301f,0.013533f,0.039332f,0.002909f,0.017607f,-0.036202f,-0.027134f,-0.010111f,-0.023423f,0.031242f,-0.009573f,0.023871f,-0.061552f,-0.001416f,0.034030f,-0.019066f,-0.015196f,0.041698f,-0.037513f,-0.051359f,0.073050f,0.020612f,-0.038247f,0.072977f,0.072708f,0.072206f,-0.033365f,-0.014220f,-0.057895f,-0.040837f,0.060596f,-0.049636f,-0.018991f,-0.015493f,-0.001001f,0.009879f,-0.036748f,-0.013866f,0.040968f,0.024623f,-0.068369f,0.052670f,0.001710f,-0.050476f,0.063288f,0.015447f,0.013874f,0.029054f,0.012181f,0.015718f,-0.059281f,-0.017961f,0.033322f,0.010013f,-0.031238f,0.031344f,-0.035648f,-0.015392f,-0.067763f,0.003991f,0.048952f,0.066741f,0.012046f,0.038106f,-0.015105f,0.001746f,-0.026448f,-0.025647f,-0.009884f,0.006331f,-0.025950f,0.024503f,0.068531f,0.007418f,0.023493f,0.020987f,0.072822f,0.001515f,0.075621f,0.019760f,-0.018257f,0.010475f,-0.030013f,0.063606f,-0.017271f,-0.050758f,0.039975f,-0.044686f,-0.069761f,-0.034899f,0.057462f,-0.031321f,-0.055708f,0.032938f,0.044790f,0.032337f,-0.006930f,0.018591f,0.032257f,-0.047789f,0.049448f,-0.030083f,0.004978f,0.015832f,-0.067984f,0.025101f,-0.061846f,-0.014642f,-0.048611f,0.028185f,-0.012266f,0.055933f,-0.015251f,0.058389f,0.060512f,-0.002496f,-0.027624f,0.062780f,-0.008286f,-0.041530f,-0.004459f,0.057382f,-0.023205f,0.022674f,0.032057f,0.035672f,-0.064726f,0.066628f,-0.062882f,-0.027027f,0.014467f,-0.034904f,-0.073392f,-0.048042f,-0.009269f,-0.039972f,0.035634f,0.036498f,-0.024540f,-0.022867f,-0.071078f,-0.021272f,0.074221f,0.042550f,0.042602f,-0.004390f,0.043224f,0.015849f,-0.024634f,-0.009739f,0.053362f,0.007431f,0.002550f,-0.006485f,-0.042208f,-0.062988f,0.007904f,-0.035273f,0.066496f,-0.048237f,0.046911f,-0.007814f,-0.031822f,0.006898f,-0.014022f,0.001106f,0.032430f,-0.050725f,-0.011923f,0.059319f,-0.073896f,0.022873f,-0.053740f,0.056625f,-0.007365f,0.017081f,-0.001112f,-0.063077f,0.061719f,-0.038128f,-0.049197f,-0.066702f,-0.019330f,-0.032874f,-0.075329f,-0.060389f,-0.041925f,-0.054550f,0.034684f,-0.075776f,-0.059940f,-0.058105f,-0.065046f,-0.053566f,-0.074112f,-0.015207f,0.026879f,-0.035352f,-0.025402f,-0.035557f,-0.066832f,0.058384f,-0.034581f,0.022795f,0.071255f,0.017617f,0.067101f,-0.000633f,0.071367f,0.000500f,-0.018724f,-0.060341f,-0.019682f,0.012740f,0.014930f,0.049083f,0.064084f,0.062222f,-0.007036f,-0.013667f,-0.045198f,-0.030222f,0.039533f,0.027916f,-0.000730f,0.009136f,0.037963f,0.016552f,0.027988f,0.071816f,-0.035620f,0.051711f,0.033167f,0.027492f,-0.015852f,-0.030383f,0.017314f,0.051871f,0.026896f,0.052446f,0.060809f,0.067672f,-0.074904f,0.050072f,0.063452f,-0.049675f,-0.020214f,0.061032f,0.053230f,0.039098f,-0.007497f,-0.023934f,-0.056821f,-0.057472f,-0.059729f,0.023478f,-0.004385f,-0.040752f,-0.065371f,-0.067241f,-0.020874f,-0.032069f,-0.075443f,0.029003f,-0.001732f,0.075912f,0.042035f,-0.042501f,-0.035053f,0.051088f,0.003913f,-0.066012f,0.007692f,-0.052617f,0.030437f,-0.073837f,-0.042848f,0.047425f,-0.027163f,-0.048863f,0.037825f,-0.036163f,0.005474f,0.010086f,0.005714f,0.037600f,0.031701f,-0.055082f,-0.063609f,0.027918f,0.039255f,0.046791f,-0.040035f,0.004550f,-0.003183f,-0.050197f,-0.066361f,-0.017474f,-0.042633f,-0.013531f,0.023187f,-0.001529f,-0.061698f,-0.036000f,-0.039617f,0.062615f,0.003360f,-0.066494f,-0.074834f,-0.062575f,0.036580f,0.032894f,0.012795f,-0.022266f,-0.016857f,0.025480f,0.071182f,0.019880f,0.008620f,-0.028621f,-0.072972f,0.032995f,-0.027790f,-0.016262f,0.074495f,0.039992f,0.005981f,-0.048127f,-0.022248f,-0.051099f,0.000797f,0.061642f,0.038874f,0.036688f,-0.015040f,0.039120f,-0.044737f,-0.016128f,-0.057038f,0.021794f,0.042801f,0.003761f,-0.063009f,-0.006180f,0.074089f,0.052983f,0.034659f,-0.074157f,0.031549f,0.002997f,-0.034603f,0.058247f,0.031002f,0.041241f,0.003922f,-0.026934f,-0.000743f,0.049923f,-0.019426f,-0.049143f,0.002790f,0.007012f,-0.028279f,-0.071126f,-0.068956f,0.059743f,0.046821f,-0.000397f,0.046194f,-0.000947f,0.005189f,-0.035151f,0.008011f,-0.067415f},{-0.148383f,0.040783f,-0.013971f,-0.092391f,-0.025226f,-0.103425f,0.013923f,0.035265f,-0.064343f,-0.051871f,-0.175466f,0.137922f,-0.164081f,-0.108274f,0.175438f,-0.075190f,-0.070329f,-0.042971f,0.089162f,-0.068493f,0.129474f,0.209578f,0.024216f,-0.054769f,-0.027080f,-0.059564f,0.059092f,-0.007485f,-0.049741f,-0.095406f,0.037248f,-0.069558f,0.038418f,-0.016378f,0.016176f,0.029742f,-0.143732f,0.097897f,-0.042652f,-0.101077f,0.009086f,-0.110036f,-0.009184f,0.030738f,-0.016899f,-0.043046f,0.041733f,0.000961f,0.172907f,0.012063f,-0.056593f,0.056166f,-0.034871f,0.138244f,-0.077389f,-0.165476f,-0.014432f,0.232489f,0.008425f,0.153069f,-0.061528f,-0.001443f,0.110774f,0.061363f,-0.034429f,-0.022050f,0.068891f,0.056037f,0.001226f,0.092055f,0.003466f,0.016759f,0.125556f,0.071139f,0.075969f,-0.042390f,0.140859f,0.093926f,0.012454f,-0.010452f,-0.125886f,-0.155289f,0.128233f,-0.020310f,-0.078079f,0.152583f,-0.093999f,0.001564f,0.086681f,0.033396f,-0.006135f,0.105255f,0.007758f,-0.013241f,0.164715f,0.234312f,0.129406f,-0.035496f,0.150542f,-0.080171f,-0.077086f,-0.134180f,-0.193643f,-0.144336f,-0.053939f,0.048831f,-0.064877f,0.104128f,0.130290f,-0.018835f,0.010452f,-0.075021f,0.018044f,-0.005424f,-0.069441f,-0.191246f,-0.092421f,-0.008652f,-0.149199f,0.028789f,0.048751f,0.140208f,-0.025051f,0.190690f,0.047745f,0.139980f,0.036429f,0.038417f,-0.002391f,0.108182f,-0.136455f,-0.154782f,0.023241f,-0.042243f,-0.007139f,-0.072462f,0.028244f,-0.071817f,-0.037347f,-0.081204f,0.017471f,-0.059090f,0.204632f,0.052183f,0.014666f,0.054821f,-0.061881f,0.036780f,-0.053856f,0.165441f,0.064197f,0.103811f,0.072661f,-0.017203f,-0.006838f,-0.061477f,-0.029157f,-0.054982f,-0.071969f,-0.089705f,-0.185091f,-0.020601f,0.002082f,-0.049226f,-0.002861f,-0.017712f,0.366941f,0.143576f,0.034218f,0.114727f,0.010424f,-0.077309f,0.009331f,0.034347f,-0.028754f,-0.185250f,-0.095194f,0.016181f,0.034152f,0.057950f,0.082071f,-0.035863f,-0.052799f,-0.192697f,0.132395f,0.243915f,0.091948f,-0.025694f,-0.068394f,0.097903f,0.158387f,-0.102823f,0.001911f,-0.083486f,-0.036164f,0.088086f,-0.024658f,-0.048167f,-0.019842f,-0.092604f,-0.047802f,0.135103f,-0.012901f,-0.063269f,-0.025785f,-0.058912f,0.048982f,0.055494f,0.073606f,-0.059041f,0.153204f,-0.229367f,0.151071f,0.019998f,0.005446f,0.120329f,-0.010157f,-0.003641f,0.028792f,-0.144676f,0.076399f,0.043799f,0.007303f,-0.071424f,0.082745f,-0.008386f,0.029521f,0.008357f,0.120943f,-0.013219f,0.097930f,0.027035f,0.223156f,-0.092886f,0.067957f,-0.067216f,-0.009323f,-0.102637f,0.098273f,-0.049707f,0.021441f,-0.051381f,0.002420f,-0.026526f,-0.051612f,-0.001834f,-0.129530f,0.082979f,-0.140246f,-0.045626f,-0.004475f,0.116519f,0.008880f,-0.118663f,0.097828f,-0.037135f,0.086845f,-0.125807f,-0.056257f,-0.081253f,-0.055161f,-0.135334f,-0.038912f,-0.143894f,0.049977f,0.018583f,0.127187f,-0.070288f,0.073392f,0.063485f,-0.106110f,-0.003638f,0.087092f,-0.204037f,-0.125475f,0.098749f,0.036314f,-0.025571f,-0.005242f,0.014256f,-0.109751f,0.124999f,0.066430f,-0.037446f,-0.003800f,0.082462f,0.027966f,-0.091301f,-0.031319f,0.150191f,0.074295f,0.143316f,-0.016587f,-0.091114f,-0.051674f,-0.135724f,0.031170f,-0.090423f,-0.112144f,-0.033630f,0.098728f,0.066783f,-0.145334f,0.005664f,-0.062790f,0.015442f,0.075313f,0.149827f,-0.050241f,0.005441f,-0.129235f,0.130652f,-0.125755f,0.060720f,-0.014422f,0.008359f,0.163907f,-0.124874f,0.015063f,0.122680f,-0.138936f,-0.010339f,0.110158f,0.049169f,0.094858f,0.014222f,-0.042398f,-0.155654f,0.127200f,-0.267024f,-0.022831f,0.034300f,-0.161724f,0.039590f,0.091698f,0.010918f,0.049563f,-0.076713f,0.062883f,-0.044259f,-0.003197f,0.091905f,0.135925f,0.109471f,0.008135f,-0.072051f,-0.062018f,0.063941f,-0.103625f,0.038914f,0.053992f,-0.006071f,0.018081f,0.073745f,-0.103931f,-0.109814f,0.054974f,0.016298f,0.307681f,0.055379f,-0.008350f,0.027728f,0.032962f,0.059525f,0.006167f,0.187651f,-0.089775f,0.045829f,0.006390f,0.063482f,0.039862f,-0.064594f,0.009782f,0.019919f,0.064179f,-0.098191f,-0.085681f,-0.210283f,-0.087962f,-0.092900f,-0.165378f,0.114756f,0.077285f,0.079955f,-0.033452f,0.082713f,-0.035861f,-0.090591f,-0.091887f,0.040087f,0.000182f,0.029161f,0.176304f,0.045201f,-0.142749f,0.147956f,-0.020644f,0.071492f,0.132731f,0.014722f,-0.108004f,0.035788f,-0.132202f,-0.103985f,-0.005965f,-0.252823f,0.012765f,0.047434f,0.012557f,0.064798f,-0.125452f,0.059255f,0.130515f,0.090710f,-0.051482f,0.163426f,-0.072816f,0.026074f,0.179976f,0.128446f,-0.120277f,-0.046643f,-0.153560f,0.074670f,0.052688f,-0.062342f,0.063962f,0.004224f,-0.152570f,-0.020254f,-0.234152f,0.022834f,-0.066203f,-0.030684f,-0.083828f,0.014639f,0.059847f,0.004173f,0.007680f,0.063013f,0.042432f,0.055703f,0.038386f,-0.047843f,-0.135100f,0.048367f,-0.091465f,-0.010391f,-0.008609f,-0.060846f,0.007161f,0.125823f,0.029761f,-0.039489f,0.114497f,-0.008885f,-0.087558f,0.047556f,-0.104725f,0.002562f,-0.064261f,-0.128107f,-0.051110f,-0.017901f,0.133346f,-0.001877f,0.004348f,0.046861f,0.032820f,0.014531f,-0.061147f,0.024083f,-0.059404f,0.249785f,0.176622f,0.028521f,0.015821f,-0.233728f,0.108447f,0.107976f,0.036398f,0.319790f,0.063766f,-0.044814f,-0.064077f,-0.096656f,-0.016323f,0.031336f,0.052438f,0.020572f,-0.028813f,-0.056850f,0.192067f,-0.152814f,0.088241f,-0.039514f,0.055613f,-0.151059f,-0.140150f,-0.074153f,-0.014160f,-0.020274f,-0.003296f,-0.041586f,-0.183852f,0.001475f,0.046700f,-0.029926f,0.073447f,-0.008623f,0.250396f,-0.144417f},{-0.188332f,-0.108150f,-0.060990f,-0.174959f,-0.046794f,-0.144214f,0.021266f,-0.071530f,0.034168f,0.124208f,0.040070f,-0.007719f,-0.076093f,0.035989f,0.143066f,0.049621f,0.060638f,-0.223719f,-0.044024f,-0.055350f,0.264457f,0.068431f,-0.063425f,-0.205831f,0.066012f,0.051934f,0.070039f,-0.191888f,0.020532f,-0.061425f,-0.035412f,0.197849f,-0.075797f,0.040271f,-0.068077f,-0.104629f,-0.136085f,-0.244007f,-0.161275f,-0.105516f,0.068378f,-0.104247f,-0.064169f,0.016701f,-0.040614f,-0.006701f,0.204335f,0.089054f,-0.122587f,0.029893f,0.108142f,0.009844f,-0.063689f,-0.067632f,0.063236f,-0.086513f,0.025157f,-0.076040f,-0.049174f,0.090131f,-0.038698f,0.091694f,-0.138752f,-0.017610f,-0.029801f,-0.050349f,-0.123755f,0.119974f,0.092005f,0.230235f,0.013749f,-0.039784f,-0.167608f,0.042041f,-0.061103f,-0.225654f,-0.145498f,0.130072f,-0.075032f,0.033762f,0.046550f,0.111658f,-0.118675f,-0.112919f,-0.066487f,-0.180518f,0.001642f,-0.070187f,0.099269f,0.027137f,-0.205159f,-0.134993f,-0.338317f,-0.057418f,-0.259121f,-0.017314f,-0.028123f,-0.012635f,0.004747f,0.117014f,-0.040164f,0.139660f,-0.087305f,0.056751f,0.051203f,-0.093679f,0.077759f,0.108674f,-0.254804f,0.117032f,-0.183657f,0.133792f,0.010040f,0.008172f,0.039787f,0.074343f,-0.263370f,0.022677f,0.074505f,-0.039705f,0.002799f,-0.205967f,0.149309f,0.020058f,0.013356f,-0.309790f,-0.173093f,0.043979f,-0.135504f,-0.221155f,0.137784f,0.209421f,-0.021436f,-0.087867f,0.038819f,-0.030702f,0.014609f,-0.002453f,-0.128786f,0.104981f,0.049545f,0.151782f,-0.179511f,0.154308f,0.089690f,0.089152f,0.042822f,0.155325f,0.075255f,-0.153102f,-0.078503f,-0.083599f,-0.203761f,-0.047538f,-0.254179f,0.110459f,0.021584f,-0.002675f,-0.043571f,-0.047020f,-0.336365f,-0.078606f,0.074989f,0.080368f,-0.242112f,0.079807f,0.123400f,0.026654f,-0.055013f,-0.326601f,0.090777f,-0.132567f,-0.021360f,-0.000215f,0.034309f,0.020570f,-0.047695f,0.061825f,0.020226f,0.018733f,-0.054335f,0.027672f,-0.063583f,-0.050939f,-0.269018f,0.072938f,-0.154110f,0.000748f,-0.099442f,-0.338086f,0.086155f,-0.022473f,-0.059124f,0.013004f,0.125206f,0.134224f,0.098730f,-0.093483f,0.021584f,-0.046793f,-0.090056f,0.006897f,-0.090192f,0.125881f,0.100438f,-0.055080f,0.145599f,0.075313f,0.079312f,-0.091869f,-0.002765f,-0.170505f,-0.179124f,-0.151222f,-0.051419f,-0.038739f,-0.212209f,-0.037887f,-0.010924f,-0.055628f,0.048726f,-0.348733f,-0.041791f,-0.035062f,-0.118158f,0.010006f,-0.030075f,-0.202925f,0.121759f,-0.052847f,-0.028288f,-0.095691f,0.070433f,0.064744f,0.072929f,0.238725f,-0.063833f,-0.013428f,-0.123486f,-0.055997f,-0.051870f,0.103705f,0.014705f,0.099680f,0.130387f,0.091165f,-0.090127f,-0.170492f,0.097280f,-0.140426f,-0.017789f,-0.158383f,-0.269274f,-0.081941f,0.110401f,0.179001f,0.065837f,-0.079773f,-0.093674f,-0.016394f,-0.131610f,-0.042861f,-0.142887f,-0.011573f,-0.118829f,-0.011068f,-0.003134f,-0.212085f,-0.102014f,-0.042008f,-0.198508f,-0.180594f,0.045809f,0.071701f,-0.141056f,-0.185614f,0.091056f,-0.033970f,0.048045f,0.022582f,-0.123359f,-0.135116f,0.079400f,0.131159f,-0.154048f,0.055650f,-0.212281f,0.055248f,0.158799f,-0.144857f,-0.213147f,-0.150035f,0.127267f,0.104960f,0.083093f,0.014242f,-0.050177f,0.147070f,-0.005826f,-0.076241f,0.004350f,-0.052199f,-0.245582f,-0.076196f,0.087542f,-0.232922f,-0.086282f,-0.149002f,-0.103517f,0.130089f,-0.029900f,0.123031f,-0.045591f,0.028468f,-0.022610f,-0.048880f,-0.102112f,-0.061162f,0.101891f,0.060745f,-0.159712f,0.075980f,-0.020609f,0.013225f,-0.026798f,0.033935f,-0.266861f,0.024519f,-0.337531f,-0.218100f,-0.066423f,0.131660f,-0.099679f,0.036024f,-0.076856f,0.028960f,-0.067836f,-0.033520f,-0.207598f,0.051438f,-0.094006f,0.022774f,-0.114829f,-0.077022f,0.217160f,-0.182241f,0.083387f,-0.023205f,0.048257f,-0.086809f,0.012496f,0.041808f,-0.068467f,0.082108f,0.125075f,-0.024279f,-0.010843f,0.000866f,-0.035714f,0.126188f,0.097292f,-0.053040f,-0.023466f,-0.207130f,0.003945f,0.057717f,-0.038177f,-0.202563f,0.062529f,-0.078683f,0.050714f,-0.031318f,0.086488f,0.156653f,0.046563f,-0.001375f,0.061556f,0.096829f,0.058932f,0.173905f,0.051645f,0.149542f,-0.068389f,0.002504f,0.025754f,0.130243f,-0.238150f,0.054254f,-0.155314f,0.023299f,0.152169f,0.236437f,0.251654f,-0.109184f,-0.083806f,0.147323f,0.129896f,-0.016029f,0.140311f,-0.235690f,-0.100063f,-0.195518f,-0.179488f,-0.019834f,0.169762f,0.161264f,0.036043f,-0.314413f,0.019405f,-0.122773f,-0.119133f,0.048073f,-0.146028f,-0.130765f,-0.006964f,-0.123457f,-0.202658f,-0.001404f,-0.274832f,-0.232164f,-0.204405f,-0.086652f,-0.170126f,-0.127763f,0.022681f,-0.058638f,0.075115f,-0.104336f,-0.058188f,-0.051395f,-0.010773f,-0.035888f,-0.181626f,-0.006862f,0.043246f,0.013825f,-0.025496f,-0.123564f,0.011552f,-0.049230f,-0.163976f,0.142954f,0.087563f,0.026370f,0.073802f,-0.043995f,-0.022501f,-0.068798f,-0.089724f,-0.060700f,-0.073229f,0.191227f,-0.161777f,-0.061698f,0.102915f,-0.071353f,0.017184f,-0.019328f,-0.138306f,0.023381f,-0.167463f,-0.175796f,0.087252f,-0.000981f,-0.234432f,0.054728f,0.023501f,-0.005435f,0.028834f,-0.124895f,-0.175198f,0.084083f,0.018570f,-0.128326f,0.168142f,0.158745f,0.080884f,0.012927f,0.058897f,-0.073383f,-0.061479f,0.096350f,-0.171880f,-0.052247f,0.057526f,-0.150789f,-0.118932f,0.162444f,-0.009949f,0.019424f,-0.210279f,0.150852f,0.023409f,-0.089174f,-0.110389f,0.071928f,-0.305390f,-0.152048f,-0.239195f,-0.046005f,0.057069f,-0.035341f,-0.046746f,-0.013139f,-0.020016f,-0.012288f,-0.120198f,0.159882f,-0.248249f,-0.012103f,0.027828f,0.215822f},{-0.001770f,-0.051433f,0.015771f,0.030322f,0.064606f,-0.009920f,-0.060138f,-0.010825f,0.007925f,-0.053570f,-0.009938f,-0.013700f,0.034181f,0.016940f,0.028866f,0.032931f,-0.014626f,0.055372f,-0.017464f,0.006177f,-0.047416f,-0.071653f,-0.011348f,0.005227f,-0.025472f,0.001917f,-0.039647f,-0.033657f,0.007708f,0.017390f,-0.049863f,0.004980f,-0.068306f,0.012533f,0.057483f,-0.016884f,-0.015922f,-0.011804f,0.060757f,-0.065785f,-0.006403f,-0.049816f,0.050227f,-0.051747f,0.024629f,0.051692f,0.013555f,-0.000620f,0.056354f,-0.039784f,0.025586f,0.036912f,0.035609f,0.020092f,0.066591f,-0.021479f,-0.016207f,0.049103f,-0.064785f,0.015072f,0.062186f,0.042241f,-0.075130f,0.038533f,0.070308f,-0.063011f,-0.032265f,0.007169f,0.019930f,-0.061375f,-0.048032f,0.009902f,0.011852f,0.019125f,0.033508f,-0.012476f,0.037419f,0.075928f,0.067088f,-0.064918f,-0.058041f,-0.014010f,0.058829f,0.053640f,0.070752f,0.000436f,0.022227f,0.004161f,0.036218f,0.032858f,-0.012408f,-0.073883f,0.044556f,0.052981f,-0.044258f,-0.016076f,0.007399f,-0.024649f,0.004079f,-0.013036f,-0.071038f,-0.047520f,-0.064622f,-0.033287f,-0.045849f,-0.019908f,0.039934f,0.017111f,-0.031214f,-0.014594f,-0.026821f,0.045472f,0.009663f,-0.047611f,0.056458f,0.022745f,0.038791f,0.041810f,-0.036475f,-0.043417f,-0.065292f,0.068110f,-0.018369f,0.002919f,-0.075355f,-0.026875f,0.050174f,0.054749f,0.001448f,0.025708f,-0.008332f,-0.044090f,0.059528f,-0.066706f,-0.063614f,0.005504f,-0.000676f,-0.040429f,0.053488f,-0.043594f,0.055582f,-0.035377f,0.037547f,-0.044430f,-0.050245f,0.060575f,0.003025f,0.016090f,0.075508f,-0.017212f,0.031598f,0.068835f,-0.013974f,-0.058903f,-0.058898f,-0.045770f,-0.059750f,0.069554f,-0.007258f,-0.007687f,0.018694f,-0.071105f,0.059908f,0.017109f,0.035251f,0.051508f,0.051188f,0.060999f,0.052457f,0.005211f,0.044058f,-0.067714f,-0.019020f,-0.010807f,-0.009567f,-0.010971f,-0.054718f,-0.054507f,-0.004964f,0.069506f,-0.062937f,-0.062289f,0.028839f,-0.001845f,-0.016131f,-0.016894f,-0.065186f,0.032721f,0.025575f,-0.024745f,-0.001307f,0.013563f,-0.022400f,-0.068077f,-0.020301f,-0.016747f,0.060211f,-0.071582f,-0.013429f,0.023149f,0.073846f,-0.070004f,0.056079f,-0.008863f,0.047274f,0.075254f,-0.045874f,0.064858f,0.016954f,0.014505f,-0.051729f,-0.061495f,-0.051161f,-0.033370f,-0.025850f,-0.068571f,0.059798f,-0.034389f,-0.015967f,0.028113f,0.069355f,0.065180f,0.037970f,-0.035433f,0.065342f,-0.061912f,-0.067289f,-0.001683f,-0.046806f,-0.070116f,-0.052770f,0.021137f,0.005614f,0.075566f,0.025701f,-0.027857f,0.035960f,0.070284f,0.048638f,0.010872f,0.040930f,0.059583f,0.044959f,-0.016973f,0.045394f,-0.029143f,0.032277f,0.016632f,0.046376f,-0.070283f,0.029134f,-0.035179f,0.029386f,0.014046f,-0.005737f,0.018533f,0.054460f,0.019128f,0.009766f,0.073096f,-0.043801f,-0.035268f,0.060880f,-0.069873f,0.003169f,-0.043039f,0.042317f,-0.071516f,0.032854f,0.014632f,0.030629f,0.022558f,-0.007753f,0.055741f,-0.065650f,-0.035605f,-0.007408f,-0.056114f,0.057907f,0.046674f,-0.002899f,-0.048644f,-0.030112f,-0.005286f,0.026148f,0.067179f,-0.050925f,-0.072539f,0.003603f,0.027266f,-0.018098f,-0.072758f,0.025829f,0.039967f,-0.031049f,-0.018484f,-0.059948f,-0.061759f,0.028067f,0.014075f,0.057433f,-0.000776f,-0.027099f,0.060404f,0.064236f,-0.033677f,0.038846f,0.036276f,-0.006557f,0.013846f,0.059846f,0.011740f,-0.013601f,0.029141f,0.029600f,-0.045575f,0.058887f,-0.058492f,-0.051524f,-0.062263f,-0.024728f,0.060918f,0.068371f,0.006191f,0.044139f,-0.053555f,-0.068214f,0.016977f,0.039680f,0.067129f,-0.065989f,-0.027655f,-0.007046f,0.021566f,0.069099f,-0.053131f,-0.040165f,0.070173f,-0.019443f,0.019686f,-0.062826f,-0.066634f,0.006819f,-0.032973f,-0.009209f,-0.016031f,-0.025881f,0.046840f,-0.010997f,0.026077f,-0.010689f,0.008492f,-0.046891f,0.031139f,-0.026321f,-0.001880f,0.011080f,-0.058869f,-0.011430f,-0.019553f,0.072185f,0.031399f,-0.023241f,0.013499f,-0.028659f,-0.040850f,0.037835f,0.069029f,0.050367f,-0.041466f,0.038844f,-0.022477f,-0.046307f,-0.061413f,-0.046246f,-0.019418f,-0.044479f,-0.033634f,0.070068f,0.063557f,0.044064f,0.040770f,-0.002664f,-0.048980f,0.006154f,0.032498f,0.060600f,0.024572f,0.071688f,-0.040645f,0.049138f,0.074983f,-0.039776f,-0.038676f,-0.064452f,-0.017730f,0.063279f,-0.001874f,-0.031798f,0.072080f,-0.074146f,-0.039992f,-0.065907f,0.071607f,0.064677f,0.046772f,-0.064108f,-0.048095f,-0.076148f,0.049438f,-0.060256f,0.066371f,0.004925f,0.018776f,-0.070769f,-0.065205f,0.061224f,-0.007834f,0.062500f,-0.028068f,-0.053052f,-0.008606f,-0.010847f,0.002756f,0.018769f,-0.075263f,0.067511f,0.056374f,0.010723f,-0.005367f,-0.004561f,-0.063322f,-0.035593f,0.022818f,0.060923f,0.004077f,0.037683f,-0.045257f,0.054408f,-0.002585f,-0.021170f,-0.035726f,0.035069f,-0.017207f,-0.007641f,0.037830f,-0.059550f,-0.060682f,0.057231f,-0.028043f,-0.051839f,0.018638f,-0.035105f,-0.032320f,0.043246f,0.054775f,0.032150f,-0.063448f,0.028076f,-0.000395f,-0.024221f,0.053108f,-0.030340f,-0.048759f,-0.005907f,0.069871f,0.027795f,0.025410f,-0.015412f,0.050955f,0.050482f,0.023776f,0.053089f,0.028986f,-0.007703f,0.010735f,0.059793f,0.056489f,-0.051629f,0.072703f,0.035439f,0.075510f,0.043602f,0.029188f,0.033455f,-0.036789f,0.075074f,0.022234f,-0.043557f,-0.051606f,0.026033f,-0.016592f,-0.051212f,0.032398f,-0.035789f,-0.041497f,-0.029982f,-0.039513f,-0.021058f,0.069552f,-0.059732f,-0.068196f,0.052829f,-0.022699f,0.065648f,0.006798f,0.033921f,-0.006924f,-0.018677f,0.061084f,-0.076136f,-0.055320f},{-0.109269f,-0.102548f,0.062334f,-0.103174f,-0.110795f,0.057819f,-0.005259f,-0.006526f,-0.062421f,-0.128058f,-0.202015f,0.036552f,-0.014042f,0.033732f,-0.025845f,0.082326f,0.088025f,-0.051299f,-0.035557f,0.174218f,-0.011291f,-0.044987f,0.058281f,0.018523f,-0.198978f,-0.164191f,0.025480f,0.010635f,0.090492f,0.037111f,-0.023214f,0.053335f,-0.020852f,0.104202f,0.009516f,0.076093f,-0.224000f,-0.183814f,-0.155228f,0.070997f,-0.158196f,-0.009216f,0.024964f,0.134043f,-0.013181f,-0.010163f,-0.067819f,-0.287422f,-0.029774f,-0.001004f,0.017860f,0.028706f,-0.141517f,0.083034f,-0.149105f,-0.001001f,-0.023649f,-0.189141f,0.009240f,-0.017482f,-0.002270f,0.009488f,0.021728f,0.218581f,-0.030050f,-0.129324f,-0.008112f,0.057571f,0.089688f,0.076262f,0.076073f,-0.134046f,-0.027694f,0.137499f,0.058838f,-0.028204f,0.135971f,-0.089201f,0.046409f,-0.022228f,0.015535f,0.081604f,-0.099387f,-0.235150f,0.036719f,-0.206931f,-0.105697f,0.135677f,0.023267f,-0.028741f,-0.081322f,0.034626f,-0.029549f,0.092665f,-0.046887f,0.077502f,0.033880f,0.002792f,0.095023f,0.106636f,-0.085248f,0.129599f,0.056058f,-0.101762f,0.064832f,-0.000386f,0.028895f,0.196907f,-0.075104f,-0.121638f,-0.046788f,-0.117688f,-0.018671f,-0.049781f,-0.063833f,-0.118909f,0.035345f,0.097593f,0.103333f,-0.116168f,-0.067875f,-0.032109f,-0.042967f,0.070826f,0.098889f,-0.097377f,-0.245549f,0.009613f,-0.046243f,-0.122274f,0.053066f,0.186549f,0.088199f,-0.094101f,-0.054841f,-0.038203f,0.030885f,-0.001742f,0.113203f,-0.088508f,-0.023760f,-0.024017f,0.026176f,-0.034078f,0.032334f,0.010246f,0.065982f,-0.217677f,-0.186011f,0.257174f,-0.226822f,-0.150741f,-0.138067f,-0.115224f,-0.152215f,-0.011957f,-0.071692f,0.034993f,-0.047753f,0.012594f,0.032030f,-0.005801f,-0.172455f,-0.104904f,-0.146383f,0.076343f,-0.163223f,0.028114f,-0.027130f,-0.255701f,-0.205676f,0.055244f,-0.209262f,0.034725f,0.047619f,-0.017678f,-0.092928f,-0.025947f,-0.034727f,-0.006382f,0.003260f,-0.111829f,-0.177230f,-0.074881f,0.082984f,0.067480f,-0.260745f,0.074142f,-0.019933f,0.072547f,0.178899f,0.101053f,-0.262258f,0.051566f,-0.051144f,0.078255f,0.136818f,-0.053066f,0.001787f,0.037703f,-0.037180f,0.016964f,-0.096589f,-0.096056f,-0.088185f,-0.013147f,0.199985f,0.073682f,0.093398f,0.103155f,0.005380f,-0.222871f,-0.133833f,0.172796f,-0.026226f,-0.101154f,-0.013670f,-0.073056f,-0.108896f,0.039803f,0.068252f,-0.286422f,-0.043431f,0.013795f,0.032128f,0.101633f,-0.109624f,0.149384f,-0.061022f,0.122343f,-0.089887f,0.049357f,0.228449f,-0.075059f,0.041735f,0.009005f,-0.140827f,-0.051381f,-0.112813f,0.019636f,0.087191f,0.101640f,-0.125611f,0.075712f,0.058933f,0.178065f,0.153013f,-0.120949f,0.071285f,-0.005584f,-0.032249f,-0.063992f,-0.178416f,0.049877f,-0.019088f,-0.062163f,0.130056f,-0.140939f,0.076999f,0.098683f,0.178246f,0.111150f,-0.023919f,-0.120659f,-0.092656f,0.168287f,-0.042453f,0.021429f,-0.006016f,-0.057002f,0.060339f,0.049429f,0.035300f,0.072231f,0.008294f,-0.059000f,0.062262f,-0.036657f,-0.151584f,-0.001099f,0.049055f,-0.132669f,0.057908f,0.051777f,-0.036123f,0.013481f,-0.019623f,0.145401f,0.143618f,-0.187852f,0.012740f,-0.200699f,-0.080053f,-0.084129f,-0.012076f,-0.010431f,-0.094481f,-0.221118f,-0.080737f,0.000921f,-0.010622f,-0.103392f,-0.064848f,-0.043590f,0.177049f,0.094457f,-0.125415f,-0.003199f,0.064472f,0.082878f,0.087620f,-0.088732f,-0.028524f,0.166268f,-0.000645f,0.068648f,-0.037624f,-0.077057f,-0.033322f,-0.004639f,0.056992f,-0.072592f,0.108679f,0.105078f,-0.173648f,-0.025776f,-0.016023f,-0.039715f,-0.132365f,0.111845f,0.144538f,-0.118948f,-0.134371f,0.099938f,-0.013016f,-0.205224f,-0.108950f,0.034960f,-0.120703f,0.119764f,0.136207f,-0.030797f,0.187277f,-0.076297f,-0.061017f,-0.078140f,0.114073f,0.018031f,0.004165f,0.078020f,-0.211442f,-0.084595f,0.012486f,0.171729f,-0.156821f,-0.113365f,-0.028590f,0.026579f,-0.050362f,0.069969f,0.038497f,0.108630f,-0.042088f,0.065340f,0.049604f,0.195276f,-0.205496f,-0.089363f,-0.013418f,-0.028776f,-0.049776f,0.032495f,-0.083427f,0.061448f,-0.008519f,-0.030284f,0.022151f,-0.039113f,-0.120273f,0.010916f,0.012168f,0.005483f,-0.166186f,0.057572f,0.127586f,-0.119722f,0.186490f,-0.209797f,0.016796f,0.039319f,0.092076f,-0.134993f,-0.044045f,0.182581f,0.220514f,-0.082567f,-0.061307f,0.017210f,0.035361f,-0.074988f,0.090690f,-0.122636f,-0.134797f,0.096610f,-0.208455f,-0.181014f,-0.118119f,-0.267368f,-0.091679f,-0.168544f,0.012391f,-0.035484f,-0.002046f,-0.049464f,0.002645f,0.025740f,-0.095195f,-0.041892f,0.099313f,0.017553f,0.026769f,0.053958f,-0.211607f,0.016222f,0.043809f,0.043638f,0.054894f,-0.096482f,-0.076329f,-0.112177f,-0.050942f,-0.126428f,0.084636f,0.007350f,-0.131384f,-0.050756f,0.043909f,-0.009729f,-0.047537f,0.181782f,0.007636f,-0.154274f,0.059057f,0.035259f,0.097101f,0.104132f,0.003436f,0.163036f,-0.030887f,0.063571f,-0.121215f,0.038172f,-0.031842f,0.043477f,0.104424f,-0.042205f,-0.134879f,0.080343f,0.027364f,0.102043f,0.106419f,0.031471f,0.166520f,-0.025964f,0.041941f,0.112765f,0.067680f,-0.105568f,-0.076383f,0.000099f,-0.147258f,0.034647f,0.032276f,0.101433f,-0.071663f,-0.016177f,-0.018972f,-0.001145f,0.007858f,-0.155291f,-0.218855f,0.032275f,-0.167073f,0.013603f,0.042146f,-0.149168f,-0.297318f,-0.149702f,-0.023641f,-0.024285f,-0.184857f,0.037400f,-0.095121f,-0.027587f,-0.040525f,-0.144657f,-0.160150f,0.126251f,0.087765f,-0.100202f,-0.083612f,0.084263f,0.112212f,-0.070508f,-0.144594f,0.072421f,-0.236757f,0.049066f,-0.089065f,-0.015768f,0.242241f,0.080496f},{0.017250f,0.011023f,-0.048744f,-0.059018f,-0.029994f,-0.066648f,-0.026332f,-0.008200f,0.055699f,0.053249f,0.016578f,-0.019964f,0.054264f,-0.011746f,0.045818f,-0.071189f,-0.063682f,-0.068593f,-0.032271f,-0.001903f,-0.040651f,0.072912f,0.054160f,-0.065680f,0.066085f,-0.043199f,-0.065617f,-0.003566f,-0.050804f,-0.038519f,0.011306f,-0.056676f,0.047515f,0.001346f,0.059098f,0.038865f,-0.051670f,-0.005953f,0.053358f,-0.035482f,0.045496f,0.002349f,-0.000880f,0.065126f,0.028586f,0.023822f,0.015229f,0.019364f,-0.009538f,-0.046529f,-0.026443f,0.054113f,-0.018423f,0.006027f,-0.065522f,-0.062950f,-0.006415f,-0.072753f,-0.032910f,0.067388f,0.059761f,-0.021419f,0.015054f,0.027286f,0.062741f,0.052896f,0.046464f,0.065444f,-0.008341f,0.027515f,-0.043957f,-0.048112f,-0.012900f,0.036050f,0.024322f,-0.059383f,0.060570f,-0.037089f,-0.035984f,-0.062735f,-0.062135f,0.002693f,-0.003477f,-0.051417f,0.017738f,-0.014739f,-0.014643f,-0.065725f,-0.031213f,-0.003871f,0.002358f,0.004928f,0.005365f,0.023678f,-0.026184f,0.070639f,0.032230f,0.072441f,0.058121f,0.045255f,0.003010f,0.074318f,-0.030813f,0.040334f,0.047223f,-0.010563f,-0.050265f,-0.004495f,0.024468f,-0.039899f,0.051311f,-0.046679f,0.051022f,0.024875f,-0.044798f,-0.016110f,-0.046637f,-0.021240f,-0.047894f,-0.072230f,0.022871f,-0.014837f,-0.054083f,0.006970f,0.051998f,0.068261f,0.038105f,-0.001408f,0.010884f,0.045747f,0.047294f,-0.060364f,-0.032587f,-0.053293f,-0.033831f,0.000379f,0.030426f,-0.013739f,0.016934f,0.069605f,0.044864f,-0.064687f,-0.019887f,0.072927f,-0.002966f,0.044659f,-0.044153f,-0.000326f,-0.075570f,0.020499f,-0.008217f,0.068898f,0.072847f,0.022527f,-0.056302f,-0.037843f,-0.030957f,0.017867f,-0.056646f,-0.022927f,-0.003645f,-0.076321f,0.034105f,0.056579f,0.020269f,-0.009758f,0.028994f,0.047242f,-0.000454f,-0.056880f,-0.038887f,0.025290f,0.002353f,0.044995f,0.038418f,0.006534f,0.073545f,-0.074644f,-0.039564f,0.075354f,-0.048904f,-0.023777f,0.008661f,0.075906f,-0.065931f,-0.016456f,0.040366f,-0.034331f,0.072413f,-0.005363f,-0.032580f,-0.000882f,-0.051701f,0.012012f,0.005529f,-0.071859f,0.021453f,-0.026058f,0.020547f,-0.000202f,-0.042074f,-0.023871f,-0.016142f,-0.001220f,-0.037696f,0.007058f,0.039928f,-0.042442f,-0.024753f,-0.011896f,0.003763f,-0.036055f,0.030983f,0.047657f,0.023837f,-0.075032f,-0.050202f,0.059925f,-0.055196f,-0.061117f,0.054832f,-0.066079f,0.065570f,-0.000036f,-0.046487f,0.056648f,-0.039589f,0.034808f,0.070708f,-0.064922f,0.008466f,0.006972f,-0.008109f,-0.033482f,-0.003453f,0.026581f,-0.032390f,0.056978f,-0.046162f,0.072099f,0.026371f,0.014930f,0.060030f,0.019525f,-0.042696f,-0.047134f,0.033193f,-0.001187f,0.052594f,-0.001497f,-0.025241f,0.031519f,0.057432f,-0.076354f,-0.070975f,-0.010497f,0.046001f,0.074888f,0.009342f,-0.017202f,-0.045946f,-0.070727f,0.040482f,0.021389f,0.051135f,0.025412f,-0.032965f,0.050885f,-0.033697f,-0.011046f,-0.007343f,-0.009736f,-0.018426f,0.022177f,-0.051751f,0.025880f,0.013293f,-0.005935f,0.038482f,0.044402f,0.001443f,0.016419f,-0.029628f,-0.003403f,-0.010897f,0.070717f,0.035116f,-0.055852f,-0.009375f,-0.042358f,-0.021572f,0.033644f,-0.031629f,-0.004586f,0.067502f,-0.006096f,-0.068635f,-0.042049f,0.021121f,0.013428f,0.076358f,0.011508f,-0.075520f,0.067358f,0.074083f,0.050229f,-0.015463f,0.037264f,-0.006634f,0.047375f,0.019763f,0.023004f,-0.038162f,-0.016530f,-0.066392f,-0.030898f,-0.006492f,-0.003314f,0.033252f,-0.061813f,-0.051112f,0.053767f,0.015275f,0.067323f,0.036017f,-0.035924f,-0.053882f,-0.063759f,-0.069950f,-0.040879f,-0.022086f,-0.016319f,0.004959f,0.057430f,0.035559f,-0.048736f,-0.009336f,0.016247f,-0.029073f,-0.003385f,-0.066514f,-0.072331f,0.032449f,-0.059892f,-0.071793f,-0.004205f,0.058353f,-0.031566f,-0.036047f,-0.048475f,-0.029993f,-0.011498f,-0.035952f,0.010692f,-0.067126f,-0.024445f,0.063549f,0.014925f,0.068974f,0.062079f,0.054435f,0.000893f,0.044766f,0.064063f,0.052824f,-0.073677f,0.055547f,-0.040382f,-0.022564f,-0.066096f,-0.020172f,-0.058469f,0.045003f,0.019830f,-0.055142f,0.036490f,-0.048779f,0.069761f,-0.015109f,0.072678f,0.039919f,0.063563f,0.045362f,-0.021109f,-0.066377f,-0.020423f,0.023024f,0.068948f,0.040001f,0.022185f,0.020163f,0.000851f,0.060509f,0.062417f,-0.067387f,0.029822f,-0.054471f,-0.071167f,-0.056106f,-0.012043f,-0.020994f,0.036382f,0.015982f,0.007755f,-0.000674f,0.045297f,-0.056429f,0.071054f,0.068622f,-0.034725f,-0.015836f,0.042453f,-0.066163f,0.021741f,-0.068424f,-0.067796f,0.038574f,0.070041f,-0.022082f,-0.075030f,-0.067541f,0.043457f,0.057374f,0.013025f,0.015714f,0.050571f,-0.058527f,-0.052293f,-0.020159f,-0.062683f,0.029309f,-0.054425f,0.020029f,-0.007601f,0.019108f,0.008508f,0.035639f,-0.024306f,-0.051002f,-0.042779f,0.075676f,0.044937f,0.063618f,0.020358f,-0.050824f,0.024639f,-0.037074f,0.043783f,0.031795f,-0.058249f,0.067695f,-0.003253f,0.075415f,-0.019093f,-0.049689f,-0.034089f,-0.031364f,0.000159f,-0.062963f,-0.021885f,-0.019416f,-0.012380f,0.075763f,-0.075824f,0.010685f,0.013372f,-0.076471f,0.000609f,-0.039191f,0.037143f,-0.062407f,0.011095f,0.009867f,0.038198f,-0.019313f,0.014380f,0.014712f,0.027333f,0.067564f,0.005489f,0.007460f,0.000475f,0.036642f,0.041821f,0.047904f,-0.028836f,0.044256f,-0.048066f,-0.024736f,0.055470f,-0.045724f,0.006298f,0.065229f,-0.027338f,0.040676f,0.047797f,0.056548f,-0.029518f,0.004568f,0.065573f,0.024311f,-0.050314f,0.049613f,-0.059189f,0.033354f,-0.011244f,-0.000007f,-0.015114f,0.013961f,-0.056297f,-0.048649f,-0.004915f},{0.005542f,-0.036784f,-0.070857f,0.005317f,-0.048662f,-0.120643f,0.110224f,-0.065548f,-0.070238f,0.018895f,0.131331f,0.093589f,0.021642f,-0.016508f,-0.066827f,-0.086336f,0.024898f,0.066461f,0.062575f,-0.004488f,-0.021726f,0.028896f,-0.052103f,-0.003205f,-0.052168f,0.051760f,0.012471f,-0.083352f,0.082420f,0.065615f,-0.013354f,0.132204f,-0.071509f,-0.094019f,0.045723f,-0.010225f,-0.026227f,-0.083009f,-0.214837f,-0.097913f,0.066821f,0.089463f,-0.014948f,-0.061696f,-0.066863f,-0.003549f,-0.214960f,0.238051f,0.036296f,-0.063409f,-0.130935f,-0.039634f,-0.128254f,0.030392f,-0.016092f,-0.050125f,0.004216f,-0.053593f,-0.111676f,0.023702f,0.251669f,0.089311f,-0.055918f,-0.020428f,0.018464f,-0.143558f,0.051057f,-0.006044f,0.065386f,-0.113233f,-0.043325f,0.214707f,-0.186652f,0.025805f,-0.063913f,0.145024f,0.051285f,0.206969f,-0.052798f,0.037023f,-0.013710f,0.066043f,-0.008877f,0.017484f,-0.017522f,-0.029327f,-0.078419f,-0.069769f,0.107333f,-0.065056f,-0.040766f,0.013034f,-0.182412f,0.034483f,0.148091f,0.060383f,0.010142f,-0.022196f,-0.091392f,0.110575f,0.028977f,0.032252f,0.004503f,0.071493f,-0.005933f,-0.106226f,-0.006834f,0.055273f,0.039803f,0.062505f,0.132286f,0.172855f,-0.102231f,-0.140363f,-0.069590f,-0.156634f,-0.196519f,0.011500f,0.157799f,0.099715f,-0.004965f,0.023228f,-0.033158f,0.003328f,0.029491f,-0.155115f,-0.075348f,0.131840f,0.230140f,-0.000992f,-0.042833f,0.010392f,0.061824f,0.083108f,0.160860f,0.004449f,0.004145f,0.148097f,-0.101382f,-0.078896f,0.021608f,0.151488f,0.038535f,0.053429f,0.046310f,-0.028536f,0.002673f,0.182377f,-0.026915f,-0.072068f,-0.063464f,-0.131174f,0.063804f,-0.164254f,0.060083f,-0.021987f,0.057876f,0.096377f,-0.108071f,-0.011405f,-0.079449f,-0.123892f,0.148944f,-0.012109f,-0.009641f,0.068883f,0.059752f,0.130127f,-0.187547f,0.071163f,-0.005107f,-0.133600f,-0.014225f,0.043266f,-0.030963f,0.054085f,0.092536f,0.046975f,-0.079298f,0.028420f,0.116174f,-0.113366f,0.019602f,-0.040751f,0.210853f,-0.016444f,0.024827f,-0.034627f,-0.072779f,0.178957f,0.122396f,-0.008520f,-0.239351f,0.005654f,-0.004294f,0.019608f,0.006869f,0.078482f,-0.055200f,0.049387f,-0.195314f,-0.157957f,0.114418f,-0.087503f,0.008145f,0.090646f,-0.066690f,-0.041028f,-0.073670f,0.015825f,0.063226f,0.070993f,0.088104f,-0.031355f,-0.150255f,-0.069052f,-0.058960f,-0.130193f,0.079054f,0.028585f,-0.058362f,0.059657f,0.040797f,0.112224f,-0.146309f,0.094206f,0.154201f,-0.178422f,-0.176494f,-0.035788f,-0.240715f,0.071818f,0.023428f,0.033147f,-0.029288f,-0.107863f,-0.129169f,-0.094978f,0.128904f,-0.056680f,-0.080405f,0.164063f,-0.036171f,0.252578f,0.077681f,0.033450f,-0.225856f,-0.028794f,-0.017664f,0.068566f,-0.049419f,-0.081123f,-0.020305f,-0.053601f,-0.044389f,-0.047295f,0.070475f,0.013243f,0.067306f,-0.104469f,-0.203807f,0.066001f,-0.226076f,-0.039269f,-0.074742f,0.062055f,-0.161289f,-0.084759f,0.087230f,0.025506f,-0.112686f,-0.104200f,-0.043775f,0.174979f,0.045117f,0.022688f,-0.116647f,-0.117708f,0.171515f,0.016239f,-0.058435f,0.132407f,-0.082780f,0.162853f,-0.016071f,-0.076317f,-0.004491f,0.074649f,-0.066320f,0.133561f,0.041740f,-0.004091f,-0.071883f,0.101415f,0.150249f,0.031145f,-0.040605f,-0.191146f,0.026059f,-0.021212f,0.087389f,0.063448f,0.013730f,0.107704f,-0.049975f,-0.016872f,-0.038656f,0.014938f,0.079224f,-0.017716f,-0.026764f,-0.106176f,0.074019f,0.078526f,0.175167f,0.082452f,-0.029761f,0.045173f,0.048237f,-0.098136f,-0.119272f,-0.087449f,-0.076015f,0.029656f,-0.122779f,0.094975f,-0.075637f,-0.043406f,0.093556f,0.050563f,0.035634f,-0.086609f,-0.063895f,-0.051687f,0.007400f,0.103430f,0.002298f,0.018333f,0.118325f,-0.012595f,0.093896f,-0.126303f,0.003312f,-0.042904f,-0.018743f,0.206836f,-0.102904f,0.055215f,0.072314f,0.009039f,-0.042739f,0.000797f,-0.104230f,0.053827f,-0.119862f,0.049780f,-0.070213f,0.105630f,-0.121331f,0.123529f,-0.104947f,-0.062246f,0.005523f,0.061949f,-0.033816f,-0.015344f,0.024063f,0.005009f,-0.046455f,-0.014030f,0.131842f,-0.100340f,-0.046517f,-0.211291f,0.026280f,-0.017713f,-0.086003f,-0.002545f,0.147979f,0.038853f,0.003889f,-0.022465f,-0.107150f,0.041064f,0.023335f,0.076885f,0.092984f,-0.088230f,-0.029771f,0.023002f,-0.125619f,-0.129311f,-0.004208f,0.148277f,0.039108f,0.200470f,-0.155022f,0.004201f,0.033351f,0.103164f,0.057605f,-0.035992f,0.116909f,0.056077f,0.157732f,0.130948f,-0.040249f,0.118310f,-0.018378f,0.095929f,0.006837f,0.026018f,-0.157417f,0.047102f,-0.158185f,0.031720f,-0.127729f,-0.041105f,0.102416f,0.100225f,-0.073803f,-0.100692f,-0.199757f,-0.000193f,-0.036885f,-0.066215f,0.044995f,-0.101031f,-0.011621f,0.060189f,-0.117573f,0.053854f,-0.067836f,0.005377f,-0.089656f,0.107647f,-0.137370f,-0.001754f,-0.016818f,0.101904f,0.015830f,0.085581f,0.167285f,0.082682f,0.075418f,-0.237803f,0.046029f,-0.078285f,-0.040377f,0.160783f,0.001041f,-0.060425f,-0.180798f,-0.132586f,0.001131f,-0.030405f,-0.159115f,-0.006587f,-0.046362f,-0.074281f,-0.046493f,-0.119468f,-0.081784f,0.003116f,-0.097535f,-0.116293f,0.119277f,-0.159461f,-0.040607f,0.006874f,-0.077309f,-0.006267f,0.037402f,-0.085707f,0.124021f,0.162881f,-0.150493f,0.120627f,-0.045383f,-0.094521f,0.051199f,0.061051f,-0.118029f,-0.024886f,-0.012433f,-0.120136f,0.055290f,-0.025658f,-0.148730f,-0.060154f,-0.242148f,0.125577f,0.153734f,-0.064501f,-0.045354f,0.017114f,-0.089998f,0.015112f,0.261614f,0.057392f,0.124855f,-0.060977f,-0.248476f,-0.161226f,-0.028391f,0.031646f,-0.016164f,0.049601f,0.050127f,0.134951f,-0.062068f,-0.020966f},{-0.092322f,-0.044411f,-0.155448f,-0.144816f,0.035855f,-0.036379f,0.132107f,0.184631f,-0.036364f,-0.033105f,-0.048551f,-0.245740f,-0.082757f,-0.304929f,0.113645f,-0.124664f,-0.159363f,0.064019f,0.045508f,0.101325f,-0.112204f,-0.114917f,0.029365f,-0.168886f,-0.036253f,-0.002793f,0.006219f,-0.073057f,-0.085995f,-0.042737f,-0.009497f,0.005494f,-0.090776f,-0.005343f,-0.080159f,0.018679f,0.069497f,0.085541f,0.093682f,-0.106165f,-0.086370f,-0.123146f,-0.158867f,-0.078817f,0.036011f,0.068916f,-0.059781f,-0.142976f,-0.009395f,-0.172071f,-0.032572f,-0.027776f,-0.100662f,0.194164f,-0.008651f,-0.173658f,-0.029922f,0.199766f,-0.022339f,0.045898f,0.005391f,-0.045634f,0.201766f,0.013055f,0.046031f,-0.026701f,0.032976f,-0.208966f,-0.031461f,-0.125440f,0.033265f,0.007967f,0.056088f,0.211850f,-0.133890f,-0.035544f,-0.098940f,-0.015546f,0.052798f,0.042538f,-0.091252f,-0.107318f,0.073666f,-0.074216f,-0.153707f,-0.018342f,-0.089165f,-0.030664f,0.036617f,-0.047820f,-0.132266f,-0.037761f,0.246000f,-0.011555f,-0.039560f,0.163410f,0.099369f,-0.059933f,0.159356f,-0.241924f,0.039108f,-0.097749f,-0.086577f,-0.082366f,0.007773f,-0.135481f,-0.008274f,-0.226553f,0.136468f,-0.070296f,0.163124f,0.082349f,-0.103003f,-0.129113f,-0.022095f,0.087984f,0.012151f,-0.079240f,-0.118851f,0.234093f,0.066817f,-0.005374f,0.103862f,-0.106530f,-0.083988f,-0.073911f,0.034843f,0.083440f,0.123523f,-0.048578f,-0.134085f,-0.185667f,-0.158145f,-0.044205f,0.236845f,0.184919f,-0.059449f,0.170996f,-0.146447f,0.081818f,0.047072f,-0.061996f,-0.012366f,-0.136705f,0.040017f,0.065044f,0.053303f,0.053801f,-0.095421f,-0.011386f,-0.127827f,-0.005349f,-0.014305f,-0.162717f,-0.158956f,0.021368f,0.124356f,-0.039854f,-0.092367f,-0.011745f,-0.112659f,0.030633f,-0.067641f,0.021643f,-0.013326f,-0.021723f,-0.174479f,0.025699f,-0.219113f,0.022730f,-0.058378f,0.055084f,-0.095006f,-0.139065f,0.006127f,-0.294151f,-0.173675f,0.263498f,0.120671f,-0.055518f,-0.184579f,0.037899f,-0.069120f,-0.049205f,-0.096400f,0.044985f,-0.024546f,0.006050f,0.003655f,0.058340f,-0.050107f,-0.126207f,-0.245967f,-0.179087f,0.112299f,-0.128847f,-0.066486f,-0.141341f,-0.019564f,-0.126865f,0.112231f,0.105895f,0.013033f,-0.147740f,-0.046980f,-0.059891f,-0.064867f,0.054115f,0.009104f,-0.054525f,-0.119063f,-0.046721f,-0.101291f,-0.044444f,-0.040157f,-0.046213f,0.184408f,0.050430f,-0.155148f,-0.243277f,-0.012745f,-0.081983f,0.006438f,0.104405f,-0.178102f,0.033942f,0.105537f,-0.057856f,-0.159250f,0.006007f,0.144329f,-0.102782f,0.141611f,-0.082984f,0.022946f,-0.235229f,-0.111617f,-0.033019f,-0.145581f,-0.191030f,0.157147f,-0.167583f,-0.113426f,-0.262079f,-0.117648f,0.243566f,-0.010019f,-0.075801f,-0.143625f,-0.229072f,-0.030914f,0.054795f,-0.134073f,-0.055688f,-0.089811f,-0.133281f,-0.002641f,0.053565f,-0.158586f,0.070324f,-0.062740f,-0.063674f,-0.093592f,0.028911f,0.122445f,-0.162405f,0.015134f,-0.139567f,0.027025f,-0.192632f,-0.295489f,0.008302f,-0.055105f,0.149945f,-0.023458f,0.030367f,-0.029279f,-0.079407f,-0.110690f,-0.065506f,0.049688f,0.083528f,-0.138257f,0.045620f,-0.047512f,-0.122065f,0.094882f,0.104351f,0.065491f,-0.004557f,0.179403f,-0.023354f,-0.073499f,0.149020f,-0.031882f,-0.055698f,-0.041992f,-0.016440f,0.048807f,-0.029101f,-0.005206f,-0.186319f,0.001674f,-0.042739f,-0.180523f,0.060507f,-0.023010f,0.174742f,0.033787f,0.013488f,0.065216f,-0.073159f,0.026506f,0.051178f,-0.003698f,-0.106143f,-0.040826f,-0.149577f,0.027202f,-0.279408f,-0.218667f,-0.075766f,-0.036755f,0.064968f,-0.043183f,-0.147407f,-0.017265f,0.009216f,0.149303f,-0.009400f,-0.080067f,0.180152f,-0.138234f,-0.071192f,0.129106f,-0.106426f,0.147758f,0.021303f,0.050246f,-0.127594f,-0.058817f,-0.006690f,-0.015869f,-0.046953f,0.101639f,-0.082269f,-0.089887f,-0.042590f,0.124860f,0.021701f,0.053477f,-0.102114f,0.012024f,0.023769f,-0.103210f,-0.182356f,-0.000799f,-0.038974f,-0.095191f,-0.132708f,0.027798f,-0.049242f,-0.061716f,0.080738f,-0.007330f,0.073199f,-0.038665f,-0.196157f,-0.174697f,0.181664f,-0.030765f,-0.183376f,0.053767f,-0.176242f,0.001246f,0.023290f,0.070795f,-0.045644f,0.024903f,-0.002391f,-0.097564f,0.063018f,-0.143489f,0.034919f,-0.084518f,0.085190f,0.052230f,-0.072536f,-0.372191f,0.042309f,-0.102015f,-0.184569f,-0.069797f,0.010797f,-0.048161f,0.013936f,0.019987f,-0.078837f,-0.067995f,-0.045955f,-0.035274f,-0.040582f,-0.101425f,-0.157603f,-0.045591f,-0.046841f,-0.108540f,-0.044544f,0.034084f,0.088547f,-0.107161f,-0.176307f,-0.058923f,-0.139143f,-0.057262f,-0.130152f,0.151309f,-0.037830f,0.137646f,0.065220f,-0.035352f,-0.124336f,0.131744f,0.118128f,0.012060f,-0.027618f,-0.010313f,0.067390f,-0.023154f,-0.105665f,0.099799f,-0.160979f,-0.012664f,-0.151194f,-0.118070f,-0.133662f,0.013917f,-0.054049f,-0.149642f,-0.050868f,0.021980f,0.027382f,-0.062906f,0.058774f,-0.167922f,0.015904f,0.093596f,0.099261f,-0.047446f,-0.078798f,0.004969f,-0.033319f,0.222057f,-0.070563f,-0.054453f,0.013552f,-0.081181f,-0.073489f,-0.267623f,0.001843f,0.125949f,-0.165468f,-0.298380f,0.003745f,0.061209f,-0.019668f,0.000860f,-0.275334f,0.076805f,-0.036670f,-0.081589f,-0.129155f,-0.070792f,-0.142845f,-0.023063f,0.136864f,-0.065677f,-0.213507f,-0.002916f,-0.064239f,-0.089207f,0.095252f,-0.045431f,0.101835f,-0.078259f,-0.102432f,0.088591f,-0.008775f,0.016055f,-0.017432f,-0.006701f,-0.095564f,-0.044893f,0.011774f,0.050895f,0.095709f,0.011934f,-0.244737f,-0.013702f,0.180801f,-0.185787f,-0.144650f,-0.041092f,-0.003511f,-0.053991f,-0.020456f,-0.009000f,0.141412f,-0.045331f,-0.063028f,0.065101f,0.005734f},{-0.047945f,0.030899f,0.007434f,0.075174f,-0.050281f,0.012475f,0.069280f,-0.040971f,-0.034049f,0.032333f,-0.003665f,-0.042179f,-0.058960f,0.028687f,0.017184f,0.066431f,-0.009696f,-0.017699f,-0.051972f,0.031519f,0.066052f,0.048770f,-0.063799f,0.050348f,-0.009343f,-0.060444f,0.022694f,0.068464f,0.068031f,-0.043533f,0.037504f,-0.062576f,-0.019877f,-0.066666f,0.029296f,-0.043152f,0.055241f,-0.040475f,0.049147f,0.004080f,-0.072119f,-0.041100f,-0.012712f,-0.036185f,-0.034668f,0.006115f,-0.065368f,0.041406f,-0.044883f,-0.010591f,0.059369f,-0.036326f,0.053313f,0.053398f,0.001058f,-0.024452f,-0.027886f,-0.067326f,-0.059284f,-0.066023f,-0.054485f,-0.051034f,0.062282f,0.061102f,-0.068774f,-0.002106f,0.059027f,-0.072752f,0.036679f,-0.053354f,-0.069723f,0.035001f,-0.057959f,0.065895f,0.070147f,0.002913f,-0.010926f,-0.014559f,-0.024256f,0.063504f,-0.013231f,-0.050774f,0.056653f,0.067047f,0.071462f,0.055557f,-0.001078f,0.064609f,0.035725f,0.019931f,-0.010497f,-0.036371f,-0.040620f,-0.015327f,-0.072682f,0.060291f,-0.062596f,-0.052770f,0.018823f,0.029658f,-0.063846f,-0.052720f,0.000577f,-0.037853f,0.040247f,-0.042627f,-0.049055f,0.066844f,-0.020082f,0.051324f,-0.018881f,0.049930f,-0.074632f,0.068948f,-0.063570f,-0.031540f,0.066839f,-0.033168f,-0.041609f,-0.010569f,-0.045398f,0.012755f,-0.001286f,0.008634f,0.019529f,-0.039573f,-0.019027f,-0.041586f,0.005269f,-0.019154f,0.034511f,-0.004325f,-0.015973f,0.048171f,-0.017044f,-0.041368f,-0.043626f,0.027500f,-0.028834f,-0.068677f,-0.027720f,-0.059243f,-0.071633f,-0.037870f,0.068326f,0.018394f,0.027817f,-0.003941f,0.073140f,0.046308f,0.044950f,0.018859f,-0.011467f,0.020959f,0.038567f,-0.050996f,0.022785f,-0.063216f,0.025539f,-0.053782f,0.030442f,0.054909f,0.055650f,0.063744f,0.022266f,0.001632f,0.009197f,0.021709f,0.018228f,-0.066403f,-0.005014f,0.040828f,-0.004420f,0.003786f,0.006385f,-0.066246f,0.059780f,-0.070454f,0.034949f,-0.015744f,0.044862f,-0.049183f,-0.020064f,0.059576f,-0.032537f,0.011463f,0.071964f,-0.019829f,0.016638f,0.061130f,0.034759f,-0.025461f,0.041162f,0.063818f,0.030823f,0.061891f,-0.055342f,-0.020176f,-0.030660f,-0.050103f,-0.062709f,-0.010166f,-0.064931f,0.026413f,-0.032758f,0.070204f,0.039828f,-0.031402f,0.010047f,0.057165f,0.058845f,0.001282f,0.020872f,0.022757f,0.029451f,-0.028995f,-0.033589f,0.038992f,0.008179f,-0.000735f,0.000427f,-0.037020f,0.004115f,0.016078f,-0.070118f,-0.042523f,-0.055109f,0.067138f,0.047354f,0.067404f,0.051779f,-0.012713f,-0.018445f,-0.069381f,-0.058573f,-0.054308f,-0.022966f,0.027509f,0.007042f,-0.004015f,0.015125f,-0.076391f,0.032931f,0.041681f,-0.037796f,-0.030048f,0.038896f,-0.070954f,-0.016062f,0.007317f,0.071696f,0.060602f,-0.020041f,0.076240f,0.051370f,-0.042556f,0.070363f,-0.006711f,-0.025670f,0.049391f,0.034584f,-0.027052f,-0.072139f,-0.068101f,-0.067331f,-0.045478f,0.024559f,0.006741f,-0.072135f,0.062890f,0.030455f,0.066975f,-0.032849f,0.023578f,-0.073355f,0.053693f,-0.019057f,0.042381f,-0.017872f,0.030136f,-0.023890f,0.026426f,-0.013159f,-0.073692f,0.065549f,0.055589f,-0.015445f,0.017089f,-0.001220f,-0.016036f,0.068632f,0.021349f,-0.058680f,0.070413f,-0.043722f,0.030854f,-0.038064f,-0.051832f,-0.069833f,0.048806f,-0.041115f,0.050294f,-0.023726f,-0.068257f,-0.039762f,-0.012693f,-0.046615f,0.074070f,0.028566f,0.025110f,-0.045229f,0.013543f,-0.049026f,-0.040056f,0.007255f,-0.074860f,0.011284f,0.021896f,-0.066209f,-0.022434f,-0.032261f,-0.010939f,-0.067097f,-0.013579f,0.022076f,0.030718f,0.071595f,0.000791f,0.003350f,-0.031862f,0.012950f,0.066728f,-0.052689f,-0.028243f,0.007402f,-0.050001f,0.016029f,-0.070187f,-0.037558f,0.032379f,-0.034648f,0.005515f,0.037936f,0.059724f,-0.002979f,-0.044355f,-0.047731f,0.068404f,-0.023156f,-0.057403f,-0.012383f,0.006962f,0.027263f,0.074556f,-0.029968f,-0.074055f,-0.010890f,0.058735f,-0.041732f,-0.002802f,0.030573f,0.032837f,-0.030178f,-0.015988f,-0.046552f,0.009454f,-0.052846f,0.068664f,0.034730f,-0.038466f,-0.049962f,0.041818f,-0.037856f,-0.015584f,-0.042400f,0.002304f,-0.063147f,0.066054f,-0.028344f,0.006239f,0.028959f,-0.018434f,-0.021455f,0.007430f,0.049327f,-0.043272f,0.028421f,-0.020429f,-0.057057f,-0.051817f,-0.021706f,-0.019612f,-0.013894f,-0.073404f,0.061833f,-0.053012f,0.003200f,0.009465f,0.029047f,-0.071332f,-0.073405f,0.028693f,0.030738f,-0.020287f,0.002719f,-0.026532f,0.056799f,-0.067867f,0.057053f,-0.059367f,-0.045244f,0.056548f,-0.045583f,0.003764f,-0.041497f,-0.068821f,0.012080f,-0.050581f,0.030817f,0.056661f,0.013489f,0.001007f,0.029011f,-0.005698f,0.010929f,-0.059626f,-0.049488f,-0.031592f,-0.021776f,-0.045062f,-0.062726f,0.019108f,-0.023288f,0.068612f,-0.018882f,0.058360f,-0.026270f,0.040744f,0.064437f,-0.040439f,-0.026249f,-0.019925f,0.064059f,-0.068073f,-0.051059f,0.008010f,0.011874f,-0.049645f,-0.041373f,0.012352f,-0.006614f,0.071236f,-0.057102f,0.028021f,0.073567f,-0.054247f,-0.004316f,0.024747f,0.022192f,-0.056902f,0.064522f,0.008064f,0.040202f,-0.031290f,0.064039f,-0.004526f,0.064820f,-0.013591f,0.065811f,0.013071f,0.065171f,0.027361f,0.073030f,-0.027713f,0.030639f,0.065697f,0.050554f,0.006702f,-0.046984f,-0.065876f,0.071490f,-0.045275f,-0.026977f,0.030766f,0.036601f,0.069736f,-0.031918f,0.045878f,-0.066220f,-0.066293f,-0.037031f,-0.030075f,-0.070061f,-0.032926f,-0.022425f,-0.047433f,0.011651f,-0.064736f,0.048408f,0.002971f,-0.057340f,-0.026878f,0.053532f,0.030347f,0.040679f,-0.014372f,0.060241f,-0.066364f,-0.014329f,-0.071336f,0.054060f,0.003039f},{-0.015714f,0.025634f,0.041380f,-0.003032f,-0.117863f,0.027830f,-0.096069f,-0.103235f,0.055369f,-0.119920f,-0.180848f,-0.101417f,-0.004195f,0.025599f,-0.033408f,0.012275f,-0.063244f,0.106376f,-0.049194f,0.116613f,0.057121f,0.128183f,-0.007915f,-0.054557f,-0.008716f,-0.156453f,-0.008919f,0.156123f,-0.226320f,-0.039699f,0.038920f,0.026875f,-0.074204f,-0.075059f,-0.042450f,0.049889f,0.073641f,-0.014162f,0.010473f,-0.031235f,-0.045345f,0.005005f,-0.187530f,-0.183364f,-0.012668f,0.067407f,-0.073894f,-0.015236f,-0.005019f,-0.023956f,-0.029311f,0.036181f,-0.076430f,0.047651f,-0.100116f,0.104822f,0.070211f,-0.009759f,0.165289f,0.000379f,0.033326f,-0.229122f,-0.084967f,0.137421f,-0.055428f,0.170198f,0.054117f,-0.014359f,0.012683f,-0.131011f,-0.029786f,0.045794f,0.277295f,-0.006046f,0.020749f,-0.065961f,-0.153491f,0.067228f,0.082565f,-0.173376f,0.203029f,-0.221799f,0.129382f,-0.053629f,-0.144142f,-0.109258f,-0.149121f,-0.010801f,-0.081090f,0.101876f,-0.056424f,-0.077771f,-0.045416f,-0.143837f,0.080634f,0.023955f,0.039477f,0.003328f,-0.162332f,-0.000169f,0.068967f,-0.067848f,-0.080296f,0.012309f,-0.058768f,-0.250357f,-0.079507f,0.004306f,0.129052f,-0.102042f,-0.000315f,0.064098f,-0.126835f,-0.172386f,-0.052688f,-0.064674f,-0.065025f,0.008179f,-0.057395f,-0.148785f,-0.062047f,0.092443f,-0.128773f,0.027665f,0.007637f,-0.199334f,0.006530f,-0.016707f,0.108176f,0.021489f,-0.096381f,-0.062854f,0.038931f,-0.142533f,-0.044654f,0.053854f,0.095790f,-0.006290f,-0.252719f,-0.173854f,0.009061f,0.029837f,0.193995f,-0.105073f,-0.000660f,-0.075152f,0.003680f,0.042149f,0.135294f,-0.048970f,-0.138729f,-0.002602f,-0.014128f,-0.210249f,0.030766f,0.078005f,-0.057972f,0.166822f,-0.093802f,-0.037422f,-0.024151f,0.082364f,0.023453f,0.008026f,0.043631f,-0.137888f,-0.132898f,0.019207f,-0.053397f,0.026648f,-0.066756f,0.003016f,0.000021f,0.105980f,0.066117f,-0.035956f,-0.020935f,0.083143f,-0.021256f,-0.017744f,-0.056020f,-0.035200f,0.037747f,-0.040430f,0.062403f,0.035870f,-0.108106f,-0.160721f,0.056053f,0.050604f,-0.060904f,-0.144415f,-0.098597f,-0.034250f,0.050012f,-0.069611f,-0.168445f,-0.008208f,0.018465f,-0.039796f,-0.135722f,-0.012268f,0.158238f,-0.150509f,0.053339f,-0.087836f,-0.176766f,0.090745f,0.004715f,-0.220331f,-0.091843f,-0.085075f,-0.057745f,0.140255f,-0.135598f,-0.061420f,0.134216f,0.067542f,-0.120669f,-0.226138f,-0.038102f,0.093347f,-0.183950f,0.052846f,-0.174884f,-0.125652f,0.086157f,0.022897f,-0.040270f,-0.165847f,0.001979f,0.122284f,-0.121027f,-0.055966f,0.014245f,-0.017754f,-0.152737f,0.060277f,-0.139968f,-0.063844f,0.102772f,0.226565f,-0.120364f,-0.014353f,0.004641f,0.039214f,0.033262f,0.048990f,0.029378f,-0.204181f,0.055926f,0.027491f,0.049749f,-0.154195f,-0.198912f,0.065348f,-0.096004f,-0.169143f,-0.014183f,0.032357f,-0.087547f,-0.222599f,-0.026950f,0.046586f,0.016250f,0.099585f,0.017042f,0.179308f,-0.010731f,0.040112f,-0.062822f,-0.044542f,-0.068226f,0.012726f,0.042762f,-0.132126f,-0.009833f,0.001439f,-0.173115f,-0.079315f,-0.176956f,-0.154241f,0.042438f,-0.053111f,-0.003517f,-0.114886f,0.085944f,0.012747f,-0.048243f,0.014809f,-0.060484f,0.042184f,-0.145933f,0.043715f,0.013866f,-0.095670f,-0.082461f,0.124998f,-0.119599f,-0.201799f,0.148217f,-0.062895f,0.174718f,0.034793f,-0.027553f,0.074214f,-0.048406f,0.025167f,0.054068f,-0.021850f,0.003842f,-0.071109f,-0.074576f,-0.028141f,0.039496f,-0.065421f,0.099069f,-0.070632f,-0.157932f,-0.258110f,0.067398f,-0.027775f,0.012870f,-0.008850f,0.000223f,0.049783f,-0.122177f,0.057914f,0.086464f,-0.033003f,-0.087475f,0.022293f,-0.025747f,-0.081593f,-0.206450f,0.065461f,0.056941f,-0.120764f,0.099264f,-0.056643f,-0.030047f,-0.027546f,0.049279f,0.067714f,-0.008227f,-0.175663f,-0.089817f,0.043567f,0.063981f,-0.009077f,-0.020500f,-0.026435f,-0.068067f,0.009750f,-0.044335f,-0.064854f,0.038225f,0.109448f,0.046237f,0.059115f,-0.159709f,-0.035403f,0.009004f,-0.050055f,-0.036451f,0.063075f,-0.003079f,-0.110594f,-0.113531f,-0.029368f,0.137006f,0.049809f,-0.047328f,-0.177154f,-0.022261f,-0.000037f,0.102288f,-0.070274f,0.064026f,-0.077729f,-0.089112f,-0.035024f,0.171947f,0.105730f,-0.047494f,-0.064050f,-0.025711f,0.088387f,-0.049211f,0.023610f,0.141620f,-0.136721f,-0.017301f,0.015332f,-0.075214f,-0.219063f,-0.140797f,0.020791f,-0.014678f,-0.083150f,-0.274217f,-0.123528f,0.016283f,-0.147878f,-0.126029f,-0.193589f,0.000671f,0.167468f,0.042793f,0.087459f,-0.123526f,-0.083948f,0.075320f,-0.011397f,-0.182652f,0.119928f,-0.014206f,0.060642f,0.003867f,0.052011f,-0.164714f,-0.012363f,0.033085f,-0.091928f,0.052012f,-0.047339f,-0.053647f,0.050192f,-0.090702f,-0.086578f,-0.026388f,-0.034292f,0.026570f,-0.203939f,-0.069760f,-0.007899f,-0.006183f,0.008688f,0.064781f,0.041275f,-0.006829f,0.030838f,-0.092300f,0.004861f,-0.116433f,0.112595f,0.112439f,0.069284f,-0.155550f,-0.026091f,-0.114608f,0.052641f,0.048983f,0.210414f,0.140416f,-0.026391f,-0.023243f,0.095154f,0.225585f,-0.083224f,0.107204f,0.068242f,0.039468f,0.052070f,-0.048054f,0.065425f,-0.027118f,-0.039533f,0.051221f,-0.021895f,0.194651f,-0.109357f,0.061680f,0.117206f,-0.079983f,0.056628f,0.066391f,-0.166249f,0.130634f,0.136383f,-0.158085f,-0.005115f,0.044012f,-0.008537f,0.076461f,-0.051574f,-0.080768f,-0.141519f,-0.034912f,-0.039006f,-0.033186f,-0.215295f,0.111615f,0.003141f,0.097028f,0.032431f,0.075827f,-0.022717f,0.144196f,0.004048f,-0.045843f,-0.109580f,-0.084080f,-0.158962f,0.115332f,-0.011684f,-0.042287f,-0.095539f,0.111819f,-0.018868f,0.001958f,-0.004665f},{0.037889f,-0.094879f,-0.084659f,-0.007815f,0.015949f,-0.035980f,-0.070339f,-0.000374f,-0.041208f,0.081136f,0.089670f,-0.175891f,-0.057663f,-0.133008f,0.138842f,-0.069860f,-0.019337f,-0.162191f,0.015199f,-0.024660f,-0.009065f,0.077173f,-0.011119f,-0.055547f,0.011241f,-0.024691f,0.006601f,-0.025543f,-0.070987f,0.019128f,-0.034047f,-0.071706f,0.037827f,0.007465f,0.002929f,-0.157786f,0.017416f,0.244951f,0.042467f,0.029111f,0.019161f,-0.046168f,-0.075504f,0.048417f,-0.025973f,0.054021f,-0.049479f,0.004376f,0.116514f,-0.167508f,0.044185f,-0.054246f,0.282768f,0.022025f,-0.051538f,-0.011970f,-0.062843f,-0.209088f,-0.062609f,0.115371f,-0.088922f,0.134829f,-0.028388f,-0.116484f,-0.151887f,-0.061525f,-0.105695f,-0.055801f,-0.006056f,-0.086253f,-0.113672f,0.068280f,0.137225f,-0.272294f,-0.066840f,0.134007f,0.042299f,0.123994f,-0.116468f,-0.028442f,-0.135956f,0.013098f,0.038452f,0.113548f,-0.077022f,0.109345f,-0.026468f,-0.067835f,0.004561f,-0.140137f,0.153730f,-0.105436f,0.064412f,-0.057639f,-0.046562f,-0.133161f,0.055120f,0.061123f,0.051962f,0.011403f,0.063616f,-0.096217f,-0.005613f,-0.308273f,0.009777f,-0.134570f,-0.019370f,-0.065892f,0.105917f,0.007716f,-0.130178f,-0.071723f,-0.082546f,0.016250f,-0.079380f,0.058964f,-0.100201f,-0.070395f,0.008704f,-0.096182f,-0.103813f,-0.046401f,0.018416f,0.059883f,-0.089004f,-0.055611f,0.026596f,0.037199f,-0.090821f,-0.042646f,-0.007869f,-0.095075f,-0.090212f,0.046867f,-0.205016f,-0.156936f,-0.080713f,-0.173153f,-0.015955f,-0.019525f,-0.114739f,0.032008f,0.193605f,0.017616f,-0.072375f,0.171019f,-0.139878f,0.018981f,0.147886f,0.161459f,0.030276f,-0.022055f,0.058643f,-0.092585f,-0.005521f,-0.073365f,-0.119418f,-0.078785f,-0.162121f,-0.071927f,-0.153928f,0.096585f,0.101991f,-0.073030f,0.019831f,0.103486f,0.185451f,0.042620f,-0.135956f,0.003916f,-0.009452f,-0.145738f,0.077040f,0.010387f,0.034084f,-0.101075f,-0.028057f,-0.051702f,-0.064758f,0.024576f,-0.064425f,0.146361f,-0.068357f,-0.042202f,0.021532f,0.013223f,-0.083959f,0.035342f,-0.107773f,-0.002718f,-0.061508f,-0.126973f,0.030051f,-0.122215f,-0.105711f,-0.004096f,-0.012929f,-0.173902f,-0.002329f,-0.077707f,-0.025437f,-0.034358f,0.054358f,-0.117317f,-0.140870f,-0.074520f,0.012461f,-0.016714f,-0.071841f,0.021751f,-0.124903f,-0.038307f,0.156185f,-0.006203f,-0.008857f,-0.103026f,0.020149f,0.121308f,0.091327f,0.045503f,-0.020842f,0.018420f,0.041016f,-0.154072f,-0.051893f,0.004736f,-0.032658f,-0.015357f,-0.011983f,-0.046640f,-0.065512f,0.077054f,-0.194771f,0.008388f,0.032789f,-0.042352f,0.119278f,-0.000317f,0.045841f,-0.041375f,0.038711f,-0.147448f,0.040177f,-0.025254f,-0.004596f,-0.075650f,-0.067074f,0.067979f,0.014182f,0.076583f,-0.119849f,-0.057383f,0.032230f,-0.052887f,0.016349f,0.046499f,-0.018587f,0.108663f,-0.140202f,-0.120403f,0.000214f,0.030790f,0.031503f,-0.058811f,0.144419f,-0.139613f,0.063959f,0.066651f,0.043767f,-0.009691f,-0.053600f,-0.099369f,0.050131f,0.005868f,0.031930f,-0.009075f,-0.161333f,0.029113f,0.057381f,0.032370f,-0.081569f,0.104242f,-0.060054f,-0.105987f,0.155640f,-0.152978f,0.015671f,-0.120376f,-0.012027f,0.155565f,0.140285f,0.063743f,-0.037339f,-0.075785f,0.034780f,0.024485f,0.045103f,0.044256f,-0.133983f,-0.069037f,0.100522f,0.030050f,0.009602f,-0.092434f,-0.105263f,-0.116777f,-0.023319f,-0.088072f,0.053902f,-0.156942f,-0.001354f,0.078506f,-0.082976f,0.105914f,-0.002559f,-0.058415f,0.066946f,0.062216f,0.192436f,0.037429f,-0.135502f,0.134328f,0.010332f,0.036399f,-0.020164f,0.023389f,-0.160404f,-0.070459f,0.086519f,0.141424f,-0.036511f,0.095335f,-0.098886f,0.059942f,-0.046313f,0.078216f,-0.261527f,0.018029f,-0.055845f,0.127575f,0.140410f,0.074984f,0.002292f,-0.023593f,0.126815f,0.099564f,-0.100532f,0.039827f,-0.133597f,-0.069490f,0.025712f,0.135387f,-0.041899f,0.091487f,-0.025954f,0.006059f,0.051924f,-0.145602f,0.007633f,-0.001525f,-0.075584f,-0.008101f,-0.033828f,-0.129325f,-0.003691f,0.097469f,0.102585f,0.019094f,-0.038987f,-0.175427f,-0.023302f,0.034261f,-0.045091f,0.063368f,0.033663f,-0.055482f,-0.197545f,-0.104827f,-0.037503f,-0.006597f,0.007369f,0.035727f,-0.053858f,0.005362f,-0.056962f,0.086269f,-0.133913f,-0.021168f,-0.114485f,-0.008709f,0.058944f,-0.098212f,0.082142f,-0.004438f,-0.071456f,-0.037233f,0.048197f,-0.071586f,-0.036285f,0.053172f,-0.127547f,0.009468f,0.038897f,0.113752f,-0.063604f,-0.036935f,-0.078699f,0.053676f,-0.011441f,-0.020915f,-0.114557f,-0.086762f,0.047565f,0.131648f,-0.027338f,0.109797f,-0.051401f,-0.067385f,-0.063421f,-0.008781f,0.094579f,-0.010823f,0.026094f,0.000516f,-0.205239f,0.020958f,0.000116f,-0.022890f,-0.081111f,0.115106f,0.058164f,0.125546f,0.000663f,0.048849f,-0.013480f,-0.128290f,-0.077171f,-0.093544f,-0.026918f,-0.054560f,-0.091516f,0.155114f,-0.142738f,-0.047712f,0.047940f,-0.135818f,0.036459f,-0.013493f,0.034049f,-0.028490f,-0.071485f,0.126952f,-0.244518f,0.291936f,0.060691f,0.062464f,-0.008989f,-0.094992f,-0.060519f,-0.027872f,-0.033889f,-0.148219f,-0.131719f,-0.023972f,0.197547f,0.033915f,0.117651f,0.050174f,-0.042653f,-0.017298f,0.089932f,0.053076f,0.025154f,0.113036f,-0.006246f,-0.015824f,0.034328f,-0.042394f,0.209984f,-0.047036f,-0.040659f,-0.117933f,0.057012f,-0.057785f,-0.080204f,-0.033668f,-0.020539f,-0.024957f,-0.171401f,-0.033039f,-0.021025f,-0.108396f,-0.077407f,-0.145048f,-0.050019f,-0.289184f,0.019744f,-0.011712f,-0.088390f,-0.030217f,-0.087381f,-0.008790f,-0.067424f,-0.110205f,0.015768f,0.011672f,0.032482f,-0.031742f,0.075080f,0.004412f,0.087924f,-0.039963f},{-0.085484f,0.056616f,0.205795f,0.027214f,-0.080071f,-0.189579f,-0.032677f,-0.187766f,0.028423f,0.065939f,0.101890f,0.077302f,-0.150470f,0.254405f,0.117357f,-0.049743f,0.209386f,-0.025556f,0.052243f,0.052948f,-0.129209f,0.111988f,0.070408f,-0.130005f,0.031157f,-0.067511f,0.047624f,-0.110527f,0.152638f,0.092756f,-0.041556f,0.008249f,0.127055f,0.326443f,-0.068576f,-0.024443f,0.026272f,0.070849f,-0.106602f,-0.246417f,0.082499f,0.005949f,-0.096667f,-0.129926f,0.068942f,0.059786f,0.022640f,-0.131178f,-0.045947f,0.039204f,-0.024378f,-0.049037f,-0.055778f,-0.014282f,0.021326f,0.125031f,-0.069985f,0.027515f,0.018261f,-0.015877f,-0.085544f,-0.000981f,0.021007f,-0.128764f,0.063981f,-0.126487f,-0.043193f,0.301402f,0.162943f,-0.015927f,-0.055687f,0.095181f,-0.155082f,-0.142553f,0.109340f,0.086633f,0.123549f,0.015622f,0.006699f,-0.049942f,-0.018488f,0.111438f,-0.045930f,-0.088807f,0.026870f,0.189611f,0.043341f,0.096363f,0.127634f,0.127585f,-0.114962f,0.061252f,-0.024716f,0.023736f,-0.036216f,0.056481f,0.040827f,-0.047309f,-0.011592f,-0.139330f,0.174512f,0.016373f,0.064215f,0.078476f,0.033887f,-0.100016f,-0.058765f,0.022143f,-0.034296f,0.112246f,0.011439f,-0.165395f,0.058868f,-0.125814f,0.016084f,0.075981f,-0.038857f,0.067393f,0.032181f,-0.068110f,0.047433f,0.105174f,0.072067f,0.004744f,0.034874f,0.105784f,-0.057809f,0.202995f,0.000488f,0.115415f,0.117544f,0.107559f,0.022933f,0.042925f,0.037102f,-0.017010f,0.032694f,0.094600f,0.023314f,-0.013364f,0.172019f,0.132183f,-0.013495f,-0.050602f,0.094518f,-0.178537f,-0.112269f,0.018505f,0.200985f,0.052936f,-0.001467f,-0.047145f,0.045835f,0.031660f,-0.113444f,0.137539f,0.084751f,-0.212280f,0.122565f,-0.017295f,-0.141671f,-0.068597f,0.010780f,0.052616f,0.099919f,0.063725f,0.051117f,0.275839f,-0.066568f,-0.025836f,0.053061f,-0.005868f,-0.094307f,-0.094793f,-0.002749f,0.079808f,0.181482f,0.012031f,-0.039839f,-0.064931f,-0.019213f,0.092590f,0.035460f,-0.067942f,0.022262f,0.022972f,-0.002980f,-0.070718f,0.080512f,0.214190f,0.007057f,0.075151f,0.055666f,0.061351f,-0.068710f,0.166441f,-0.116836f,0.251182f,0.057165f,0.152079f,0.035277f,-0.096238f,0.027237f,0.028283f,-0.078568f,0.043118f,-0.063665f,0.050782f,-0.095302f,-0.034927f,-0.039086f,-0.080004f,0.050394f,-0.041490f,-0.048459f,0.067407f,-0.048009f,0.057254f,-0.044513f,0.188546f,-0.023592f,-0.017388f,0.064224f,0.139633f,-0.104995f,0.005147f,0.114489f,0.001488f,-0.086982f,-0.080207f,-0.015807f,0.042465f,-0.069862f,0.036733f,-0.046455f,-0.045217f,0.006085f,0.281015f,0.024196f,0.052123f,0.162164f,0.168310f,-0.156533f,-0.013455f,-0.029747f,0.076039f,0.070594f,-0.170792f,-0.123954f,-0.122170f,0.129201f,0.020372f,-0.047985f,0.142284f,0.014152f,-0.042688f,0.070111f,0.024557f,-0.043978f,0.020063f,0.044245f,-0.008414f,0.049240f,-0.154765f,-0.031041f,0.248479f,0.124195f,-0.062138f,-0.125278f,0.072646f,0.034788f,-0.104260f,-0.064345f,0.256962f,-0.134271f,-0.006464f,-0.065003f,0.050602f,-0.011009f,-0.019668f,0.022624f,-0.040927f,-0.073928f,0.014145f,-0.108001f,-0.113701f,0.048080f,-0.138910f,0.061118f,0.110461f,-0.097446f,0.009891f,-0.114029f,0.013130f,0.167017f,0.005572f,-0.016230f,0.019137f,-0.091749f,0.003373f,0.018119f,-0.185704f,0.049648f,-0.262347f,-0.110280f,-0.128355f,0.001118f,-0.054684f,0.224920f,-0.084616f,0.095226f,-0.005225f,0.009111f,-0.005575f,0.024832f,0.045863f,-0.054081f,0.009612f,-0.024984f,0.049246f,-0.045894f,-0.083310f,-0.033771f,0.174056f,0.034744f,0.152731f,-0.047199f,-0.132423f,0.116275f,-0.058555f,0.188438f,0.045377f,-0.167483f,-0.013883f,0.037045f,-0.106610f,0.065655f,0.034777f,0.059777f,-0.070446f,-0.002852f,0.208302f,-0.047370f,0.097252f,-0.057590f,-0.014885f,0.049568f,-0.042053f,-0.047600f,0.189877f,-0.140332f,-0.034594f,0.074117f,0.038465f,-0.041022f,-0.032787f,-0.048761f,-0.035804f,0.002203f,-0.057974f,-0.016120f,0.020941f,-0.014506f,0.100621f,-0.078511f,0.005440f,0.131413f,0.069622f,0.040797f,-0.002388f,0.089287f,0.072484f,0.207179f,-0.099864f,-0.001269f,0.019124f,-0.004575f,-0.044767f,0.053713f,0.158758f,-0.130561f,-0.005854f,0.087278f,-0.051359f,0.025384f,0.098655f,-0.093305f,0.032635f,-0.089328f,0.214849f,-0.012634f,-0.035341f,-0.055309f,-0.094764f,0.055720f,0.046229f,-0.050508f,0.011467f,0.031109f,-0.180528f,0.171118f,-0.034385f,0.176080f,0.039538f,-0.019794f,0.156935f,0.025822f,-0.105649f,-0.004293f,-0.005254f,0.155251f,0.089309f,0.024390f,-0.119964f,-0.010790f,-0.008570f,0.064818f,0.056938f,0.052573f,0.076957f,-0.147022f,0.038616f,-0.043439f,-0.101776f,0.009924f,-0.118668f,-0.068094f,-0.073237f,-0.018226f,0.027460f,0.083119f,0.053458f,-0.179435f,0.031345f,-0.022167f,0.050609f,-0.035830f,0.029030f,0.072508f,0.029608f,0.073548f,-0.074867f,-0.136558f,0.021932f,-0.029228f,0.185671f,0.092977f,-0.087479f,-0.004609f,-0.038013f,-0.046329f,0.003764f,-0.041305f,-0.027710f,0.148917f,-0.071122f,-0.111045f,-0.063144f,-0.057845f,-0.060381f,0.003726f,-0.132514f,-0.067549f,-0.078685f,0.213966f,0.043130f,-0.000506f,0.059502f,0.006883f,0.044840f,0.018869f,0.015583f,0.059775f,0.118823f,0.190282f,-0.038652f,-0.078785f,-0.003620f,-0.094109f,0.076770f,0.082940f,-0.010420f,-0.015299f,-0.087305f,0.021832f,0.089536f,0.027843f,0.044371f,-0.005133f,-0.031674f,0.018647f,-0.132998f,-0.106082f,-0.016126f,0.006163f,-0.000238f,-0.011760f,0.072392f,0.062533f,0.072184f,-0.146068f,0.091274f,-0.076217f,0.133697f,0.081607f,-0.126678f,-0.116420f,-0.031788f,-0.031981f,0.127079f,-0.086408f,-0.058408f},{-0.018586f,-0.038235f,0.006576f,0.024764f,0.069982f,0.060949f,-0.064373f,-0.053891f,-0.004267f,0.033048f,0.066060f,-0.062910f,-0.015434f,0.010317f,0.046590f,-0.058140f,0.036923f,-0.006771f,-0.061508f,0.038570f,0.050638f,-0.005497f,-0.052261f,-0.015364f,0.060658f,0.026977f,-0.071759f,0.022149f,0.004179f,-0.019773f,0.045255f,0.054897f,-0.045264f,-0.076150f,0.001606f,-0.050586f,-0.033355f,0.032582f,-0.025301f,-0.039194f,0.071107f,0.048609f,-0.070243f,0.049059f,0.072768f,0.056218f,-0.051303f,0.045350f,-0.006818f,0.022584f,0.056655f,0.040677f,0.005921f,0.022252f,0.051467f,0.016209f,0.010075f,-0.003558f,-0.026191f,0.058575f,0.066125f,0.068360f,0.043371f,0.045888f,-0.052295f,-0.059379f,-0.047544f,0.038705f,-0.036804f,-0.055784f,-0.023523f,-0.005278f,-0.023709f,-0.028028f,0.052297f,-0.004737f,0.052298f,-0.022970f,-0.032902f,-0.028971f,0.067109f,-0.065955f,-0.046303f,-0.001752f,-0.059223f,-0.071318f,-0.035158f,-0.066265f,0.006303f,-0.019875f,-0.000541f,0.050592f,0.005993f,0.033970f,-0.013103f,-0.075128f,-0.049171f,-0.055589f,0.039116f,-0.004781f,-0.007660f,-0.047281f,-0.052840f,0.060576f,0.046217f,-0.008421f,0.051408f,-0.050461f,-0.059039f,0.034499f,0.046842f,-0.006587f,-0.017564f,-0.039295f,-0.067136f,0.014799f,-0.001909f,-0.027821f,0.044010f,0.028729f,-0.051308f,-0.072930f,0.065241f,0.015534f,0.036804f,-0.069173f,0.036765f,-0.037867f,-0.063457f,-0.006971f,0.042104f,0.017271f,-0.060053f,-0.029557f,-0.056384f,-0.068978f,0.070308f,0.018171f,-0.071851f,-0.061046f,0.073307f,-0.040558f,0.045855f,-0.056268f,0.001613f,-0.050217f,-0.045920f,0.042583f,0.009994f,0.055013f,-0.034961f,0.036406f,0.025312f,-0.041390f,-0.072249f,-0.025288f,-0.073331f,-0.006624f,0.029497f,-0.069713f,-0.042896f,0.006334f,0.052890f,0.073230f,0.048705f,-0.049742f,0.012044f,0.023227f,-0.039491f,-0.014788f,0.000183f,-0.037591f,0.035805f,0.073611f,0.058886f,0.051729f,-0.050423f,-0.053473f,-0.033005f,-0.006061f,-0.064122f,0.074625f,0.014177f,0.035655f,-0.021203f,-0.064075f,-0.066027f,-0.024819f,0.050932f,-0.013204f,0.029136f,-0.054092f,0.055147f,0.046925f,-0.053620f,-0.005308f,0.056685f,-0.010768f,0.018142f,-0.073753f,-0.017299f,-0.057845f,-0.010463f,-0.048057f,0.036387f,-0.034105f,0.042621f,0.030501f,-0.003874f,0.003011f,-0.036191f,-0.011484f,-0.038358f,0.037153f,-0.017324f,0.059291f,-0.046894f,-0.064303f,-0.000402f,-0.056718f,-0.046531f,0.026198f,-0.006073f,0.017031f,-0.037432f,0.008324f,-0.044582f,-0.021636f,-0.028266f,0.075349f,-0.039872f,0.008552f,-0.000485f,-0.022272f,-0.001597f,0.058742f,-0.066855f,0.041947f,-0.055702f,-0.028703f,-0.025552f,-0.017674f,-0.047382f,-0.045791f,-0.003717f,-0.071320f,-0.037592f,0.034450f,-0.017748f,0.018038f,0.027763f,0.051507f,-0.016580f,0.016812f,0.060098f,0.050922f,-0.019616f,0.026766f,0.017276f,-0.023747f,-0.016023f,0.013488f,-0.003549f,0.041244f,0.002413f,-0.038073f,-0.044850f,0.033092f,-0.075715f,0.073516f,0.023925f,-0.043942f,0.058518f,-0.034954f,-0.022286f,-0.065469f,0.048641f,-0.071642f,-0.014453f,0.008264f,-0.040478f,0.020064f,-0.035081f,-0.017222f,-0.008924f,0.062983f,-0.017350f,-0.013658f,0.049234f,0.073569f,-0.049462f,-0.036490f,0.004833f,-0.012228f,0.072451f,-0.022010f,-0.038495f,-0.000075f,0.034825f,0.025245f,-0.015810f,0.029340f,-0.017881f,0.003490f,0.023873f,0.047171f,0.070533f,-0.047532f,0.021621f,0.048200f,-0.034477f,-0.011753f,-0.012430f,-0.000669f,-0.064026f,-0.061431f,-0.043784f,0.065568f,-0.064388f,-0.049817f,-0.047992f,-0.023564f,0.001318f,0.048120f,0.033897f,0.074547f,-0.007505f,-0.046427f,-0.061400f,0.033000f,0.008741f,-0.071597f,-0.046377f,-0.046676f,0.018123f,0.024220f,-0.074603f,-0.043023f,-0.025774f,-0.046610f,0.075466f,0.048268f,-0.026519f,0.032226f,0.071674f,-0.070038f,0.049303f,-0.011702f,-0.036400f,-0.043072f,0.022037f,-0.054592f,0.057753f,0.000940f,0.028290f,0.069752f,0.046422f,0.043342f,0.063568f,-0.060364f,-0.032961f,-0.061460f,0.062538f,0.032141f,0.022633f,-0.071187f,-0.006154f,0.028453f,0.052680f,0.076173f,0.044226f,-0.075920f,0.074337f,0.041614f,0.006281f,-0.028850f,-0.023135f,-0.017076f,-0.056134f,0.024772f,0.068788f,-0.058180f,-0.040110f,0.018106f,-0.040284f,0.033523f,-0.027762f,-0.047616f,0.057164f,-0.071788f,0.051587f,-0.071469f,-0.012244f,-0.053975f,0.050756f,0.027622f,0.072644f,0.019093f,0.005427f,-0.058997f,-0.021763f,-0.044339f,0.007299f,0.053193f,0.062295f,-0.050254f,-0.026723f,-0.074406f,0.034489f,0.035354f,-0.061935f,-0.075928f,-0.050514f,-0.031102f,0.023112f,0.013246f,0.030986f,-0.065201f,-0.017782f,0.034121f,0.058039f,-0.040661f,-0.010400f,-0.030461f,0.008140f,0.073619f,0.012277f,-0.064374f,0.043878f,-0.048140f,-0.076170f,0.067423f,0.050073f,-0.063752f,0.051692f,0.043460f,0.024529f,0.002947f,-0.000076f,0.048963f,0.033469f,0.034621f,0.017077f,-0.015867f,0.027781f,0.045300f,0.010709f,0.062408f,-0.017188f,-0.056613f,0.062430f,0.036781f,0.021554f,-0.053764f,-0.066477f,-0.041689f,-0.075661f,0.058635f,-0.034862f,-0.054150f,-0.018113f,-0.024428f,-0.026166f,-0.012921f,-0.074109f,0.009068f,-0.044066f,0.060668f,-0.021059f,0.031311f,-0.060481f,-0.050757f,-0.007026f,0.069842f,0.038411f,0.065684f,0.026206f,-0.075381f,0.056264f,-0.031190f,-0.059154f,-0.052490f,0.022380f,0.005937f,-0.029320f,0.052447f,-0.038170f,-0.004802f,0.037475f,-0.025853f,0.029011f,0.049048f,-0.056559f,-0.052940f,0.051194f,-0.002205f,0.033008f,-0.075781f,-0.044662f,0.074365f,-0.074980f,0.054655f,-0.038105f,0.051260f,0.023758f,0.039935f,-0.051035f,0.013437f,0.052672f,-0.041971f,0.057382f,0.057591f},{0.117121f,-0.052888f,-0.036637f,-0.052576f,0.038830f,-0.009116f,0.026143f,0.042636f,-0.035388f,0.041930f,0.068917f,-0.136797f,0.009886f,-0.013598f,0.113996f,-0.105143f,-0.128674f,0.022844f,-0.029610f,-0.070906f,-0.132655f,-0.010741f,-0.032719f,-0.122431f,-0.008679f,-0.075623f,-0.070421f,0.005251f,0.076534f,-0.107810f,-0.039500f,0.097749f,0.050859f,-0.014499f,0.008403f,0.070567f,-0.040215f,0.031281f,-0.053465f,0.023959f,0.125818f,-0.078756f,0.031395f,-0.163444f,-0.012101f,0.005788f,-0.018711f,-0.110911f,0.036243f,-0.072398f,-0.185788f,-0.093629f,-0.210545f,-0.054753f,-0.035811f,0.005285f,-0.015912f,-0.026906f,-0.144735f,-0.023928f,-0.025866f,0.048574f,0.072530f,0.000430f,-0.012023f,0.046011f,-0.002580f,0.172543f,-0.080942f,-0.169050f,-0.036740f,0.064398f,0.137578f,0.066421f,-0.041065f,-0.097599f,0.061492f,0.093199f,-0.007097f,-0.045948f,-0.038005f,-0.109591f,0.147232f,-0.058628f,-0.163454f,-0.050502f,-0.003017f,-0.055792f,0.084053f,0.076422f,-0.092949f,-0.070274f,-0.074215f,0.017884f,-0.013623f,0.030345f,-0.069115f,0.037131f,0.002108f,-0.027632f,-0.048474f,-0.218255f,0.158291f,-0.032616f,-0.176840f,-0.089598f,-0.037431f,-0.110514f,0.163548f,-0.087210f,0.080667f,0.027124f,-0.075627f,-0.066582f,0.025531f,-0.015253f,0.016449f,-0.110087f,-0.195405f,-0.067236f,-0.052036f,-0.039071f,0.000759f,0.008406f,0.012972f,-0.002670f,-0.010046f,0.124344f,0.133564f,-0.063388f,-0.000678f,-0.039632f,-0.075925f,-0.122543f,0.068747f,0.128400f,0.040346f,0.012126f,0.027532f,0.145898f,-0.142524f,-0.088456f,0.202831f,0.133689f,-0.116050f,-0.154017f,0.056322f,0.110956f,0.140400f,0.020523f,-0.097672f,-0.007638f,0.129168f,-0.074478f,-0.006430f,-0.062846f,0.005005f,0.003528f,-0.145442f,0.053505f,-0.060979f,0.102596f,0.033080f,-0.086787f,-0.022782f,-0.335975f,-0.151824f,0.108886f,0.117168f,-0.043097f,-0.007813f,0.170823f,-0.118462f,-0.044323f,-0.010243f,-0.027147f,-0.204766f,-0.040496f,0.017272f,-0.006187f,-0.044043f,-0.094121f,-0.057437f,-0.060314f,-0.040565f,0.125541f,-0.046736f,-0.036417f,-0.099505f,0.136042f,-0.070837f,0.037565f,-0.101125f,-0.231134f,-0.023685f,-0.149569f,-0.136934f,0.039354f,-0.071850f,-0.151884f,-0.097553f,0.000079f,0.012107f,-0.207546f,-0.056564f,-0.082883f,-0.071835f,-0.059728f,-0.025472f,-0.093696f,-0.103916f,-0.160702f,-0.069675f,0.086331f,-0.040495f,-0.028560f,-0.024834f,0.028004f,-0.097930f,-0.137043f,-0.070745f,-0.035036f,-0.089443f,0.117651f,-0.032603f,0.055648f,-0.103559f,-0.061573f,-0.105325f,-0.091756f,-0.136716f,0.063708f,0.016676f,0.049572f,-0.099981f,0.053924f,-0.168393f,0.045324f,0.010722f,-0.055260f,0.059430f,-0.049318f,0.024477f,-0.091278f,0.063863f,-0.015367f,-0.092232f,0.051186f,-0.073266f,-0.125694f,-0.005067f,0.076587f,0.003509f,-0.083519f,-0.188792f,-0.085314f,-0.064686f,0.168902f,0.014608f,-0.031540f,-0.042499f,0.008016f,-0.148665f,-0.102748f,0.015110f,-0.124101f,-0.045254f,0.033579f,-0.118931f,0.062334f,0.022043f,-0.159019f,-0.094022f,-0.004429f,0.020249f,0.005301f,-0.143755f,0.021323f,-0.100630f,0.005320f,-0.179001f,0.021610f,-0.073857f,-0.011463f,0.044852f,-0.073478f,0.094451f,-0.009015f,-0.100679f,-0.068778f,0.046112f,-0.099705f,-0.016536f,0.070772f,0.055338f,-0.028173f,-0.062660f,0.016010f,-0.116562f,-0.041016f,0.050257f,-0.203274f,-0.310716f,-0.015043f,-0.171441f,0.139490f,-0.084897f,0.012233f,0.052526f,-0.115484f,0.043015f,-0.097504f,-0.139663f,0.068333f,-0.096412f,0.067523f,0.184122f,-0.144782f,0.069429f,0.062317f,-0.039204f,0.057586f,-0.051259f,-0.025024f,-0.117827f,-0.126813f,0.004494f,-0.096169f,0.070111f,-0.088987f,-0.008413f,0.031185f,-0.170025f,-0.159718f,-0.101536f,-0.073456f,-0.050671f,-0.157349f,-0.057959f,0.023666f,0.035668f,-0.053678f,-0.099074f,-0.042241f,-0.113064f,0.091737f,-0.104986f,-0.045301f,-0.092609f,-0.073090f,-0.087362f,0.097906f,0.115157f,-0.009331f,-0.029748f,-0.002109f,0.113595f,-0.023238f,-0.007635f,0.044769f,-0.033032f,-0.029436f,-0.063279f,-0.025569f,0.089579f,-0.009157f,0.089764f,0.081048f,-0.058770f,0.166619f,-0.152486f,-0.101693f,-0.023211f,-0.025599f,0.004619f,0.079084f,-0.138643f,-0.194323f,0.021747f,-0.060383f,-0.098715f,-0.130033f,0.022716f,-0.020731f,-0.063823f,-0.039968f,0.157931f,-0.149229f,0.053282f,0.037628f,-0.044859f,-0.099138f,-0.064600f,0.119138f,0.140198f,0.010292f,-0.033319f,0.023096f,-0.070733f,-0.062309f,-0.058480f,0.021016f,-0.160734f,-0.034909f,0.046723f,0.167651f,-0.158265f,0.009793f,-0.112658f,-0.097209f,-0.035714f,-0.021159f,0.222150f,-0.014539f,-0.097811f,0.059248f,-0.031670f,0.026395f,0.090260f,-0.009981f,-0.102182f,-0.020960f,-0.064806f,0.106482f,-0.019915f,0.111858f,-0.014349f,0.053644f,-0.100071f,-0.116199f,-0.155852f,-0.002224f,0.102837f,-0.188067f,-0.020408f,0.001051f,-0.163443f,0.099650f,-0.107599f,0.026344f,-0.015303f,0.098995f,-0.207637f,-0.010386f,-0.000639f,-0.051866f,0.180486f,0.043740f,-0.040482f,-0.064770f,-0.008818f,0.124749f,0.002947f,0.201593f,-0.213071f,0.001227f,-0.111572f,-0.062905f,-0.091292f,-0.184098f,-0.041179f,0.014111f,-0.270958f,-0.009027f,0.040838f,-0.030948f,-0.024458f,-0.110398f,-0.133674f,-0.047760f,0.080964f,-0.006776f,-0.029812f,0.034824f,-0.024755f,-0.008483f,-0.047891f,0.045503f,0.072861f,-0.101810f,-0.041641f,-0.113731f,0.102534f,-0.079546f,-0.163666f,-0.022252f,0.024934f,-0.078286f,-0.117406f,-0.006548f,-0.012668f,0.067462f,-0.093267f,0.012076f,-0.075254f,0.067549f,0.010526f,0.006480f,-0.190277f,0.064495f,-0.205285f,-0.057107f,0.068821f,0.009106f,0.149070f,0.064688f,0.016452f,-0.018457f,0.101844f,-0.038686f,0.041574f,0.136965f},{-0.031474f,-0.002821f,-0.170670f,0.027190f,-0.170320f,0.001432f,-0.014955f,0.068394f,-0.062419f,-0.064920f,0.076265f,-0.047319f,-0.095773f,-0.232680f,0.097409f,-0.079049f,-0.050494f,-0.069219f,-0.064999f,0.014689f,-0.111811f,0.046473f,-0.005763f,0.113476f,0.070372f,-0.006612f,0.044381f,-0.153397f,-0.163254f,0.071501f,0.027768f,-0.111338f,0.051676f,-0.074534f,-0.060923f,-0.155434f,0.040831f,0.033979f,-0.106121f,0.008357f,0.086524f,-0.113994f,-0.063194f,-0.025861f,-0.005348f,-0.034052f,-0.099789f,-0.230784f,0.160167f,-0.038396f,-0.131656f,-0.138209f,-0.229923f,-0.146295f,-0.160784f,0.130886f,0.037475f,0.004539f,0.034204f,-0.027349f,-0.236744f,0.060242f,-0.039578f,-0.070574f,-0.345696f,0.003627f,-0.186254f,-0.154497f,0.087261f,-0.040760f,0.026525f,-0.059892f,0.046254f,-0.089506f,0.037590f,-0.027669f,-0.005475f,0.093473f,-0.087415f,-0.143480f,0.177103f,0.039187f,0.035460f,0.052820f,-0.011623f,-0.031647f,-0.266787f,-0.084834f,-0.079188f,0.100666f,0.035888f,-0.095442f,0.119904f,-0.064590f,-0.022778f,-0.112874f,0.115675f,-0.048746f,-0.062430f,0.034916f,0.080634f,0.106791f,-0.095822f,-0.121681f,-0.225858f,0.034920f,-0.072286f,-0.229050f,-0.055885f,0.019194f,-0.138689f,-0.167387f,-0.028676f,0.034207f,0.038792f,0.015941f,-0.180641f,-0.007148f,-0.069434f,-0.119795f,0.050815f,-0.153021f,-0.090303f,-0.096548f,-0.140584f,-0.006684f,0.104259f,0.069165f,-0.128486f,0.118889f,-0.020633f,0.007956f,-0.230258f,0.001448f,-0.029215f,-0.075880f,-0.162453f,-0.168646f,-0.073803f,-0.181091f,-0.060928f,-0.079870f,-0.007753f,-0.007460f,-0.014073f,0.011608f,-0.065629f,-0.080573f,0.030041f,0.070517f,-0.097681f,-0.050089f,0.045769f,0.069377f,-0.061082f,-0.131249f,-0.004128f,-0.275749f,-0.093669f,0.004716f,-0.028768f,-0.032746f,0.071100f,-0.080999f,0.074243f,-0.165496f,-0.149592f,-0.081737f,0.040750f,0.136362f,-0.056225f,-0.173207f,0.068612f,-0.287700f,-0.028215f,-0.225918f,0.103997f,0.076947f,-0.113402f,0.002736f,-0.254671f,0.077157f,-0.024875f,0.078667f,0.061863f,-0.052296f,0.034265f,-0.200543f,0.009701f,0.081066f,-0.133695f,-0.072951f,0.059495f,-0.003974f,-0.098066f,-0.060746f,-0.071071f,0.070180f,-0.004608f,-0.127690f,-0.076166f,-0.007626f,-0.030518f,0.049696f,0.038528f,-0.035549f,0.010191f,-0.037198f,-0.072698f,-0.135378f,-0.019732f,-0.229662f,-0.014825f,0.123256f,0.059742f,-0.071578f,0.184144f,0.056081f,-0.068887f,-0.251136f,-0.043973f,-0.184963f,0.084319f,-0.068320f,-0.030446f,-0.076847f,-0.094583f,0.038820f,0.046247f,0.197441f,0.025443f,-0.153496f,-0.022336f,0.062300f,-0.059701f,0.020805f,0.014507f,0.066571f,0.003960f,0.026571f,-0.122806f,-0.129961f,-0.153372f,-0.056169f,-0.171692f,-0.135205f,-0.115227f,-0.150949f,0.028589f,0.045232f,0.074648f,0.062365f,-0.015934f,0.048976f,-0.024345f,0.069356f,-0.197399f,0.104081f,-0.030704f,0.118144f,0.084223f,0.058916f,