#include "defines.h"
const static float W5[512][10] = {{0.037219f,-0.014344f,0.066816f,0.065326f,0.037527f,-0.172332f,0.033665f,-0.013156f,0.087663f,-0.009151f},{-0.205086f,0.068914f,0.047457f,-0.054766f,-0.017681f,-0.008216f,0.031536f,-0.134913f,0.058580f,0.006634f},{-0.231472f,0.076656f,0.005684f,0.013049f,0.076969f,-0.027734f,-0.101566f,-0.054767f,-0.101995f,-0.009264f},{-0.161292f,-0.090206f,0.054673f,-0.121070f,0.061742f,0.046205f,-0.084993f,0.034823f,-0.177954f,-0.012927f},{-0.093836f,0.025146f,0.015952f,-0.013299f,-0.001768f,-0.058760f,-0.012949f,-0.105328f,-0.121954f,-0.076406f},{0.035697f,0.009129f,0.013005f,-0.040636f,-0.081055f,-0.109014f,0.079005f,-0.141216f,0.034990f,-0.016111f},{0.058063f,-0.190394f,-0.051029f,-0.004262f,-0.045231f,-0.018645f,-0.059940f,-0.066265f,-0.025522f,0.058472f},{-0.121908f,0.021892f,-0.056924f,-0.076220f,-0.061563f,-0.030946f,0.055822f,-0.017822f,-0.097654f,-0.003850f},{-0.142190f,-0.067051f,-0.212569f,-0.017406f,-0.073625f,0.057298f,0.023931f,-0.019057f,0.064238f,0.006694f},{0.017327f,-0.065582f,-0.018707f,-0.023082f,0.008091f,0.048450f,0.009362f,0.016751f,0.024555f,0.060278f},{-0.060273f,0.061025f,-0.045586f,0.002058f,0.015283f,-0.036052f,-0.109999f,0.036576f,0.037191f,-0.082499f},{-0.024794f,-0.187713f,0.009903f,-0.185552f,-0.022369f,-0.129296f,-0.023142f,-0.132106f,-0.004575f,-0.106555f},{-0.209773f,-0.190174f,-0.068652f,-0.124443f,-0.019158f,-0.053628f,-0.196621f,-0.043327f,-0.129124f,0.009411f},{-0.102409f,0.053490f,0.063911f,0.033808f,-0.039155f,-0.012100f,-0.144634f,0.040382f,0.010145f,-0.062250f},{-0.040389f,-0.078488f,0.029722f,0.024327f,-0.129462f,0.068500f,-0.044271f,0.040605f,0.093789f,0.055765f},{-0.101875f,-0.084270f,-0.021173f,-0.006077f,0.110334f,-0.138914f,0.020383f,0.017852f,-0.034795f,-0.033602f},{-0.266904f,0.079797f,-0.107412f,-0.139226f,-0.135918f,-0.164066f,-0.165786f,-0.035842f,-0.023687f,0.055853f},{-0.042942f,-0.035546f,-0.071537f,-0.024311f,-0.105709f,-0.107802f,-0.097727f,-0.025410f,-0.006825f,-0.120331f},{0.004995f,-0.080862f,0.003307f,-0.103192f,-0.172046f,-0.030731f,-0.021078f,-0.088496f,-0.073036f,0.056296f},{-0.033607f,0.004529f,0.034509f,-0.099266f,-0.294154f,-0.327048f,-0.035705f,-0.004206f,-0.139081f,-0.101373f},{0.028136f,-0.041666f,0.021482f,-0.029806f,-0.009947f,0.043519f,-0.037678f,0.009896f,-0.020289f,-0.088316f},{-0.005300f,-0.238725f,-0.071103f,0.019735f,-0.035144f,0.014721f,-0.044053f,-0.091162f,-0.109269f,0.008780f},{0.008443f,0.055334f,0.022283f,-0.003217f,-0.093031f,0.019220f,-0.019402f,0.089335f,-0.040064f,0.023203f},{0.052157f,-0.149391f,-0.053905f,0.056293f,0.039323f,0.077313f,0.060911f,-0.112919f,-0.008899f,-0.041785f},{-0.007121f,0.056290f,-0.060882f,-0.109762f,-0.059597f,-0.033714f,-0.113015f,-0.104443f,0.010449f,0.065337f},{0.014655f,-0.080689f,-0.020766f,0.068251f,-0.044294f,0.060434f,-0.070113f,-0.114196f,-0.055412f,-0.016815f},{-0.106953f,-0.107092f,-0.068854f,-0.003548f,-0.013268f,-0.007004f,-0.033104f,-0.037752f,-0.063362f,-0.035796f},{0.057722f,-0.033662f,0.039494f,-0.014852f,-0.085443f,0.004258f,0.047878f,-0.094994f,0.027938f,-0.069519f},{-0.172399f,-0.097921f,-0.136846f,0.027251f,-0.119014f,0.038084f,-0.076586f,-0.019489f,0.003104f,-0.045140f},{-0.018550f,-0.021495f,0.040963f,0.061841f,-0.041892f,-0.102713f,-0.130822f,0.055747f,0.096146f,0.053657f},{-0.001446f,-0.120453f,-0.074365f,0.047285f,0.018650f,0.046121f,-0.095007f,-0.006404f,-0.018865f,0.046930f},{-0.008202f,0.004568f,-0.039022f,-0.022265f,-0.112494f,-0.040783f,-0.052063f,0.023924f,-0.137214f,-0.033894f},{0.047154f,0.110008f,0.040046f,-0.012593f,0.051901f,0.020286f,0.072254f,-0.044959f,-0.068191f,0.007103f},{0.031745f,0.100822f,0.107780f,-0.075451f,-0.076369f,0.023595f,-0.037795f,0.006332f,-0.026156f,0.032565f},{0.029068f,0.095358f,0.075343f,0.076134f,0.050748f,-0.035692f,-0.070477f,0.026908f,0.108935f,0.010002f},{0.046866f,-0.078211f,-0.014098f,-0.031388f,0.058522f,-0.227815f,0.001204f,-0.023578f,-0.100715f,0.009085f},{0.031869f,0.051445f,-0.049504f,0.062377f,-0.073712f,0.067460f,0.059990f,0.060726f,0.063361f,0.054275f},{-0.122814f,-0.014586f,0.005701f,0.006397f,-0.006117f,0.074207f,-0.054150f,-0.018069f,0.029139f,-0.160700f},{-0.095188f,-0.072718f,-0.133799f,-0.122001f,-0.229702f,-0.030752f,-0.201371f,-0.137576f,-0.093977f,-0.182650f},{-0.021674f,0.039522f,0.043846f,0.079107f,0.066292f,-0.079117f,0.012226f,-0.014250f,-0.065276f,-0.060652f},{-0.088499f,0.045930f,-0.007874f,0.143640f,0.052091f,0.050685f,0.064126f,-0.169035f,0.113227f,-0.180821f},{0.060103f,0.016787f,-0.028973f,-0.116105f,0.056547f,-0.003086f,0.037933f,0.031521f,-0.108728f,0.065687f},{0.061508f,-0.145324f,0.047807f,0.055770f,-0.070129f,0.021927f,0.033609f,-0.038507f,0.065784f,-0.075379f},{-0.114257f,-0.051068f,0.053020f,0.098053f,-0.050753f,-0.021075f,0.052772f,0.093770f,0.001660f,-0.005347f},{0.033699f,-0.059346f,-0.138555f,0.023641f,0.020569f,0.045663f,0.005470f,0.013508f,-0.163694f,-0.037983f},{0.050217f,-0.030882f,0.011974f,0.084228f,-0.010273f,-0.039381f,0.001527f,0.049394f,0.019066f,0.068297f},{0.108946f,-0.139244f,0.023798f,0.005200f,0.013330f,0.140275f,0.085350f,0.044332f,0.071411f,-0.057776f},{-0.037158f,0.073016f,-0.024615f,-0.028163f,-0.035439f,0.042703f,-0.052411f,-0.047020f,0.023562f,0.040308f},{0.029035f,-0.047536f,-0.057532f,0.004686f,-0.088612f,-0.013784f,0.080363f,-0.041232f,-0.014220f,-0.032185f},{-0.285152f,0.007787f,-0.092688f,-0.135082f,-0.001872f,-0.117714f,-0.056950f,-0.120167f,-0.017653f,-0.086619f},{-0.102368f,-0.041766f,-0.050278f,-0.166621f,-0.097036f,-0.046779f,-0.050843f,-0.040725f,-0.100444f,-0.191592f},{0.017510f,0.093572f,0.093438f,0.043664f,0.030003f,0.033613f,0.028719f,0.099076f,-0.151684f,-0.033761f},{0.018142f,0.070425f,0.077873f,0.051366f,-0.017106f,0.032225f,-0.078414f,0.055094f,-0.037801f,0.044731f},{-0.237461f,0.043490f,0.035557f,-0.061286f,0.060101f,-0.048757f,0.035064f,-0.021905f,-0.026907f,-0.063065f},{0.049196f,-0.128821f,0.006310f,0.048994f,0.072532f,-0.103284f,-0.052693f,-0.130545f,0.100843f,0.075211f},{-0.169417f,-0.094330f,0.019957f,-0.195988f,-0.013311f,-0.053758f,-0.013534f,0.018907f,-0.047532f,-0.064173f},{-0.115187f,0.031980f,0.098192f,-0.037665f,-0.061646f,-0.017136f,-0.019874f,-0.043544f,-0.070018f,-0.214062f},{-0.008915f,-0.016303f,0.100846f,0.074896f,-0.014316f,0.045809f,-0.088001f,0.052303f,0.056872f,-0.132809f},{0.051785f,-0.099860f,-0.114650f,-0.023613f,-0.070335f,-0.019876f,-0.088904f,0.015885f,-0.011801f,0.044192f},{0.028684f,0.015537f,-0.023789f,-0.049335f,-0.024158f,-0.056230f,0.048842f,-0.061932f,-0.058773f,-0.112444f},{-0.035146f,0.031136f,-0.002746f,0.034985f,0.070968f,0.018100f,0.142562f,0.082961f,-0.030858f,0.077484f},{0.064479f,0.042561f,-0.084369f,0.035815f,0.004219f,0.036837f,0.068282f,0.070739f,0.054188f,0.074375f},{-0.125642f,0.071126f,-0.023728f,-0.104141f,0.004688f,-0.039078f,0.014730f,0.024227f,0.007770f,-0.082246f},{-0.076427f,0.055465f,-0.117104f,0.015923f,0.075810f,-0.088886f,-0.072797f,-0.003371f,-0.017755f,-0.037385f},{-0.087531f,-0.039395f,-0.036742f,-0.019963f,-0.147305f,-0.147063f,-0.083053f,-0.032598f,-0.103472f,0.008172f},{0.059925f,0.036017f,-0.003338f,0.030942f,0.001657f,0.029916f,-0.114740f,0.063763f,-0.005982f,-0.013442f},{0.074316f,0.012140f,-0.062715f,0.001513f,0.036707f,-0.010178f,0.037935f,-0.024373f,0.039816f,-0.072849f},{-0.058497f,-0.061178f,-0.044781f,-0.279687f,-0.130755f,-0.135176f,0.038266f,-0.185734f,-0.027586f,-0.099689f},{0.026248f,-0.116908f,0.003067f,0.026913f,0.045043f,0.058705f,0.033891f,-0.169011f,0.059980f,0.067209f},{0.082073f,0.052191f,-0.089022f,0.060316f,-0.214029f,0.068481f,0.138562f,-0.090244f,0.075025f,-0.126466f},{-0.041167f,-0.003501f,-0.024947f,-0.109961f,-0.120650f,-0.087213f,-0.072862f,-0.100403f,-0.075702f,-0.146329f},{-0.161505f,-0.089777f,-0.122819f,0.059626f,0.048019f,0.051847f,-0.110915f,0.017252f,0.078212f,0.012022f},{0.082273f,-0.033213f,0.016311f,-0.061706f,-0.118280f,-0.021730f,0.003919f,0.062307f,0.046263f,0.084924f},{0.043327f,0.003143f,-0.065191f,0.007728f,0.068118f,-0.160010f,-0.045021f,0.068525f,0.066224f,0.050274f},{-0.116431f,-0.116210f,-0.042936f,0.030190f,-0.052199f,-0.055963f,-0.103878f,-0.010484f,0.002116f,-0.010185f},{0.013890f,-0.160040f,-0.154334f,-0.075695f,-0.003515f,0.046711f,0.014398f,0.010131f,0.065974f,0.073752f},{-0.180402f,0.096821f,0.021387f,0.059512f,0.066294f,0.111451f,0.019633f,-0.074325f,0.062986f,-0.142487f},{0.056552f,-0.129220f,-0.155839f,-0.004883f,-0.190474f,-0.014462f,0.045339f,-0.095236f,-0.162671f,-0.112535f},{-0.005538f,-0.013874f,-0.033897f,0.010008f,0.091703f,0.019002f,-0.489393f,0.073382f,-0.037597f,0.004997f},{-0.045367f,-0.067216f,0.060448f,0.002753f,0.034219f,-0.022930f,-0.038535f,0.057303f,-0.085420f,0.020562f},{-0.053583f,-0.058637f,0.092594f,0.085607f,-0.015926f,-0.133757f,-0.087850f,0.118218f,0.078491f,0.065610f},{-0.099219f,0.020332f,-0.008033f,-0.218018f,0.007230f,0.008203f,0.034156f,-0.090633f,0.018829f,-0.104428f},{-0.106434f,-0.250934f,-0.038392f,-0.168593f,0.038078f,-0.050553f,-0.019015f,-0.068755f,-0.020307f,-0.190684f},{0.021280f,-0.034786f,-0.056339f,-0.098818f,0.016846f,0.036257f,0.064032f,-0.079298f,-0.122709f,-0.030995f},{-0.022206f,0.027745f,-0.068882f,-0.071238f,-0.004473f,-0.073811f,-0.014123f,-0.040976f,0.000326f,-0.023874f},{0.004013f,0.087194f,0.003472f,0.072342f,-0.057733f,-0.040985f,-0.100548f,0.026811f,-0.038798f,-0.089732f},{-0.025632f,0.055048f,0.018412f,0.086958f,-0.019075f,0.060570f,-0.081087f,-0.017996f,0.024027f,-0.138403f},{0.091108f,-0.036212f,0.100453f,0.057871f,0.024858f,-0.003683f,0.094135f,0.044944f,0.021482f,0.054580f},{-0.038857f,0.006455f,-0.174901f,0.063849f,-0.085643f,0.084361f,0.081001f,-0.135899f,0.054116f,0.017137f},{0.062062f,-0.203011f,-0.098257f,0.006684f,0.059557f,0.048254f,0.056497f,0.044800f,-0.105624f,0.024536f},{-0.030877f,0.048914f,-0.078380f,-0.010960f,-0.017292f,0.031822f,0.011426f,-0.001813f,0.045078f,-0.067171f},{0.007954f,-0.090181f,0.050170f,0.061006f,-0.010268f,-0.005392f,0.014559f,0.045520f,-0.040255f,-0.039050f},{-0.098158f,0.063782f,0.013278f,-0.090494f,0.080960f,0.090675f,0.070491f,0.093582f,-0.031663f,-0.179265f},{0.055203f,0.041407f,-0.059983f,-0.117323f,0.007227f,-0.024885f,-0.034010f,0.028336f,-0.047828f,-0.033932f},{-0.036102f,0.018764f,0.056851f,0.054493f,0.061931f,0.085806f,-0.176442f,0.102995f,-0.095109f,-0.068552f},{0.023304f,-0.030312f,-0.119812f,-0.067217f,-0.172216f,0.047717f,0.012338f,-0.014515f,0.006907f,-0.211618f},{-0.027698f,-0.164269f,-0.066505f,-0.214659f,-0.041812f,-0.154804f,-0.029358f,-0.176506f,-0.021914f,-0.094649f},{0.061325f,0.023829f,-0.071585f,0.028635f,-0.105754f,0.007421f,0.008667f,-0.238521f,-0.052149f,0.047516f},{0.126922f,-0.091305f,0.040212f,-0.010819f,-0.036547f,0.004729f,0.006255f,-0.009300f,-0.085920f,-0.007244f},{-0.013831f,-0.045446f,0.015631f,0.023651f,-0.110640f,-0.097759f,-0.138839f,0.002911f,-0.084456f,-0.045150f},{0.079383f,-0.070612f,0.090235f,-0.087154f,0.063049f,0.075765f,-0.041558f,0.072547f,0.059425f,-0.080652f},{-0.203345f,-0.018263f,-0.028906f,-0.100220f,-0.002084f,-0.055935f,0.000321f,-0.085994f,-0.019456f,-0.021556f},{0.025953f,-0.181052f,-0.193826f,-0.587009f,-0.062065f,-0.254944f,-0.081274f,-0.049436f,-0.158629f,-0.005332f},{-0.015047f,0.007946f,-0.140030f,-0.028996f,0.015854f,-0.114787f,-0.034779f,-0.018413f,0.042226f,0.004083f},{-0.011806f,0.019952f,-0.023706f,-0.116924f,0.099420f,-0.156968f,0.004736f,0.034074f,0.079785f,0.045483f},{-0.011898f,-0.059874f,0.038666f,-0.027622f,0.038462f,-0.087295f,-0.092036f,0.047573f,0.038985f,-0.052654f},{-0.010600f,0.045994f,-0.006608f,-0.016178f,-0.042908f,-0.128786f,0.049889f,0.069855f,0.022253f,0.040062f},{0.075282f,0.010867f,0.065217f,0.063322f,0.018953f,0.112590f,-0.046078f,0.081568f,0.000032f,-0.025134f},{0.050304f,-0.019722f,0.048429f,0.023523f,0.045808f,-0.078199f,-0.007403f,0.013011f,-0.010817f,-0.107470f},{-0.031895f,0.009317f,0.049193f,0.006601f,-0.022973f,-0.055717f,-0.098189f,0.022446f,-0.046564f,-0.020407f},{0.036692f,-0.130481f,-0.042992f,-0.010842f,-0.349498f,-0.042455f,-0.008716f,-0.016618f,-0.118015f,-0.154822f},{0.063843f,-0.003691f,-0.019841f,0.045539f,-0.161143f,0.057398f,0.031197f,-0.013308f,-0.077400f,-0.006905f},{-0.070216f,-0.077486f,-0.052791f,0.088393f,-0.114215f,-0.126645f,-0.135463f,0.013368f,-0.001171f,0.046784f},{-0.121232f,-0.043904f,-0.014317f,0.034100f,-0.244509f,-0.016925f,-0.019412f,-0.045421f,0.009567f,-0.089040f},{0.040287f,-0.006340f,-0.016657f,-0.054947f,-0.025045f,0.090990f,0.086078f,0.072861f,-0.027516f,-0.005048f},{0.044734f,-0.043373f,-0.060137f,0.000455f,0.065322f,-0.012133f,-0.103009f,-0.088256f,-0.024501f,-0.113835f},{-0.022853f,-0.048009f,-0.152493f,0.029260f,-0.121418f,-0.006039f,-0.006810f,-0.032744f,-0.058106f,-0.135987f},{-0.023850f,-0.002804f,-0.020180f,0.034921f,-0.148311f,0.037040f,-0.100784f,0.013737f,-0.204153f,-0.032486f},{0.111957f,-0.124610f,0.053647f,0.067073f,0.006262f,0.124140f,0.071124f,-0.012815f,0.031572f,-0.125065f},{-0.111828f,-0.132195f,-0.042353f,-0.086054f,0.027188f,-0.018625f,-0.144720f,-0.022761f,-0.017811f,-0.055053f},{-0.103459f,0.057608f,0.065006f,0.046738f,-0.075174f,-0.010270f,-0.109767f,0.021117f,-0.135094f,-0.049720f},{0.024169f,-0.077848f,0.067606f,-0.159623f,-0.099029f,0.051717f,-0.097589f,0.052063f,0.069701f,0.057966f},{0.025487f,-0.111636f,-0.111331f,-0.082939f,0.013884f,-0.076637f,0.032971f,0.072796f,0.000714f,-0.073423f},{-0.011624f,-0.061528f,0.052167f,0.085430f,-0.092685f,0.013406f,0.034189f,0.061948f,0.014301f,-0.007998f},{0.080444f,-0.095003f,-0.044108f,-0.112521f,0.019883f,0.061413f,0.099415f,-0.000930f,-0.024728f,0.065463f},{-0.166368f,-0.049970f,-0.013894f,0.034082f,0.037722f,0.053622f,-0.081827f,-0.020462f,-0.034044f,0.050721f},{-0.010130f,0.047179f,-0.113072f,0.064175f,-0.072607f,-0.017432f,-0.060657f,0.038171f,0.025455f,0.028155f},{-0.142112f,0.016761f,0.019041f,-0.136270f,0.020825f,-0.037250f,0.101325f,-0.037472f,0.001257f,-0.038149f},{0.083167f,-0.069121f,-0.110752f,0.045015f,-0.236800f,0.034176f,0.005693f,-0.051432f,0.053246f,0.034941f},{0.076368f,-0.136231f,0.060650f,-0.050236f,-0.034377f,0.003589f,0.054555f,0.064346f,-0.049691f,0.026970f},{0.041097f,-0.075649f,-0.058025f,0.002311f,0.009899f,0.073530f,0.059645f,0.097330f,-0.008618f,-0.023252f},{0.058500f,0.032060f,0.028613f,-0.025359f,0.014484f,0.001372f,0.063334f,-0.062892f,0.008424f,-0.052764f},{-0.125434f,0.088536f,0.055952f,-0.049749f,-0.020282f,-0.076989f,0.003176f,0.054358f,-0.043033f,0.046642f},{-0.054409f,0.044603f,-0.034726f,-0.103218f,0.051623f,-0.058698f,-0.027806f,0.059657f,0.015949f,0.083908f},{-0.129938f,-0.055094f,0.036974f,-0.067150f,0.050137f,-0.128805f,-0.003129f,0.022434f,0.054163f,-0.007925f},{-0.133216f,-0.064983f,0.015335f,-0.054627f,-0.078710f,-0.025548f,-0.298935f,0.038637f,-0.044232f,0.046239f},{0.016794f,-0.153638f,0.025580f,-0.065309f,-0.073149f,-0.013011f,0.040914f,-0.067993f,-0.005978f,-0.007936f},{0.067798f,-0.002036f,0.053058f,0.032384f,-0.056742f,0.066540f,0.097377f,0.042872f,0.033691f,-0.053384f},{-0.012704f,0.001201f,0.028144f,-0.034464f,-0.008592f,0.013921f,0.021368f,-0.020900f,-0.013152f,-0.016611f},{-0.101171f,-0.021394f,0.057394f,0.083922f,-0.140299f,-0.068141f,-0.213375f,0.087253f,0.091450f,0.003233f},{0.043117f,-0.105637f,0.020125f,0.032877f,-0.129222f,0.010898f,-0.092145f,0.012751f,0.053519f,0.066868f},{-0.147512f,-0.105461f,0.055400f,0.038218f,-0.162058f,0.014889f,-0.012606f,-0.083457f,-0.242747f,-0.030282f},{-0.036634f,0.045578f,0.005319f,-0.184451f,-0.001769f,-0.077784f,0.016735f,0.013923f,-0.151030f,-0.020561f},{0.064830f,-0.143183f,-0.035518f,-0.006028f,-0.145446f,0.026185f,0.018402f,-0.115246f,-0.075040f,-0.101312f},{-0.005212f,-0.014598f,-0.120836f,-0.037743f,-0.008195f,0.049401f,-0.029091f,-0.009178f,-0.098797f,0.045016f},{0.103052f,-0.118904f,-0.006285f,0.066740f,0.069935f,-0.070097f,-0.031111f,-0.140915f,0.070842f,0.041001f},{-0.104393f,-0.045519f,-0.165051f,0.066151f,0.030387f,0.063943f,0.089945f,-0.046670f,-0.023566f,0.059711f},{0.074589f,-0.040017f,-0.031106f,-0.139263f,0.012902f,0.030916f,-0.141490f,0.044422f,-0.053396f,-0.012598f},{0.007585f,-0.128731f,-0.121945f,-0.302034f,-0.020681f,-0.035766f,-0.009303f,-0.093189f,-0.022801f,-0.117814f},{0.009524f,0.001064f,-0.005197f,-0.105906f,-0.003773f,0.052324f,0.065921f,0.055730f,-0.205848f,-0.083734f},{0.017119f,0.036733f,-0.088625f,-0.064162f,-0.110899f,-0.067336f,0.072654f,0.107684f,-0.090272f,0.075681f},{-0.091021f,0.071652f,-0.074724f,-0.081939f,0.043009f,0.077827f,0.120152f,-0.063899f,0.071425f,-0.043159f},{-0.100960f,-0.061922f,-0.003879f,0.011887f,-0.024550f,-0.028834f,-0.112651f,-0.045097f,-0.052231f,-0.056667f},{0.053387f,0.020275f,0.066081f,0.063785f,0.008267f,-0.045897f,0.063253f,0.012185f,-0.067229f,0.057251f},{-0.126772f,-0.039518f,0.059522f,-0.002823f,0.099341f,0.047611f,-0.085972f,-0.107315f,0.043714f,0.041834f},{-0.026513f,0.001516f,0.006116f,0.068011f,0.045830f,-0.044843f,-0.129395f,0.069525f,-0.113240f,0.025883f},{-0.161941f,0.050533f,-0.143841f,0.091357f,0.056326f,0.107501f,-0.078278f,-0.054955f,0.072176f,0.085524f},{0.014916f,-0.125946f,-0.068752f,-0.139428f,-0.268407f,-0.006792f,0.022690f,-0.005797f,-0.007119f,0.021764f},{-0.060153f,-0.120239f,-0.149678f,-0.257903f,-0.005478f,-0.012718f,-0.089682f,-0.062070f,0.035720f,-0.010632f},{0.150913f,-0.046250f,-0.085160f,0.023219f,0.003315f,0.011133f,0.035821f,-0.109550f,-0.074902f,-0.093726f},{-0.271715f,-0.121421f,-0.065130f,-0.105464f,0.064128f,0.073792f,-0.053384f,-0.075405f,0.063297f,0.041172f},{-0.020122f,-0.110987f,-0.105469f,0.036188f,0.054256f,0.060801f,-0.298418f,0.046716f,-0.197161f,0.050004f},{0.044295f,0.074461f,0.059281f,0.063035f,-0.035227f,0.057243f,-0.148875f,0.068676f,-0.064675f,-0.110149f},{0.077763f,-0.076675f,0.034050f,-0.005369f,0.044518f,-0.030998f,-0.000042f,-0.023517f,0.006614f,-0.029496f},{0.048872f,-0.064442f,-0.096942f,-0.070708f,0.038120f,-0.080383f,0.021171f,-0.035616f,-0.045674f,0.033914f},{-0.083177f,-0.097171f,-0.029436f,-0.089554f,-0.006261f,-0.060103f,-0.058049f,0.021110f,-0.006398f,-0.045992f},{-0.027241f,0.061518f,0.024776f,0.052708f,0.046180f,-0.010646f,0.050863f,0.022559f,-0.028388f,0.057927f},{0.065406f,-0.074153f,-0.054617f,0.087758f,-0.036781f,0.071127f,-0.007984f,0.005342f,-0.054177f,-0.078304f},{-0.079211f,-0.081175f,0.014234f,0.004858f,-0.096090f,0.079897f,-0.038544f,0.101251f,-0.073324f,0.006993f},{-0.027334f,0.018905f,-0.106629f,-0.007713f,-0.023133f,0.031956f,0.015361f,-0.029368f,0.102071f,-0.053084f},{-0.102885f,-0.044863f,-0.119265f,0.055202f,-0.118194f,-0.180900f,-0.028260f,-0.093016f,-0.024284f,-0.112087f},{-0.052832f,-0.037853f,-0.124024f,-0.267850f,-0.061971f,-0.127704f,-0.087990f,0.054681f,-0.106692f,-0.137103f},{-0.023042f,-0.171559f,-0.134999f,-0.236895f,0.007196f,-0.024172f,0.041208f,-0.175914f,-0.325747f,-0.112042f},{0.061836f,0.004107f,0.087862f,0.109792f,0.058350f,-0.138707f,-0.064434f,0.007191f,0.099228f,-0.063894f},{0.019586f,-0.143529f,-0.167370f,-0.028850f,-0.113396f,-0.117390f,-0.099943f,0.050984f,-0.084486f,0.060642f},{-0.003889f,-0.129833f,0.090896f,-0.139307f,0.090446f,0.011525f,-0.218142f,0.055483f,-0.039199f,0.025582f},{0.032594f,-0.098979f,0.045677f,0.054655f,-0.121451f,-0.065343f,-0.133759f,0.053526f,0.069158f,-0.086449f},{-0.040971f,-0.028824f,-0.096593f,-0.256835f,-0.073094f,-0.032314f,-0.041219f,-0.066026f,0.009659f,-0.134421f},{-0.063112f,0.073985f,0.106427f,0.049555f,0.032795f,0.072542f,-0.105482f,0.094754f,0.045760f,-0.084441f},{-0.096083f,-0.004395f,0.026308f,-0.004780f,0.061263f,-0.019710f,-0.048341f,-0.179216f,0.053981f,-0.031345f},{-0.020823f,-0.107377f,-0.022813f,0.048761f,-0.103093f,0.049627f,-0.047705f,-0.045053f,-0.078148f,-0.051811f},{-0.001124f,-0.265791f,-0.032204f,0.028460f,-0.142418f,0.012512f,-0.147357f,-0.039449f,0.079747f,0.111859f},{0.070375f,0.012230f,0.066424f,0.025132f,0.029032f,0.043174f,0.047369f,-0.078302f,-0.131444f,-0.007430f},{0.034618f,-0.044424f,0.050549f,0.049539f,-0.096571f,0.019901f,-0.054747f,-0.077551f,0.046926f,-0.105161f},{-0.143867f,-0.132585f,0.028651f,0.076119f,0.063658f,0.013547f,-0.008847f,-0.095677f,0.014574f,-0.018405f},{0.001472f,-0.013859f,0.103238f,-0.019865f,0.064938f,-0.096512f,-0.263658f,0.085050f,-0.080109f,0.057072f},{-0.002331f,-0.004420f,-0.149791f,-0.100763f,-0.048201f,-0.112812f,-0.013228f,-0.092572f,-0.142027f,-0.076270f},{0.027860f,-0.037146f,0.036557f,0.000068f,0.030794f,0.027690f,-0.086374f,0.074427f,-0.009937f,0.060608f},{0.000824f,-0.032844f,-0.000087f,0.010715f,-0.035647f,-0.066576f,-0.119066f,-0.060817f,-0.074058f,-0.032786f},{-0.025247f,-0.017153f,0.018016f,-0.037600f,-0.044122f,-0.136236f,-0.027514f,0.028082f,-0.117283f,0.051404f},{-0.068395f,-0.155539f,-0.040381f,-0.174110f,-0.016437f,-0.119677f,-0.127050f,0.033081f,-0.067822f,0.039340f},{-0.088541f,-0.108143f,-0.035823f,-0.026323f,-0.014945f,0.021101f,-0.089319f,-0.074491f,-0.087833f,-0.109364f},{0.078946f,0.081417f,-0.007580f,-0.102061f,0.060652f,0.066696f,-0.062794f,0.044215f,0.093522f,-0.031468f},{-0.108265f,0.082653f,0.035447f,-0.102352f,-0.016164f,0.000703f,0.008711f,0.055439f,-0.011160f,-0.289915f},{0.042955f,0.022427f,-0.001710f,-0.107726f,-0.145276f,0.041518f,0.051676f,-0.114622f,0.102905f,-0.094248f},{0.038088f,-0.064495f,-0.002476f,-0.054290f,0.007496f,0.061855f,0.012976f,-0.064030f,0.002816f,-0.001416f},{-0.009010f,-0.121952f,0.104365f,0.042910f,-0.191590f,0.069249f,0.040392f,-0.128489f,-0.091918f,0.024368f},{0.035710f,-0.147645f,0.065636f,-0.019467f,-0.073498f,-0.006244f,-0.038385f,0.024306f,-0.088306f,0.015440f},{-0.004782f,-0.019992f,-0.008876f,-0.006705f,-0.287173f,0.033522f,-0.134360f,-0.111514f,-0.005299f,-0.055717f},{-0.045412f,-0.065099f,-0.026262f,-0.082640f,-0.083667f,-0.131299f,-0.113051f,-0.049283f,-0.052987f,-0.110704f},{0.016456f,-0.005300f,0.029941f,0.047563f,-0.182322f,-0.062509f,-0.081972f,-0.055792f,-0.065266f,-0.070911f},{-0.050543f,-0.102275f,-0.097931f,-0.080610f,0.025176f,0.022580f,0.014359f,-0.122679f,-0.135751f,-0.054464f},{0.040609f,-0.122238f,0.020026f,0.093592f,0.000055f,0.051488f,-0.104463f,-0.006959f,0.041604f,0.079192f},{-0.014766f,-0.230550f,-0.074063f,-0.289807f,0.044402f,-0.074484f,0.038179f,-0.098430f,-0.131422f,-0.090727f},{-0.027967f,0.022711f,-0.063352f,-0.054289f,-0.003939f,-0.058462f,0.041116f,0.013924f,-0.081098f,0.018993f},{-0.060595f,-0.019374f,-0.073376f,-0.056342f,-0.017695f,-0.034958f,-0.044841f,-0.047678f,-0.002344f,0.037783f},{-0.034300f,0.016885f,0.037331f,-0.024199f,-0.010169f,-0.006025f,-0.096787f,-0.066827f,0.099358f,-0.044043f},{-0.010882f,0.009249f,0.078580f,0.085086f,-0.143211f,0.059318f,-0.075653f,0.039709f,-0.014956f,-0.113592f},{-0.016781f,-0.003541f,0.005522f,-0.027196f,-0.084162f,-0.042514f,-0.001898f,0.007745f,0.057788f,0.025628f},{-0.019295f,-0.092727f,0.057029f,-0.015886f,0.034943f,0.085923f,0.060255f,-0.067617f,0.043863f,-0.057322f},{0.094227f,-0.133857f,-0.075733f,-0.097935f,0.025694f,0.030347f,0.071632f,0.034997f,0.004488f,0.015554f},{-0.011185f,0.001338f,-0.047720f,0.086064f,-0.044791f,0.068153f,0.032211f,-0.061227f,0.009802f,-0.081175f},{0.011809f,0.092263f,0.062880f,0.090064f,-0.003462f,0.075621f,-0.048002f,-0.057549f,0.041203f,-0.041601f},{0.019681f,-0.030810f,0.042259f,0.077589f,-0.001841f,-0.079933f,-0.137440f,-0.032886f,-0.294332f,0.002599f},{-0.053171f,-0.169334f,-0.265094f,0.015073f,0.039413f,0.030428f,0.036186f,-0.126371f,0.073534f,0.030943f},{-0.068454f,0.054122f,-0.131084f,0.015844f,0.010165f,-0.008139f,-0.126612f,0.077184f,-0.037675f,0.029757f},{0.010968f,-0.016246f,-0.083528f,-0.117655f,0.000507f,0.005792f,0.028618f,-0.081917f,0.040671f,-0.120021f},{0.066491f,-0.018378f,0.040403f,0.073388f,-0.163151f,0.099283f,-0.048619f,0.028041f,-0.100556f,0.045543f},{0.003558f,0.073924f,0.029987f,0.029533f,-0.106953f,-0.126008f,-0.158789f,0.067104f,-0.068212f,0.004928f},{-0.123829f,0.078051f,0.035266f,0.079115f,-0.033453f,-0.102783f,-0.219233f,0.091621f,0.012249f,-0.002114f},{0.017576f,-0.246097f,0.050107f,0.041113f,0.069686f,0.066875f,0.020241f,0.102807f,-0.085371f,0.014845f},{0.017629f,0.041764f,-0.110324f,0.026605f,0.023583f,-0.026146f,-0.114640f,0.076720f,0.069724f,-0.066120f},{0.051317f,-0.165985f,0.082003f,-0.084716f,-0.037473f,-0.021027f,0.090565f,0.017826f,0.056978f,-0.041292f},{-0.045076f,0.008887f,0.050375f,0.041522f,0.028792f,-0.078471f,0.080742f,-0.045301f,-0.057167f,-0.015788f},{0.051190f,-0.008855f,0.060360f,-0.118981f,0.039811f,-0.182227f,-0.072965f,-0.018683f,-0.057131f,0.049057f},{-0.104342f,-0.063975f,0.066643f,0.012615f,0.019542f,0.021287f,-0.128054f,0.002949f,-0.027521f,-0.169528f},{-0.047438f,-0.043130f,-0.079645f,-0.023303f,0.009285f,0.015164f,-0.183193f,0.052197f,-0.004178f,0.034377f},{-0.085273f,0.056889f,0.059022f,-0.043631f,0.002378f,-0.011431f,0.016284f,-0.118463f,0.073134f,-0.087042f},{0.004723f,-0.000436f,0.019388f,0.014342f,-0.027557f,0.029342f,-0.058041f,0.022704f,-0.038772f,-0.000574f},{0.053883f,-0.027519f,0.034067f,0.016035f,-0.212920f,0.034656f,-0.118046f,-0.065015f,0.064130f,-0.021524f},{-0.202880f,-0.203244f,0.032872f,0.008610f,0.019963f,0.029526f,-0.127401f,0.059950f,0.050008f,0.064255f},{0.070271f,-0.167489f,-0.082884f,0.073267f,0.048512f,0.104634f,0.035369f,0.085932f,-0.095479f,0.080098f},{0.010783f,0.037214f,0.004498f,0.030518f,-0.066391f,-0.012386f,0.007505f,0.013452f,-0.025126f,0.045130f},{-0.098801f,-0.030032f,-0.023630f,-0.100640f,0.083371f,0.060190f,0.031269f,-0.056675f,0.064540f,0.039399f},{-0.015909f,-0.007917f,0.036182f,-0.046211f,0.024494f,-0.059250f,-0.064779f,-0.011829f,-0.143408f,0.029004f},{0.013915f,-0.088281f,0.033288f,-0.061906f,-0.088338f,-0.000149f,0.087702f,-0.124535f,-0.044202f,-0.049622f},{-0.003918f,-0.036208f,-0.140547f,0.022369f,0.053516f,0.054290f,0.083400f,-0.189490f,0.074706f,0.047521f},{0.019732f,-0.039606f,0.043297f,0.048689f,-0.109875f,-0.025670f,-0.102674f,-0.008886f,0.083923f,0.042714f},{-0.006238f,0.059810f,0.003158f,-0.073678f,-0.094451f,-0.064480f,0.006345f,-0.048679f,-0.043278f,0.058449f},{-0.001550f,-0.062629f,0.003358f,0.055560f,-0.120457f,0.013909f,0.034058f,0.059431f,0.054647f,0.033853f},{0.047381f,-0.116609f,0.039177f,0.017629f,-0.104001f,0.062459f,-0.052314f,-0.018334f,0.065093f,0.014671f},{-0.158144f,-0.098586f,0.078917f,0.066198f,-0.016544f,-0.170121f,-0.010249f,0.104573f,0.062126f,-0.069818f},{0.013158f,-0.037998f,-0.019646f,-0.129864f,-0.051304f,-0.072098f,0.012512f,0.047263f,0.014179f,0.003932f},{-0.037785f,-0.001063f,-0.022748f,-0.002123f,-0.034140f,0.054982f,0.004464f,-0.003932f,-0.029288f,0.003366f},{0.018119f,0.018810f,0.044675f,-0.074733f,-0.074876f,-0.057342f,-0.102392f,-0.041559f,-0.007690f,-0.005723f},{0.084053f,-0.011265f,-0.042315f,-0.024925f,0.016289f,-0.004131f,-0.013376f,-0.015520f,-0.102846f,-0.004645f},{-0.004665f,0.031536f,0.031130f,-0.073880f,0.051182f,-0.116168f,-0.012437f,0.015485f,-0.074082f,-0.029876f},{0.037183f,-0.029861f,-0.080141f,-0.082721f,-0.027750f,0.011184f,0.024585f,-0.136559f,0.024222f,-0.051092f},{-0.239412f,0.083213f,0.110472f,-0.097286f,0.015794f,-0.171849f,0.049372f,-0.058962f,0.005856f,-0.094036f},{-0.215931f,0.118180f,-0.088959f,0.053949f,0.061079f,-0.006787f,-0.243124f,0.068572f,0.035697f,0.102464f},{-0.011920f,-0.067012f,0.038208f,-0.031683f,-0.113696f,0.095595f,-0.016642f,-0.025945f,-0.145088f,-0.019552f},{-0.064313f,-0.078384f,-0.061370f,-0.231486f,0.020516f,0.005103f,0.013974f,-0.147800f,-0.019802f,-0.068303f},{0.071337f,0.040133f,0.000890f,0.014635f,-0.061222f,-0.064284f,0.005581f,0.039284f,0.022527f,0.029024f},{0.070897f,-0.208010f,0.006804f,0.067960f,-0.057165f,0.040967f,-0.022741f,-0.014313f,0.069511f,-0.037122f},{0.081007f,0.045810f,0.024920f,0.068587f,-0.139172f,0.020219f,-0.053293f,0.055707f,0.036171f,-0.086470f},{0.031863f,0.048502f,0.038823f,-0.026154f,-0.022744f,0.016485f,0.020190f,0.073924f,-0.027119f,-0.058327f},{0.019827f,0.036191f,-0.069620f,-0.082851f,0.037235f,-0.026757f,-0.232754f,0.055649f,-0.116697f,0.061789f},{0.069110f,-0.036071f,0.005929f,0.017899f,-0.027686f,-0.105749f,0.053518f,-0.133097f,0.033119f,0.037022f},{-0.085763f,0.004258f,0.016640f,-0.108361f,0.001559f,0.040665f,-0.015260f,-0.027881f,0.053986f,-0.025770f},{0.009813f,-0.042072f,0.037416f,0.042782f,-0.055919f,-0.050294f,-0.005660f,0.075657f,-0.001193f,-0.100212f},{0.070972f,0.064011f,0.072049f,0.075438f,0.087831f,-0.050397f,0.025062f,-0.012161f,-0.037052f,-0.113622f},{0.068060f,0.052375f,0.050490f,0.062258f,-0.033294f,-0.063871f,0.060954f,-0.039145f,0.077937f,-0.030573f},{-0.052026f,0.029637f,0.093340f,0.078989f,0.072373f,-0.007564f,0.026841f,0.054429f,0.031636f,-0.069529f},{0.025318f,0.046928f,-0.022802f,-0.018063f,0.042889f,-0.076892f,0.038051f,0.071722f,-0.030503f,0.048862f},{0.020860f,0.100306f,0.023774f,-0.068672f,0.003817f,-0.124747f,0.041993f,0.036544f,0.015015f,0.086099f},{-0.050271f,-0.159234f,-0.217290f,0.022274f,0.114744f,0.043613f,-0.001025f,-0.018392f,-0.019160f,0.088586f},{0.000595f,0.036839f,0.090906f,0.048864f,0.018863f,-0.111688f,0.032585f,0.099206f,0.103310f,-0.089069f},{0.017512f,-0.008901f,-0.044704f,-0.023644f,-0.034745f,0.012245f,0.015580f,-0.034353f,-0.185165f,-0.017082f},{-0.044039f,-0.000956f,-0.017084f,-0.138643f,-0.078600f,-0.097297f,-0.078468f,-0.005502f,-0.159032f,-0.081238f},{-0.016669f,-0.120796f,0.041045f,-0.006593f,-0.018836f,-0.175165f,-0.159336f,-0.006182f,0.033923f,-0.052627f},{-0.053898f,-0.017605f,-0.010951f,-0.050292f,-0.066373f,-0.089847f,-0.094140f,-0.022614f,-0.057123f,-0.147118f},{-0.023802f,-0.018652f,-0.026102f,0.049004f,-0.001602f,-0.108718f,-0.039670f,0.009812f,-0.204120f,0.084847f},{0.094195f,-0.001958f,0.103258f,-0.055678f,0.053574f,-0.061994f,-0.060920f,0.086097f,-0.173677f,0.049326f},{0.019867f,-0.014398f,0.015384f,0.059158f,0.029614f,0.053814f,-0.172997f,-0.131438f,0.054040f,-0.046392f},{-0.097462f,-0.019406f,-0.044127f,0.063067f,-0.270003f,0.033913f,-0.158647f,-0.023850f,0.027299f,-0.025899f},{-0.053551f,-0.318805f,-0.210894f,-0.129226f,-0.011008f,0.004648f,0.045073f,-0.041488f,-0.091392f,0.009573f},{0.069064f,0.016180f,0.007752f,0.028833f,-0.007630f,-0.094349f,-0.021437f,-0.048338f,-0.089766f,-0.086773f},{0.023848f,0.030291f,0.028107f,0.020447f,-0.075768f,-0.067239f,0.014776f,0.011031f,0.006402f,0.001480f},{0.023236f,-0.048506f,0.018348f,0.031852f,0.010681f,0.061714f,-0.210890f,0.059782f,-0.121898f,0.022836f},{-0.033213f,0.019412f,-0.089521f,-0.172402f,-0.034706f,-0.238734f,0.000455f,-0.076656f,-0.038321f,-0.134990f},{-0.043965f,-0.153861f,-0.054838f,-0.051509f,-0.118237f,-0.006006f,-0.013886f,-0.088338f,-0.015687f,-0.040336f},{0.094844f,-0.040343f,0.027716f,-0.043165f,0.084116f,-0.026588f,0.054547f,-0.064033f,-0.074471f,0.032476f},{-0.106929f,0.024133f,0.003227f,-0.069141f,-0.035226f,-0.004388f,-0.082245f,0.060125f,-0.020687f,-0.014266f},{0.043428f,-0.176917f,-0.020182f,0.051255f,0.037795f,0.043617f,-0.088626f,-0.026048f,0.049855f,0.039126f},{0.072415f,0.013145f,0.045167f,-0.102275f,0.048754f,0.032891f,-0.021176f,0.013107f,-0.062316f,0.045001f},{0.087876f,-0.016089f,-0.163290f,0.015427f,0.026140f,-0.139231f,0.087472f,0.068586f,-0.026867f,0.093243f},{-0.000032f,0.035404f,-0.093893f,-0.110899f,0.001205f,0.014377f,-0.192916f,0.044826f,-0.067292f,0.010425f},{0.005775f,-0.000551f,-0.092523f,-0.099833f,-0.015920f,0.014176f,0.022630f,-0.145568f,-0.001708f,-0.010411f},{0.057442f,-0.079222f,0.009644f,-0.043516f,-0.029893f,-0.057755f,-0.034074f,-0.035133f,0.076799f,-0.002175f},{-0.088747f,0.095242f,-0.069740f,0.016089f,0.086782f,0.067082f,-0.029221f,0.008584f,0.036869f,0.075417f},{0.084217f,-0.060490f,0.072655f,0.024470f,0.026443f,-0.018162f,-0.171277f,-0.053184f,0.032602f,0.026492f},{-0.237670f,-0.022095f,-0.029671f,0.009846f,0.027204f,-0.102712f,-0.249849f,0.014708f,-0.000522f,0.054775f},{-0.135450f,0.041902f,-0.199644f,-0.024054f,-0.158667f,-0.059773f,-0.060171f,-0.131422f,-0.199074f,0.093754f},{-0.022021f,-0.045454f,-0.132734f,-0.067071f,0.036789f,0.032180f,0.047304f,-0.008218f,-0.006565f,-0.062422f},{0.002038f,-0.070487f,0.068714f,-0.018545f,0.047477f,-0.148526f,0.044898f,-0.056255f,-0.055656f,0.015546f},{0.053645f,0.042190f,0.048322f,-0.053211f,-0.062238f,0.101716f,0.113500f,-0.112425f,-0.059485f,0.072207f},{0.025464f,-0.055883f,-0.041454f,-0.051276f,-0.059681f,0.100101f,0.038026f,0.048327f,0.086503f,0.097546f},{-0.141605f,0.037413f,0.029980f,0.037229f,0.016767f,-0.201165f,-0.081828f,-0.036265f,0.076132f,-0.060400f},{0.011241f,-0.114726f,-0.171596f,-0.039313f,-0.012815f,0.048404f,0.029574f,0.098767f,-0.079813f,0.012787f},{-0.074979f,-0.001102f,-0.055595f,-0.115927f,-0.064998f,-0.026481f,-0.036015f,-0.032162f,-0.069329f,-0.036014f},{0.008093f,0.004035f,0.039218f,-0.078912f,-0.065836f,0.032912f,-0.052562f,0.058588f,0.058604f,-0.014294f},{0.123521f,0.033195f,0.074655f,0.101559f,0.089436f,-0.010167f,0.018796f,-0.123211f,0.011197f,-0.016452f},{-0.068579f,-0.124876f,0.002519f,-0.037865f,-0.027921f,-0.086561f,0.067310f,0.022448f,-0.103084f,0.079270f},{0.051494f,0.033938f,-0.012018f,0.032469f,-0.012841f,-0.032642f,0.054129f,-0.130441f,0.008030f,-0.199534f},{0.043017f,-0.030921f,-0.174131f,-0.042296f,-0.034437f,0.026130f,0.042998f,-0.075714f,-0.032879f,-0.016510f},{0.034505f,-0.191539f,0.005220f,-0.039226f,0.004998f,-0.054398f,0.004588f,0.063337f,-0.074718f,-0.018777f},{-0.174936f,-0.028243f,-0.133141f,-0.019805f,-0.282691f,-0.031674f,0.019877f,-0.003503f,-0.016273f,0.071966f},{0.092356f,0.004064f,-0.019116f,0.073655f,0.041283f,-0.059798f,0.048017f,-0.166164f,-0.005015f,0.020933f},{0.102540f,-0.016879f,-0.046678f,0.044554f,-0.075570f,0.079333f,0.114918f,-0.104899f,0.082406f,0.009082f},{0.085618f,-0.182549f,-0.001225f,-0.122104f,0.037134f,0.018226f,-0.132376f,0.039537f,-0.222578f,-0.023591f},{-0.238979f,0.036065f,-0.085381f,-0.008743f,0.019400f,0.050287f,0.034177f,0.006766f,-0.025608f,0.026324f},{0.094153f,0.089400f,0.057391f,-0.020040f,-0.147414f,0.057533f,-0.019309f,0.043111f,-0.039897f,0.005066f},{0.036973f,-0.008036f,0.021906f,-0.042374f,-0.141973f,0.052025f,0.025071f,-0.086551f,0.026161f,-0.167499f},{-0.034316f,0.089741f,-0.106844f,0.012343f,-0.028675f,0.005599f,-0.053650f,0.015601f,0.026045f,-0.081893f},{-0.057743f,-0.078390f,-0.046963f,-0.058336f,-0.047547f,-0.016843f,0.007388f,0.001887f,0.046224f,0.026023f},{-0.017136f,0.007255f,-0.031275f,-0.081914f,-0.093352f,-0.149728f,-0.024967f,-0.019432f,-0.088348f,-0.082516f},{-0.013479f,-0.055464f,-0.041071f,0.044245f,0.068268f,0.024384f,0.050039f,0.080922f,0.015256f,0.000004f},{0.038471f,-0.058825f,0.033135f,0.040771f,-0.089698f,0.065624f,0.092129f,-0.076342f,0.066898f,0.029377f},{-0.116357f,-0.199915f,-0.055423f,0.007957f,-0.057123f,-0.065158f,-0.027548f,0.086387f,0.026964f,-0.005832f},{0.067400f,0.028858f,0.056076f,0.039476f,-0.006121f,-0.089089f,-0.093920f,-0.145924f,0.000238f,0.016603f},{0.035774f,-0.094666f,-0.105431f,-0.123748f,0.055941f,-0.061964f,0.038616f,0.076997f,-0.035349f,-0.023365f},{-0.088263f,0.032432f,-0.077339f,0.056852f,-0.099008f,-0.089100f,0.007001f,0.040520f,-0.030581f,-0.140627f},{-0.066222f,0.054877f,-0.098287f,-0.088541f,-0.055196f,-0.008076f,-0.083620f,-0.054288f,0.068977f,0.003901f},{-0.109199f,0.103525f,0.081026f,0.029395f,-0.037489f,0.062516f,0.032554f,-0.067582f,0.027014f,0.009745f},{-0.163248f,0.046667f,-0.040410f,-0.087222f,0.055709f,-0.176234f,-0.015965f,-0.055336f,0.025501f,0.015165f},{0.016936f,-0.410040f,-0.168870f,-0.076701f,-0.011661f,0.008353f,0.026938f,0.018694f,-0.038995f,0.015221f},{-0.086737f,0.071682f,0.017923f,0.068666f,0.060950f,-0.050431f,-0.013537f,-0.003861f,0.003262f,0.084839f},{-0.064299f,-0.038666f,-0.000394f,-0.015585f,-0.156205f,0.017519f,-0.091365f,-0.004604f,-0.073944f,0.040149f},{-0.093333f,-0.044028f,-0.059360f,0.019069f,-0.099075f,-0.075598f,-0.020956f,0.051231f,-0.171868f,-0.063722f},{-0.128912f,0.002711f,-0.095219f,-0.110745f,-0.103955f,0.023760f,-0.110481f,-0.118584f,0.030526f,-0.094941f},{-0.123000f,0.030176f,0.019873f,0.037202f,-0.110905f,-0.151195f,-0.057638f,0.046728f,0.018577f,-0.004586f},{-0.079334f,-0.091300f,-0.034772f,-0.033526f,-0.047004f,-0.102351f,-0.011880f,0.020186f,0.130839f,-0.039828f},{0.024665f,-0.027614f,-0.042475f,-0.094929f,0.042657f,-0.054431f,0.046629f,-0.072269f,-0.089323f,-0.020667f},{0.031446f,-0.029972f,-0.067976f,-0.103875f,0.081375f,-0.108968f,0.057893f,0.054015f,0.055756f,0.037609f},{0.032908f,-0.044855f,-0.064143f,0.090523f,-0.008022f,0.074763f,-0.085449f,-0.084723f,0.013713f,0.048080f},{0.045997f,-0.042251f,0.003614f,0.046978f,-0.012621f,-0.076665f,-0.028405f,-0.034506f,0.057536f,0.015693f},{-0.117983f,0.065353f,-0.090881f,0.104135f,0.069725f,0.055273f,-0.047849f,-0.094716f,0.099214f,0.052455f},{0.004440f,-0.168778f,0.116745f,0.073162f,0.017266f,0.033004f,-0.031641f,-0.046145f,0.074802f,0.080077f},{-0.087431f,0.028625f,-0.096777f,-0.267730f,-0.183385f,0.032909f,-0.036080f,-0.042746f,-0.054935f,-0.096678f},{-0.104394f,0.013441f,0.022059f,0.070591f,0.122550f,0.039003f,-0.022415f,0.058168f,-0.115944f,0.055490f},{-0.129036f,0.020260f,-0.026590f,0.029628f,0.060489f,0.036214f,-0.155643f,0.010783f,-0.191186f,0.052604f},{-0.137366f,-0.047880f,-0.152040f,-0.046696f,-0.145334f,-0.103343f,-0.101446f,0.042734f,-0.053261f,-0.005699f},{-0.038138f,-0.022921f,0.041342f,0.037025f,-0.024708f,-0.007476f,-0.015102f,-0.042195f,-0.054466f,-0.034315f},{-0.069520f,-0.088178f,0.009115f,0.043353f,0.028383f,0.073496f,0.084853f,-0.099767f,0.042009f,0.067158f},{-0.078931f,-0.101203f,-0.061669f,0.083227f,0.034843f,0.057809f,-0.164818f,-0.055077f,0.074002f,0.046989f},{0.051238f,-0.007417f,-0.103278f,-0.049286f,0.022879f,-0.001915f,0.024543f,0.028129f,-0.138121f,0.054316f},{0.112733f,-0.038239f,-0.012728f,0.030251f,-0.169864f,0.026643f,-0.146222f,-0.005071f,-0.127904f,-0.014673f},{0.006379f,-0.168314f,0.012200f,0.050375f,-0.054108f,0.034246f,0.029131f,-0.021154f,-0.108378f,0.051742f},{-0.132494f,-0.128239f,-0.049425f,0.015835f,-0.077114f,-0.021404f,-0.056678f,0.001586f,0.016535f,-0.051814f},{0.010042f,-0.091196f,0.051492f,-0.033362f,-0.060695f,-0.059997f,-0.102899f,-0.064257f,-0.001167f,-0.080242f},{0.120718f,-0.081537f,0.092652f,0.073824f,-0.020514f,-0.011219f,0.067972f,-0.070926f,0.074655f,0.014824f},{-0.149319f,0.031271f,0.024421f,-0.017050f,0.000247f,0.024156f,-0.017649f,-0.050882f,-0.012425f,-0.113866f},{-0.027741f,-0.076233f,-0.051504f,-0.168076f,-0.131171f,-0.025492f,-0.130905f,-0.113335f,0.001522f,-0.040111f},{-0.072330f,0.067084f,-0.026294f,-0.053708f,-0.056378f,-0.045722f,0.051185f,-0.068296f,-0.021385f,-0.002332f},{-0.177114f,0.095588f,0.055746f,0.104176f,-0.136537f,0.009955f,-0.157750f,0.112143f,-0.007993f,-0.012609f},{0.080356f,-0.098319f,-0.084003f,0.066359f,0.001524f,-0.057593f,-0.073293f,0.049786f,-0.085597f,-0.071818f},{-0.012676f,0.006381f,0.054215f,0.061010f,-0.038509f,0.052088f,-0.084543f,0.035872f,-0.045511f,-0.077979f},{-0.006829f,0.084834f,-0.131692f,0.092509f,0.076783f,-0.025572f,-0.166678f,0.098423f,0.071281f,0.031280f},{-0.070570f,0.015994f,0.040832f,-0.003821f,-0.039323f,-0.009017f,-0.008423f,0.020817f,0.019613f,0.001797f},{0.001406f,-0.079892f,-0.009503f,-0.119208f,0.015255f,-0.081283f,0.026487f,0.014809f,-0.007491f,-0.101894f},{-0.106421f,0.030111f,0.033715f,-0.042759f,0.098338f,0.052041f,-0.098366f,-0.116859f,-0.009616f,0.030383f},{0.042119f,-0.080928f,0.055618f,-0.056279f,-0.005331f,-0.061762f,0.044658f,-0.053667f,-0.022455f,-0.100463f},{0.012103f,0.091264f,0.012827f,0.090329f,0.012737f,0.041588f,0.077852f,0.026910f,0.055339f,0.034167f},{0.095709f,-0.185377f,0.104152f,0.116993f,0.003419f,0.060995f,-0.096580f,-0.053989f,0.061930f,0.088763f},{-0.100052f,-0.150934f,-0.099913f,0.003778f,0.024706f,-0.011209f,-0.061195f,0.015740f,-0.008663f,-0.019157f},{-0.005130f,0.050190f,0.030943f,0.024903f,0.057149f,-0.009993f,-0.099091f,0.047054f,-0.038696f,-0.014541f},{0.014941f,-0.080715f,-0.073105f,-0.081375f,-0.073741f,-0.008332f,0.039540f,0.069556f,0.023520f,-0.024694f},{0.003157f,0.009313f,-0.000898f,-0.083388f,-0.001803f,-0.081003f,0.006937f,0.048921f,-0.032590f,0.005915f},{0.038941f,-0.104299f,-0.180164f,0.074622f,-0.018126f,0.072954f,0.082926f,0.005127f,-0.032278f,0.104637f},{-0.049010f,-0.034699f,0.062610f,0.024991f,-0.044968f,-0.075513f,0.016734f,0.026546f,0.066699f,-0.042809f},{0.042897f,-0.059208f,-0.007175f,-0.035795f,0.004354f,-0.045939f,0.028167f,-0.046049f,0.008475f,0.023227f},{0.074655f,0.050974f,0.019301f,0.013990f,-0.062461f,-0.055856f,-0.025525f,-0.020362f,-0.175913f,0.000852f},{0.032537f,-0.042895f,0.069742f,-0.030015f,0.063671f,-0.055363f,-0.029034f,0.093473f,-0.042093f,-0.048107f},{0.063026f,-0.047623f,-0.039812f,0.051774f,0.043011f,-0.072211f,0.082600f,0.059438f,-0.068395f,-0.004503f},{0.107496f,0.073579f,0.075006f,-0.038087f,0.036856f,-0.084629f,-0.080996f,0.076557f,0.031181f,-0.045891f},{-0.036949f,-0.017373f,0.056593f,-0.009868f,0.075712f,0.059711f,-0.100601f,-0.042217f,0.024805f,0.045152f},{0.066103f,0.063222f,-0.005771f,0.062877f,-0.048518f,-0.153009f,-0.198836f,0.068615f,0.113734f,0.093132f},{-0.008665f,-0.044858f,-0.046007f,0.010142f,0.015547f,-0.082325f,-0.031485f,0.061824f,-0.044608f,0.087754f},{0.052028f,-0.089683f,-0.002743f,0.038694f,-0.007478f,0.079656f,0.096300f,-0.045065f,-0.004003f,-0.167212f},{0.034065f,0.010568f,0.078498f,-0.001813f,-0.002813f,0.053643f,0.061164f,0.010271f,0.012164f,0.096073f},{-0.026923f,0.077589f,0.089856f,0.070614f,-0.008414f,0.097759f,0.023135f,-0.030249f,0.076257f,0.001716f},{-0.028250f,-0.067375f,0.064548f,-0.027019f,0.008101f,0.005594f,-0.231506f,-0.028848f,-0.177001f,-0.012206f},{0.014501f,0.013752f,-0.022891f,-0.106455f,-0.119387f,-0.044315f,-0.068979f,0.022372f,-0.123580f,-0.017307f},{-0.079174f,-0.026804f,-0.065949f,-0.121889f,0.035276f,0.041685f,0.043196f,0.014146f,-0.060507f,-0.056405f},{-0.136544f,0.039668f,0.077014f,-0.011229f,0.051534f,0.109252f,-0.058854f,0.058968f,0.015344f,0.074417f},{-0.109865f,0.017770f,0.008410f,-0.018770f,-0.023912f,-0.054622f,-0.070803f,0.002923f,0.004147f,-0.157717f},{-0.129691f,-0.042303f,0.034358f,0.025180f,-0.066869f,0.068845f,0.074874f,-0.085504f,0.087170f,0.041465f},{-0.060100f,0.106744f,-0.034721f,-0.190459f,0.089975f,-0.154228f,-0.037616f,0.058579f,0.076351f,0.050386f},{-0.082731f,-0.096509f,0.029734f,-0.002487f,0.014727f,0.057325f,-0.020776f,-0.005511f,-0.053690f,-0.052483f},{0.040634f,-0.004370f,0.027126f,-0.085852f,0.027515f,0.004638f,0.039237f,-0.031507f,0.015753f,0.057138f},{0.049818f,-0.228594f,-0.064148f,-0.132485f,0.006552f,0.040476f,0.050795f,-0.026688f,-0.044980f,0.008294f},{0.062967f,0.056129f,-0.046269f,-0.036508f,0.002453f,0.034290f,0.041110f,-0.082415f,0.040757f,-0.133625f},{-0.038939f,0.127146f,0.077866f,0.074937f,-0.026969f,0.003922f,0.057174f,0.048289f,0.068442f,-0.153459f},{-0.140948f,0.089267f,-0.016561f,0.014581f,0.031062f,0.009093f,0.031511f,-0.061861f,0.016076f,0.048252f},{-0.020961f,0.077212f,0.019288f,-0.070794f,0.000939f,0.021760f,-0.068010f,-0.008224f,0.087871f,-0.164303f},{-0.002174f,-0.023935f,0.061029f,0.057879f,0.027239f,0.056230f,0.027643f,-0.019946f,-0.024888f,0.061145f},{-0.077118f,-0.031861f,0.028298f,-0.062473f,-0.041922f,-0.105769f,-0.013404f,0.070721f,0.011271f,-0.051488f},{0.089202f,0.021998f,-0.101818f,-0.046426f,0.010322f,0.047299f,0.060801f,0.022548f,0.067429f,-0.000476f},{0.005868f,0.043226f,-0.008070f,-0.127373f,-0.007127f,-0.032525f,-0.004506f,-0.117603f,-0.081695f,-0.044926f},{-0.148964f,-0.036676f,-0.094797f,-0.000119f,-0.083922f,-0.007547f,-0.103065f,-0.059801f,-0.027829f,0.002617f},{-0.083989f,0.097751f,0.067795f,-0.014176f,0.038306f,-0.066221f,-0.119286f,0.068408f,-0.114543f,0.036537f},{-0.024296f,-0.015254f,0.027153f,-0.020739f,0.010251f,-0.075665f,0.031674f,-0.043807f,-0.134122f,-0.108586f},{-0.060007f,-0.107030f,0.067600f,0.085030f,0.006073f,-0.077105f,-0.019621f,0.090946f,0.086935f,0.060842f},{0.025078f,-0.080543f,-0.010863f,-0.051725f,-0.135629f,-0.004352f,-0.058728f,-0.048190f,-0.143181f,-0.111457f},{0.083989f,-0.077896f,-0.072222f,-0.036825f,-0.006456f,0.003433f,-0.224492f,0.031539f,-0.039015f,0.061444f},{-0.030291f,-0.035049f,-0.186978f,-0.158449f,-0.043900f,-0.061084f,0.061748f,-0.046557f,-0.019447f,0.016137f},{-0.140156f,-0.146466f,-0.110041f,-0.064364f,0.022979f,-0.446039f,0.014132f,0.015381f,-0.221693f,0.033934f},{-0.053696f,-0.146628f,-0.009092f,0.026206f,-0.189291f,0.056857f,0.033189f,-0.231449f,0.028753f,-0.032629f},{-0.050919f,0.041695f,0.101806f,0.045033f,0.069625f,-0.023626f,0.021844f,0.070270f,-0.017468f,0.046931f},{0.049702f,0.026372f,0.067111f,-0.002586f,0.048791f,0.063609f,-0.022745f,-0.064100f,0.058029f,-0.082627f},{-0.011539f,0.009930f,-0.032503f,0.000360f,0.012560f,0.067547f,0.089914f,-0.085732f,0.113641f,0.080074f},{0.057255f,0.083238f,0.011690f,0.018430f,0.055324f,0.056544f,0.052517f,-0.067343f,-0.145612f,0.005286f},{0.077695f,0.006448f,0.011412f,0.058811f,-0.152664f,0.041545f,-0.039133f,-0.116606f,0.050454f,0.008361f},{0.079903f,-0.032596f,0.018921f,0.094269f,-0.048995f,0.012640f,0.087868f,0.017586f,0.002991f,-0.107629f},{0.042491f,-0.294172f,-0.073800f,0.067161f,-0.049756f,-0.137151f,-0.033276f,0.074113f,0.009699f,-0.085074f},{-0.089195f,-0.108774f,-0.084394f,0.026038f,0.102605f,0.084422f,-0.078102f,0.090608f,0.082379f,0.094056f},{-0.090787f,0.035258f,-0.127521f,-0.003399f,0.099600f,0.003417f,-0.078985f,0.085776f,0.028831f,0.037733f},{-0.090057f,0.027893f,0.028422f,-0.083733f,-0.011010f,-0.027788f,-0.052471f,-0.011593f,-0.041166f,-0.056438f},{0.016666f,-0.035912f,0.044486f,-0.079697f,-0.053484f,-0.048790f,-0.052314f,0.046487f,-0.004847f,0.016496f},{-0.044878f,0.067916f,0.031841f,0.037328f,-0.063580f,-0.048178f,-0.120550f,0.038117f,-0.103775f,0.015418f},{-0.001668f,-0.084973f,0.029524f,-0.033972f,0.069352f,-0.052166f,0.054415f,0.033776f,-0.055623f,0.073975f},{-0.141385f,0.016214f,-0.010901f,-0.023339f,-0.146016f,-0.007563f,-0.000592f,0.021705f,0.032034f,-0.025351f},{-0.087457f,0.018639f,-0.234827f,-0.043307f,0.040819f,-0.183960f,-0.041502f,0.010516f,0.033838f,0.034529f},{0.072033f,-0.085730f,-0.002032f,0.059712f,0.010264f,0.059562f,0.048432f,0.042249f,0.046721f,-0.041181f},{-0.169507f,-0.062862f,-0.030007f,-0.141054f,0.039811f,0.091543f,0.060867f,-0.000076f,0.048612f,-0.012048f},{-0.029414f,-0.026637f,0.040200f,0.110135f,0.059795f,0.089157f,-0.019019f,0.019169f,0.105776f,-0.052028f},{-0.055127f,0.113772f,0.023819f,0.047556f,0.014731f,0.028532f,0.010486f,-0.080910f,-0.208035f,-0.109687f},{-0.199476f,0.046490f,-0.073343f,0.075749f,-0.080480f,0.070041f,-0.135688f,0.033640f,0.066743f,0.037090f},{-0.010628f,0.054576f,-0.064110f,0.086336f,0.013793f,-0.016880f,-0.097039f,0.076100f,-0.014448f,-0.046278f},{0.006535f,0.024064f,0.034734f,-0.037586f,0.042857f,-0.009017f,0.037107f,-0.002129f,-0.082647f,0.037297f},{-0.069801f,-0.066462f,0.004528f,-0.028609f,-0.109301f,-0.033509f,0.006872f,0.015663f,-0.057623f,0.018008f},{0.006273f,0.058532f,-0.075272f,-0.105338f,-0.076609f,0.095671f,0.061988f,-0.044962f,0.064162f,0.050965f},{-0.094324f,-0.050868f,-0.135035f,-0.008814f,0.022795f,0.042529f,0.030354f,-0.157077f,0.048060f,0.078477f},{-0.022281f,-0.003768f,0.016435f,0.027917f,-0.070875f,0.005016f,0.090873f,0.026634f,-0.003289f,-0.021153f},{-0.020456f,-0.066914f,0.018130f,-0.069257f,0.036241f,0.015689f,-0.130385f,-0.012863f,-0.032314f,0.020631f},{-0.071864f,-0.034206f,-0.042009f,0.023189f,0.011300f,-0.053605f,-0.306041f,0.059498f,-0.136703f,0.033496f},{-0.198859f,-0.035600f,-0.061985f,-0.109453f,0.024558f,-0.351277f,-0.013166f,-0.019502f,-0.141351f,-0.039497f},{-0.034912f,0.048790f,-0.015002f,0.056912f,-0.137934f,-0.121811f,-0.103186f,0.036131f,0.066674f,0.052482f},{0.085910f,-0.178767f,0.047737f,-0.052176f,0.045069f,0.036956f,-0.081168f,0.084866f,-0.015295f,0.084559f},{-0.052888f,-0.118391f,0.046693f,-0.116444f,-0.072298f,-0.212318f,-0.089767f,-0.118121f,-0.100619f,-0.027456f},{-0.171643f,-0.104891f,0.040371f,-0.109116f,-0.003575f,-0.177093f,-0.103998f,0.059939f,0.093985f,0.051627f},{-0.006887f,-0.015055f,-0.083996f,0.095420f,-0.060519f,-0.002005f,-0.249838f,0.069184f,-0.114111f,0.055044f},{0.033184f,0.050418f,-0.082413f,-0.041640f,-0.075118f,0.117215f,0.073792f,0.025374f,0.054751f,-0.000354f},{-0.001014f,-0.156765f,-0.098174f,0.099606f,-0.119497f,0.072251f,-0.097144f,0.053180f,0.031401f,0.037460f},{0.069832f,-0.002598f,0.102930f,0.031965f,-0.119010f,0.089404f,-0.148537f,0.067542f,-0.155418f,0.062524f},{0.013782f,0.066060f,0.076577f,0.031949f,0.063841f,0.101527f,-0.063744f,0.041001f,-0.019251f,-0.075101f},{0.020315f,-0.083139f,-0.002357f,-0.028040f,-0.011222f,0.023606f,0.035826f,0.053502f,-0.017104f,-0.022295f},{0.010701f,0.026055f,-0.027513f,-0.174010f,0.047459f,0.002751f,0.074644f,-0.062482f,0.038712f,0.010359f},{0.056391f,0.020831f,0.062340f,0.056845f,-0.056553f,0.078468f,0.038380f,-0.068469f,0.069860f,-0.137548f},{0.031548f,0.029284f,-0.075825f,-0.143749f,-0.084370f,-0.154255f,-0.062663f,-0.059441f,0.003831f,0.105529f},{0.056388f,0.085141f,0.079859f,0.096997f,0.031377f,0.047620f,0.121626f,-0.163682f,0.018492f,0.000742f},{-0.175969f,0.007817f,0.064476f,0.049067f,-0.155534f,-0.081582f,-0.250312f,0.060590f,0.031420f,-0.090202f},{0.035297f,-0.050364f,-0.087288f,-0.072915f,0.005733f,-0.034200f,-0.042075f,0.041653f,0.013251f,0.037345f},{0.024894f,-0.051310f,-0.030654f,0.049705f,-0.084357f,-0.019400f,-0.059512f,0.006788f,-0.087324f,-0.139395f},{0.002716f,0.064898f,0.056540f,-0.022966f,-0.015184f,-0.125181f,-0.026962f,0.095842f,0.061964f,-0.042434f},{-0.045740f,0.006237f,0.103062f,-0.040451f,0.041437f,-0.023419f,-0.091757f,-0.104718f,0.040086f,0.056240f},{0.018414f,-0.091054f,-0.031208f,-0.008395f,-0.059641f,0.017022f,-0.016728f,-0.061673f,-0.074301f,-0.035454f},{-0.057126f,0.082349f,-0.019910f,0.003306f,-0.136243f,-0.018606f,0.024509f,-0.070181f,0.027005f,-0.070386f},{0.024576f,-0.057174f,0.006478f,-0.011736f,0.043097f,-0.041264f,0.018485f,-0.043989f,0.047672f,-0.015916f},{0.033706f,-0.011048f,-0.032973f,-0.042454f,-0.030445f,-0.058548f,0.036559f,0.023490f,-0.087084f,-0.137096f},{0.049640f,0.113268f,0.078548f,-0.001108f,-0.125377f,-0.064175f,0.001377f,-0.001630f,0.034244f,-0.001849f},{0.047570f,-0.014632f,-0.044674f,-0.048692f,0.069033f,0.002342f,0.022486f,-0.092014f,-0.010871f,0.023517f},{0.093418f,0.079117f,0.031567f,0.027741f,0.032403f,0.030100f,-0.116045f,-0.035917f,0.059429f,-0.092468f},{0.082055f,-0.001350f,-0.048500f,0.057626f,-0.218983f,0.089089f,0.047782f,-0.026876f,0.047511f,-0.139597f},{0.043327f,-0.154296f,-0.127741f,-0.070481f,0.035838f,0.049087f,0.026320f,0.019825f,-0.057067f,-0.005218f},{-0.088580f,-0.077843f,0.019847f,-0.019351f,-0.092904f,-0.094843f,-0.067827f,-0.107324f,-0.008572f,-0.055951f},{-0.120722f,-0.032152f,-0.014547f,0.039637f,-0.029592f,0.050210f,0.021590f,0.038939f,0.015463f,-0.108840f},{-0.165038f,-0.169668f,-0.077390f,0.052225f,0.048493f,0.041395f,0.050220f,-0.151055f,0.052236f,0.043061f},{-0.053878f,-0.025532f,0.076432f,0.010787f,-0.038376f,-0.041089f,-0.060367f,0.014706f,0.035070f,-0.021512f},{0.051698f,0.031200f,-0.008759f,-0.138861f,0.059453f,0.027265f,0.026915f,-0.071930f,-0.000313f,0.045247f},{0.031992f,-0.039185f,-0.135013f,-0.031816f,-0.081339f,-0.026279f,-0.010327f,-0.022431f,-0.137411f,-0.084724f},{0.045104f,0.020542f,-0.058587f,-0.023223f,-0.124755f,0.021375f,-0.055517f,-0.019462f,0.098277f,-0.066123f},{-0.036429f,0.053769f,-0.145253f,-0.106419f,0.054033f,-0.105441f,-0.118711f,0.042030f,-0.028617f,0.025364f},{-0.064061f,0.027438f,0.039951f,-0.034944f,0.073089f,0.076505f,0.055377f,-0.029709f,-0.047874f,-0.119805f},{-0.127365f,0.075086f,-0.054064f,0.054846f,0.088607f,-0.101553f,-0.005579f,0.085147f,0.079099f,0.098260f},{-0.013040f,0.013438f,0.017531f,-0.023640f,-0.000882f,-0.031002f,-0.099121f,-0.006651f,-0.068995f,-0.046292f},{-0.111365f,0.043390f,-0.005099f,-0.100198f,-0.018722f,0.004504f,0.033816f,0.058060f,-0.009703f,-0.012546f},{0.045209f,-0.046640f,-0.099934f,-0.078999f,-0.053289f,-0.006106f,-0.051944f,0.069426f,0.042699f,0.000338f},{-0.229150f,-0.106975f,-0.192312f,-0.028170f,0.044547f,-0.092118f,-0.002211f,-0.176683f,-0.286927f,-0.003900f},{-0.101033f,0.082943f,0.006246f,-0.106653f,0.083966f,-0.076926f,0.015383f,0.088253f,-0.047394f,0.064724f},{0.015000f,0.006573f,-0.055019f,-0.004077f,0.023541f,0.011145f,0.042720f,0.022671f,0.038418f,0.033407f},{-0.041236f,-0.145473f,-0.043785f,-0.001669f,-0.073253f,-0.093050f,-0.084229f,0.070766f,-0.123051f,-0.101558f},{0.035972f,-0.173492f,-0.060402f,-0.029105f,0.030221f,-0.032582f,-0.062941f,0.072333f,0.067203f,0.051838f},{0.050284f,-0.025463f,0.112405f,0.045351f,0.009821f,0.044379f,0.081006f,-0.121479f,0.051342f,-0.026846f},{0.005294f,0.001812f,0.025749f,0.017429f,-0.008105f,-0.056197f,0.053221f,-0.108605f,-0.100800f,-0.078917f},{-0.005247f,0.044456f,-0.055614f,0.016295f,0.063724f,0.026459f,-0.008530f,-0.029076f,-0.005424f,0.008557f},{0.070582f,-0.176009f,-0.044017f,0.084586f,-0.071541f,-0.035371f,-0.103832f,0.050432f,0.086803f,0.089798f},{-0.053067f,-0.049669f,0.045113f,0.000849f,-0.050276f,-0.054499f,-0.026992f,0.027066f,0.009985f,-0.179756f},{0.044310f,0.035510f,-0.027366f,-0.097510f,0.031462f,-0.093200f,-0.044657f,-0.005778f,0.048173f,0.076517f},{0.017493f,0.029240f,-0.163144f,-0.227846f,0.061104f,-0.022338f,0.032866f,-0.005781f,-0.103070f,0.016135f},{-0.006234f,0.019781f,-0.072036f,0.028640f,-0.101100f,-0.056980f,0.005824f,-0.076529f,-0.007083f,-0.057701f},{-0.019800f,-0.015704f,-0.140238f,-0.027748f,-0.009267f,-0.059212f,0.072447f,0.106411f,0.013149f,-0.047691f},{-0.022636f,0.017242f,-0.006128f,-0.022441f,-0.201728f,-0.033835f,-0.052757f,0.048247f,-0.006745f,0.045381f},{-0.152179f,0.112642f,0.050345f,0.091490f,-0.009398f,-0.054744f,-0.228548f,0.091687f,-0.026591f,0.069176f},{0.062805f,-0.074470f,0.073589f,-0.014441f,-0.070473f,0.062637f,-0.169731f,0.096095f,0.074590f,0.029425f},{0.009065f,-0.049085f,0.014506f,-0.115751f,0.082334f,-0.010029f,0.058502f,0.022979f,-0.049767f,0.041415f},{0.054156f,-0.024880f,-0.149471f,-0.069287f,0.085912f,-0.088238f,-0.045456f,-0.112934f,-0.071803f,0.051385f},{-0.116569f,-0.048934f,-0.020663f,0.046091f,-0.126578f,-0.021706f,-0.094031f,-0.058152f,0.024234f,-0.078052f},{0.028569f,-0.072622f,0.061618f,0.052506f,0.014075f,-0.167805f,0.037160f,0.014007f,0.026769f,-0.176732f},{0.042946f,-0.054984f,0.070651f,-0.027514f,0.035043f,-0.038556f,-0.008497f,-0.072115f,-0.121809f,0.012615f},{-0.024141f,-0.085916f,0.045550f,-0.073531f,-0.012484f,-0.032788f,0.063352f,-0.184499f,0.031486f,-0.066526f},{-0.024361f,0.018170f,0.081856f,-0.053880f,-0.037591f,-0.033439f,-0.058878f,0.102496f,0.017381f,-0.066746f},{-0.011563f,0.046358f,-0.082242f,0.064569f,0.050400f,0.004955f,-0.148807f,-0.025442f,-0.126750f,0.043980f},{0.015327f,0.019432f,-0.083392f,-0.088620f,-0.135308f,-0.001926f,0.046748f,-0.039991f,0.044494f,-0.117539f},{-0.052127f,0.014128f,-0.008442f,0.057534f,-0.023950f,-0.038232f,-0.005436f,-0.079259f,-0.008254f,0.032037f},{-0.141108f,0.027068f,0.034488f,-0.078478f,0.034570f,0.086684f,0.056775f,-0.118401f,0.095474f,-0.032235f},{0.012794f,-0.026604f,-0.010672f,-0.029675f,-0.020931f,-0.020046f,0.020982f,-0.094183f,-0.053622f,-0.038463f},{0.017569f,0.000864f,0.063866f,-0.081209f,-0.019751f,-0.030392f,-0.059418f,0.065152f,-0.014901f,0.026889f},{-0.070283f,0.028332f,0.089729f,0.059915f,-0.110831f,-0.059535f,-0.010283f,-0.007812f,-0.014662f,-0.041199f},{-0.012264f,-0.065081f,0.074727f,-0.027592f,-0.105755f,-0.038368f,-0.096766f,0.067601f,-0.021575f,-0.020060f},{-0.145102f,0.062298f,0.036153f,-0.018827f,0.073305f,0.015647f,0.009535f,0.088637f,0.056547f,0.057700f},{-0.051469f,-0.045310f,0.065440f,0.043446f,-0.143789f,0.001279f,-0.091599f,0.010353f,0.037871f,0.034267f} };